#ifndef MODEL_H
#define MODEL_H

#include "hls_stream.h"
#include "ap_fixed.h"
#include "ap_axi_sdata.h"

#define INPUT_SIZE 36
#define HIDDEN_SIZE1 128
#define HIDDEN_SIZE2 64
#define NUM_CLASSES 9
typedef ap_fixed<32,16,AP_TRN,AP_WRAP,0> fixed_pt; //W,I,Q,O,N

const fixed_pt l1_weights[HIDDEN_SIZE1][INPUT_SIZE] = {
    {0.109527, 0.060024, 0.040791, -0.449756, 0.093282, -0.029046, -0.090735, 0.153458, -0.163562, 0.239412, -0.195733, -0.077579, 0.076241, -0.194357, -0.123899, 0.106839, -0.243562, -0.144228, 0.133961, 0.159530, 0.143622, -0.117714, 0.210077, -0.161370, -0.182100, 0.134064, -0.066093, -0.048932, -0.306413, -0.102266, -0.009435, 0.110008, -0.067368, 0.114356, 0.112566, 0.106129, },
    {0.174143, 0.086640, -0.052366, -0.137277, -0.075925, -0.001983, 0.192902, -0.039925, 0.032278, -0.106672, 0.036425, 0.089954, -0.132022, 0.006191, 0.048796, -0.070602, -0.381130, 0.256052, 0.202599, -0.189838, -0.186308, 0.463480, -0.939585, -0.270395, -0.994885, -0.161152, -0.197162, 0.320527, -0.168998, -0.210110, 0.216272, -0.343388, -0.499423, -0.589329, -0.080560, -0.428463, },
    {0.085619, -0.228550, -0.190549, -0.046569, 0.003323, -0.003720, -0.038403, -0.099908, 0.076623, 0.800267, 0.254398, 0.067214, 0.058078, -0.221062, 0.097750, -0.227861, 0.086316, 0.144951, -0.755953, -0.229923, -0.006969, 0.170548, -0.103940, -0.099697, -0.405725, -0.219325, -0.048943, -0.001733, 0.233808, 0.036398, -0.155608, -0.430170, -0.231579, 0.189661, 0.134155, -0.011801, },
    {-0.018386, 0.079646, 0.039733, 0.656742, -0.184566, -0.149611, 0.099337, 0.124728, -0.272019, 0.175394, -0.135283, 0.122194, -0.105529, -0.135018, 0.071834, -0.335739, 0.088122, 0.009661, -0.401350, -0.119864, 0.055120, 0.461593, 0.012030, 0.128251, 1.256091, 0.195089, 0.162071, -0.615584, 0.109054, 0.355580, 0.613135, -0.180684, -0.214411, -0.518882, 0.024638, 0.085742, },
    {-0.091550, 0.116475, -0.075657, -0.190358, -0.088419, -0.123812, 0.065618, 0.062186, -0.153853, -0.058991, 0.130709, -0.012083, 0.090555, -0.146649, 0.001806, 0.025007, -0.181919, -0.162103, 0.121482, 0.016777, -0.089202, 0.027148, 0.038440, -0.022456, -0.021922, -0.168048, -0.033993, 0.127459, -0.153326, 0.119699, 0.054394, 0.108280, -0.162375, 0.158462, -0.015222, -0.004525, },
    {0.274081, -0.194104, 0.091966, 1.010547, -0.350188, -0.152548, 0.047083, 0.075435, -0.309917, -0.224114, -0.544649, -0.110169, -0.053292, 0.019322, 0.144315, 0.365421, -0.407000, 0.071669, -0.076288, -0.014496, -0.029915, 0.291654, -0.303091, -0.084817, 0.970062, -0.032685, 0.053252, 0.278769, 0.237886, -0.136391, 0.560638, 0.167005, 0.184906, 0.142630, -0.347759, 0.106809, },
    {0.343249, 0.002070, -0.119410, -0.122302, 0.282334, 0.064059, -0.144537, -0.005577, -0.018947, -0.500829, -0.084998, 0.178177, -0.190115, -0.022839, -0.258761, -0.076182, 0.353959, 0.191414, -0.255784, -0.276074, -0.306208, -0.692729, 0.603706, -0.225233, -0.042805, -0.024962, 0.198186, -0.008551, 0.310614, 0.004265, -0.279421, 0.245821, 0.204050, 0.176286, -0.065703, -0.067444, },
    {0.507370, 0.128839, 0.061407, 0.758849, -0.292677, -0.250655, 0.198441, -0.120988, 0.035212, -0.812327, -0.058944, 0.007890, -0.020793, 0.195131, 0.017581, 0.107331, -0.336650, 0.147705, 0.679204, 0.072188, -0.221804, 0.250498, -0.306945, -0.203158, 0.893802, 0.202496, -0.123530, -0.228737, 0.098779, -0.324667, 0.989013, 0.090186, -0.169039, -0.387696, -0.131841, -0.144954, },
    {0.259248, 0.167925, -0.026937, 0.893645, -0.299981, -0.243950, -0.075089, -0.035123, -0.107886, -0.452267, 0.043049, 0.147257, 0.062417, 0.291298, 0.088991, 0.139100, -0.439992, -0.057975, -0.193694, -0.298182, -0.309491, -0.305772, 0.052372, -0.320167, 1.357031, 0.254086, 0.015278, -0.830707, 0.413762, 0.012261, 0.617602, 0.301225, 0.005197, -0.614882, -0.324049, -0.065023, },
    {0.131028, -0.191311, -0.198596, -0.377396, -0.008717, 0.076641, 0.040268, -0.085256, 0.026360, 0.783647, 0.195316, 0.126967, -0.108457, -0.136299, 0.090896, -0.182648, 0.211323, 0.081912, 0.023338, 0.025286, 0.012636, 1.040437, -0.622053, 0.167361, -0.936972, -0.216770, 0.113413, 0.569246, -0.051102, -0.165605, 0.196470, -0.356912, -0.374191, 0.271266, -0.017456, -0.102037, },
    {-0.089063, 0.112302, 0.095228, -0.327285, -0.146033, 0.097759, -0.037105, -0.212142, -0.094443, 0.397280, 0.264087, -0.054695, 0.141835, -0.144322, -0.164795, -0.118743, -0.202266, 0.027754, 0.009884, 0.048468, -0.000354, 0.049751, 0.232322, -0.077104, -0.114213, 0.040352, -0.251723, -0.076704, 0.305372, -0.028779, -0.012568, 0.120798, 0.038125, 0.296438, 0.130192, -0.051657, },
    {0.318961, -0.085274, 0.057105, 0.479008, -0.239411, -0.120022, -0.086619, -0.038619, 0.033670, 0.233981, 0.166183, -0.083137, 0.237221, 0.031911, -0.053885, 0.571557, 0.098263, -0.157658, 0.365847, 0.327546, -0.012307, 0.309685, -0.503542, 0.131218, 0.698074, 0.007586, -0.151663, -0.206169, 0.015834, 0.084938, 0.814647, -0.063777, -0.126926, 0.565415, -0.369790, 0.151349, },
    {-0.423438, 0.110300, -0.007160, 0.022415, 0.336252, 0.267587, -0.092077, 0.030271, 0.058434, 0.136647, 0.098281, -0.119224, 0.100768, -0.164051, 0.010691, -0.339072, 0.011757, 0.156361, -0.167349, -0.196161, -0.347963, -0.445191, 0.566885, -0.084210, -0.077971, -0.052301, 0.258898, -0.258618, -0.039144, 0.097808, -0.728887, -0.212301, -0.341124, 0.767064, 0.137017, -0.139636, },
    {0.111605, 0.015272, -0.068128, 0.186242, 0.070400, -0.181068, 0.188838, -0.141358, 0.061171, 0.071542, 0.213748, -0.064432, -0.005916, -0.094530, -0.197297, 0.005813, 0.115680, -0.008832, -0.186399, 0.054789, -0.053205, 0.003845, 0.045759, -0.063444, 0.211018, -0.177166, 0.099066, -0.090115, -0.072537, -0.121653, 0.099623, 0.055022, 0.056017, -0.012714, -0.024586, -0.032581, },
    {0.067134, -0.010865, -0.132373, -0.382250, 0.057921, 0.261247, 0.062823, 0.147125, -0.069689, 0.479413, -0.183524, -0.041438, -0.172799, -0.226668, 0.109391, -0.268550, -0.042254, 0.171293, -0.978562, -0.090760, 0.189049, 0.384884, 0.153960, 0.072322, -0.769795, -0.584412, -0.135670, 0.215478, 0.408258, -0.211756, -0.819044, -0.455540, -0.230862, -0.531312, 0.427213, -0.158968, },
    {-0.075077, -0.004741, -0.131313, -0.395310, 0.207294, 0.004207, 0.081130, -0.237830, 0.095032, -0.544972, -0.110646, 0.134577, -0.078296, -0.006571, -0.015276, -0.421320, -0.253181, 0.286142, -0.526772, -0.558178, 0.038310, -0.284822, 0.753388, -0.275004, -0.397133, -0.360181, -0.085727, 0.255876, 0.170003, -0.007334, -0.519611, -0.199065, -0.058914, -0.544314, 0.673038, -0.277832, },
    {0.217466, 0.016824, 0.164970, 0.479336, 0.365386, 0.195140, 0.256316, -0.056594, -0.121890, -0.270189, 0.443395, -0.096963, 0.213487, -0.167597, -0.006548, -0.062670, 0.724496, 0.075343, -0.462030, -0.228680, -0.292186, -0.009102, 0.120485, -0.205631, 0.188659, -0.371920, -0.274490, 0.110336, 0.724244, -0.386298, 0.085340, 0.302642, 0.078698, -0.191182, -0.101570, 0.090811, },
    {0.034528, 0.152458, -0.048962, 0.178190, 0.204829, 0.068220, 0.130676, -0.131053, 0.064472, 0.146198, -0.101487, -0.062595, 0.111439, -0.047096, -0.105094, -0.112240, -0.396442, -0.031263, 0.218208, -0.016426, 0.159350, -0.194014, 0.215075, 0.022763, -0.186579, 0.088582, -0.182909, -0.098183, -0.069328, 0.132802, -0.244262, -0.027168, -0.053139, 0.050386, -0.098179, 0.078969, },
    {-0.111470, -0.170830, -0.145743, 0.132373, -0.016343, 0.037445, -0.003413, -0.035284, -0.161394, 0.100633, 0.086797, -0.117460, -0.096130, -0.151412, -0.152851, 0.100382, -0.127065, 0.062988, 0.034164, 0.133810, -0.171370, -0.020147, 0.121725, 0.110851, -0.156998, 0.117972, -0.123378, 0.052063, -0.102655, -0.167638, 0.143695, 0.101490, -0.190275, 0.043644, -0.090013, -0.104755, },
    {-0.230167, 0.089540, -0.023141, -0.362981, 0.202300, 0.305863, -0.052909, 0.062530, -0.015025, 0.478412, -0.137569, -0.022692, -0.223685, -0.164775, -0.005325, -0.447329, -0.161648, -0.024219, 0.169769, 0.110386, 0.023812, 0.013465, -0.124713, 0.269844, -1.642849, 0.388556, -0.010527, -0.142988, -0.377623, 0.136341, -0.605004, -0.322148, -0.285103, 0.968489, -0.014437, 0.176964, },
    {0.147444, -0.076473, 0.027630, 0.153022, -0.196736, -0.040842, -0.171896, 0.066920, 0.073377, 1.008434, -0.167804, -0.206999, 0.373953, 0.086396, 0.076520, 0.110040, 0.706399, -0.420538, -0.336681, -0.173043, 0.017349, -0.245376, 0.287834, 0.049248, 0.042381, -0.324563, -0.020921, 0.358914, 0.313870, 0.011048, 0.250794, -0.007246, 0.042718, 0.391673, 0.105847, -0.048221, },
    {0.692627, 0.001071, -0.169981, 0.099851, 0.342559, 0.078071, 0.238345, -0.175168, -0.210261, -0.744171, 0.296158, -0.105123, 0.037126, 0.256274, 0.041429, -0.355492, 0.378246, 0.012369, 0.249477, 0.238682, -0.347181, 0.639868, 0.328652, 0.145553, 0.695082, 0.393098, 0.000628, -0.296575, 0.048321, 0.164397, 0.691445, 0.369411, 0.153625, -0.188441, -0.020630, 0.151501, },
    {0.418995, -0.002640, 0.078752, 0.803905, -0.280032, -0.145787, 0.200205, -0.100159, 0.155876, -0.217333, 0.114170, 0.020405, 0.103528, -0.000409, -0.048886, -0.203464, -0.443425, 0.178196, 0.118711, 0.108837, -0.141561, 0.143099, -0.075599, -0.013432, 0.034416, -0.238599, -0.220205, 0.040506, -0.282717, -0.120737, 0.674493, -0.180308, -0.229441, -0.512212, -0.190037, -0.171507, },
    {-0.065354, 0.099756, 0.017980, -0.052006, 0.087088, 0.053663, -0.043504, -0.009177, -0.081609, -0.087398, 0.165636, -0.100505, 0.072622, -0.138181, -0.114836, -0.232257, 0.130936, -0.143203, -0.010465, 0.117386, -0.149964, 0.089180, 0.017703, -0.046667, 0.062380, 0.104927, 0.085432, 0.218021, 0.105378, -0.180345, -0.020003, -0.167638, 0.027272, -0.080541, 0.042256, -0.158623, },
    {0.025907, 0.063412, -0.065357, -0.170053, 0.003917, 0.033292, 0.100024, 0.096165, 0.031592, 0.560463, -0.141441, -0.128297, -0.079272, -0.137594, 0.075636, -0.220295, 0.376502, 0.158102, -0.648203, 0.199317, 0.097911, 0.069789, -0.143187, 0.231702, -0.319143, -0.364659, -0.189126, 0.220519, 0.159328, 0.078914, 0.041019, -0.033954, 0.150004, 0.830449, 0.289260, 0.077562, },
    {0.067521, -0.046575, 0.023715, -0.322389, 0.105851, 0.089141, -0.026693, -0.010431, 0.152409, 1.114246, 0.250633, -0.078419, 0.317361, 0.281092, -0.051527, 0.669400, 0.642711, -0.310366, -0.740000, 0.379841, -0.103516, 0.519325, -0.610899, 0.171434, 1.069338, -0.124616, 0.038131, 0.064852, 0.346086, 0.131110, 0.268322, -0.077513, -0.176479, 0.656888, 0.139749, 0.147463, },
    {0.112232, -0.061790, -0.035405, -0.064542, 0.134658, -0.052887, -0.061489, -0.163847, -0.078148, 0.060135, -0.040193, -0.165114, -0.010240, 0.147137, -0.037937, -0.026166, 0.098711, -0.146738, 0.097085, -0.026536, -0.060364, -0.077109, -0.130228, -0.153224, 0.055908, 0.012871, 0.103131, -0.046691, 0.023732, -0.048007, 0.092291, -0.067862, -0.009950, -0.054168, 0.041798, 0.039633, },
    {-0.095471, -0.212342, 0.105574, 0.221726, 0.054298, 0.021013, -0.083332, -0.034713, 0.096683, 0.675880, -0.059295, -0.135690, 0.289039, -0.190027, 0.100257, 0.292964, 0.730804, -0.449404, -0.397483, -0.053885, -0.257277, -0.191975, 0.038387, -0.185986, 0.262315, -0.411509, -0.010848, 0.620260, 0.075581, 0.011753, 0.382687, 0.069901, 0.168790, 0.484538, 0.042620, 0.082221, },
    {0.384445, -0.089875, 0.047817, -0.080242, 0.171791, -0.149681, -0.086449, -0.126680, -0.041325, 0.574143, 0.051021, 0.104945, 0.016039, -0.296919, 0.065847, 0.168340, 0.192730, -0.109051, -0.773675, -0.151851, 0.054431, -0.047863, 0.211525, -0.189861, -0.309731, -0.500116, -0.123096, 0.819103, 0.188103, -0.128206, -0.186421, -0.155581, 0.044998, 0.573316, 0.165199, 0.057809, },
    {0.059255, -0.126505, -0.129185, 0.033434, 0.114941, 0.115259, 0.160036, -0.144228, 0.018407, -0.010864, 0.124303, 0.032051, -0.076141, -0.112558, -0.165543, -0.173989, 0.186036, -0.031470, -0.046975, -0.099842, -0.094536, -0.001859, 0.129338, 0.061080, -0.059650, -0.094845, 0.017290, -0.069677, -0.056343, -0.190457, -0.014510, -0.128479, 0.122916, -0.037439, -0.134057, -0.173482, },
    {0.142188, 0.016303, 0.043357, -0.037071, -0.304219, -0.175186, 0.008663, 0.198187, -0.080218, 0.416236, -0.337525, 0.124036, 0.026249, -0.176516, 0.035405, -0.129746, -0.062287, -0.016091, 0.796000, 0.220117, 0.295023, 0.499857, -0.612091, 0.060421, -0.367044, 0.603717, 0.000389, 0.227803, -0.589244, 0.259246, 0.579315, 0.035353, 0.014533, 0.381783, -0.224295, -0.146518, },
    {0.058527, -0.076149, 0.026111, -0.052154, -0.157993, -0.142717, -0.069843, -0.081332, -0.033401, -0.112170, 0.067022, -0.042966, 0.230963, -0.045926, -0.006951, -0.026425, -0.076429, -0.073459, -0.158042, -0.091734, -0.042306, -0.097488, -0.025975, -0.079258, 0.069059, -0.074367, -0.100997, -0.020032, 0.018650, 0.042415, 0.034472, -0.008254, 0.068625, 0.140419, -0.018634, -0.223223, },
    {-0.036600, 0.077525, -0.149228, -0.106085, -0.068841, -0.030674, 0.083333, -0.072641, 0.027323, 0.085548, -0.092613, -0.113249, -0.133176, 0.098471, -0.131556, -0.203915, 0.064480, -0.153855, 0.116201, 0.055665, 0.074666, 0.117099, 0.157092, -0.070778, -0.093977, -0.019087, -0.015833, -0.190793, -0.134101, -0.125332, 0.002914, -0.010066, 0.020778, 0.091231, 0.087972, -0.152136, },
    {-0.394503, -0.056983, -0.025469, -0.377615, 0.034093, 0.337889, -0.153599, 0.072709, -0.013862, 0.529981, 0.164245, -0.034734, 0.178278, 0.016628, 0.015552, 0.227507, 0.248692, -0.320526, 0.328883, 0.216636, -0.347917, 0.428796, -0.295671, 0.194971, -1.421033, 0.289762, 0.035650, -0.210911, -0.378167, 0.236195, -0.263173, 0.025453, -0.153832, 1.061762, -0.329651, 0.222589, },
    {0.011405, -0.000680, -0.061494, 0.353485, -0.153902, -0.055348, 0.286291, 0.053453, 0.111803, -0.568739, -0.105433, -0.216638, -0.024231, -0.230585, -0.154279, -0.331815, 0.029310, -0.005031, 0.475366, -0.126272, -0.074550, 0.009637, -0.558776, -0.103498, -0.476729, -0.333467, -0.282496, 0.179441, 0.140832, -0.196229, 0.977154, -0.154156, -0.447098, 0.162400, -0.358289, -0.160293, },
    {0.556074, 0.024838, -0.021531, -0.342231, -0.023812, -0.178417, -0.073648, -0.090209, -0.102533, 0.759104, 0.058738, 0.352299, -0.039814, -0.202993, 0.027346, 0.193673, 0.183549, 0.183507, -0.697084, 0.050327, 0.307216, 0.052568, -0.185971, -0.029415, -0.771832, -0.499196, -0.108521, 0.357410, 0.009958, -0.013992, -0.315557, 0.110968, 0.318770, 0.092298, 0.228153, -0.060498, },
    {-0.321680, -0.226834, 0.081201, -0.684557, -0.279108, -0.138068, 0.149525, 0.142665, -0.092824, 0.088267, -0.081284, -0.027230, 0.163292, -0.257343, -0.061644, -0.512126, -0.005189, -0.056655, 0.781802, 0.337116, 0.319937, -0.177173, 0.096625, 0.076528, -1.569385, 0.079582, 0.031964, 0.395399, -0.243685, 0.197559, -0.376889, 0.279567, 0.145635, -0.265790, -0.472668, 0.070090, },
    {-0.309060, 0.114721, 0.020493, -0.686396, 0.255837, 0.222728, 0.023460, 0.082551, 0.110033, -0.097279, -0.066408, 0.130485, 0.110890, -0.167021, -0.180186, -0.321000, 0.134964, -0.218999, 0.017777, -0.168210, 0.187867, -0.355890, 0.191562, 0.114017, 0.318602, 0.096497, 0.493773, -0.535705, -0.169127, 0.317525, -1.201054, -0.112512, 0.111558, -0.044617, 0.173323, -0.030719, },
    {-0.152190, -0.092836, 0.025090, 0.704901, -0.023153, -0.058940, 0.125392, 0.181293, 0.018083, 0.552122, -0.146821, 0.026537, 0.035157, -0.054698, 0.002932, 0.145455, -0.130408, -0.221962, 0.384181, -0.074843, 0.067149, -0.266127, -0.162702, 0.098811, 1.060116, 0.259557, 0.141910, -0.497080, -0.232780, 0.210149, 0.030936, 0.114424, 0.142198, 0.311801, -0.152107, 0.115900, },
    {0.334229, -0.332926, 0.120315, 1.213058, 0.656953, 0.077151, -0.165396, -0.023163, -0.204325, 0.071682, -0.254019, -0.069239, 0.300430, 0.025288, 0.096761, 0.492732, 0.467332, -0.316710, -0.412580, -0.320829, -0.374669, -0.565584, -0.350572, -0.198304, -0.417639, -0.508841, -0.206980, 0.909903, 0.136547, -0.231469, -0.248499, 0.499138, 0.300689, 0.318602, -0.510800, 0.007609, },
    {0.165237, 0.094100, -0.143214, -0.419321, 0.172231, 0.077560, -0.114312, 0.123215, -0.160713, 0.031506, 0.144105, 0.005970, -0.156724, -0.310872, 0.001604, 0.167626, 0.394576, 0.154462, -0.262057, -0.048743, 0.054627, 0.352584, -0.388482, -0.130424, -0.744392, -0.136884, -0.103321, 0.326340, -0.004788, -0.136214, 0.195802, 0.003805, -0.094376, 0.429534, -0.002181, 0.062990, },
    {0.150252, 0.038466, 0.069601, 0.894847, 0.061605, -0.030821, 0.117887, 0.018494, -0.068954, -0.072976, 0.239551, 0.008934, 0.112487, 0.250354, 0.004491, 0.137967, -0.015942, 0.092879, 0.408434, -0.029245, -0.285668, 0.156415, -0.022265, 0.009239, 0.840535, 0.147928, -0.033897, -0.495816, 0.169982, -0.096765, 0.796468, 0.173629, 0.133899, -0.038262, -0.239145, 0.190368, },
    {-0.168186, -0.069314, 0.101944, -0.118920, -0.070909, -0.122269, 0.142479, 0.203264, -0.011026, 0.450068, -0.364081, -0.149335, 0.274421, -0.075027, -0.043701, 0.138107, 0.294713, -0.278835, -0.428246, -0.091369, -0.163034, -0.143937, 0.188645, 0.078332, -0.732105, -0.146206, -0.179496, 0.392735, -0.175358, -0.006048, 0.180496, 0.207103, 0.225015, 0.268147, -0.328118, 0.082325, },
    {0.107986, 0.061928, -0.166410, 0.021693, 0.144808, 0.093470, 0.100278, 0.033983, -0.013189, 0.005910, 0.141776, -0.005287, -0.030908, -0.019809, -0.194242, -0.124248, -0.129206, 0.017615, 0.065386, -0.205755, -0.195203, 0.158844, -0.095285, -0.175788, 0.118635, -0.126197, 0.040223, -0.146542, 0.112477, 0.052509, 0.183598, 0.001154, 0.026902, 0.152936, -0.066595, -0.108913, },
    {0.196032, -0.222502, -0.177619, -0.044435, -0.087708, -0.229652, -0.007862, -0.089807, 0.084814, -0.192671, -0.089311, -0.045614, 0.114662, 0.054048, -0.216762, -0.071885, 0.145518, 0.055761, -0.043754, -0.234973, -0.016728, -0.090455, 0.061827, -0.180088, -0.291940, -0.179852, -0.035692, -0.100804, 0.077256, -0.202887, -0.021313, -0.039364, -0.011463, -0.041191, 0.112887, 0.019583, },
    {-0.208377, -0.007162, -0.164863, -0.480128, -0.368410, -0.096272, -0.003044, -0.180635, -0.212045, 0.284554, 0.104697, -0.076079, -0.116125, 0.076179, 0.058988, -0.354407, 0.033180, -0.133670, -0.589522, -0.411158, 0.133677, 0.128245, 0.329599, -0.226738, 0.115839, -0.402012, -0.107143, -0.182416, 0.448334, -0.005698, -0.443173, -0.044058, 0.078652, -0.458287, 0.153962, -0.002759, },
    {0.435930, -0.021292, 0.043598, 0.571689, -0.189780, -0.272525, 0.109196, 0.090457, 0.023378, 0.367517, -0.151030, -0.147521, 0.008263, -0.021346, 0.098177, 0.111709, -0.095072, 0.121565, 0.587690, 0.088244, -0.154456, 0.127977, -0.714884, 0.024981, 0.772942, -0.495470, -0.234840, 0.571860, 0.275485, -0.147138, 0.932981, 0.193654, 0.021227, 0.766309, -0.395565, 0.016354, },
    {0.006902, -0.001543, -0.000356, 0.689928, -0.027573, -0.092893, 0.022660, -0.009923, 0.042492, -0.959395, -0.036629, -0.114720, -0.177946, 0.105329, -0.018498, -0.659757, -0.383020, 0.324520, 0.861950, -0.146638, -0.191318, -0.481734, -0.294721, -0.391618, 1.429485, 0.300625, 0.001498, -0.581298, -0.251648, -0.190926, 0.002715, -0.111459, -0.208781, -0.855252, -0.267555, -0.414426, },
    {-0.153628, -0.052868, -0.019272, -0.083294, 0.012372, -0.018583, -0.019305, 0.072416, 0.042687, -0.374132, -0.133913, -0.248901, -0.330001, -0.028599, 0.005898, -0.638072, -0.286902, 0.174849, 0.813969, -0.068142, -0.786157, -0.279428, -0.528481, -0.276209, -1.253857, 0.127541, -0.475336, -0.355077, -0.419277, -0.109631, 0.654274, -0.093641, -0.330638, 0.301125, -0.538933, -0.083874, },
    {0.381247, 0.065517, 0.007255, -0.271429, -0.040903, -0.229976, 0.022361, -0.353695, 0.095282, -0.504313, 0.446501, -0.110308, 0.013530, 0.325196, 0.042834, 0.117622, -0.822419, 0.202506, -0.074207, -0.346341, -0.030948, -0.498477, 0.401521, -0.412374, 0.933065, -0.185862, -0.130208, -0.402214, -0.230404, -0.394512, -0.662934, -0.289496, -0.656211, -1.316673, -0.043359, -0.466205, },
    {-0.022507, 0.202612, 0.007839, -0.675032, 0.020881, 0.252723, 0.045112, -0.080822, 0.019060, 0.419088, 0.073670, 0.132136, 0.225513, 0.276802, -0.360214, 0.917188, -0.333967, -0.245313, -0.815937, 0.178866, 0.172470, 0.553256, -0.395112, 0.299348, 0.453334, 0.026424, -0.107167, 0.082905, 0.268123, 0.043860, -0.539796, 0.185931, 0.335394, 0.915642, -0.166416, 0.174389, },
    {-0.007342, 0.009491, -0.037583, -0.647496, 0.326937, 0.089365, -0.104694, 0.116033, 0.097759, 1.119471, 0.115788, -0.040443, 0.275853, 0.121565, -0.000676, 0.843218, 0.573979, -0.312268, -0.444878, 0.460916, 0.000488, 0.861434, -0.955202, 0.353847, 0.772448, 0.117101, -0.041917, 0.355794, 0.103770, -0.141707, 0.639178, -0.065021, -0.239057, 0.967855, -0.068951, 0.204588, },
    {-0.277710, 0.290968, -0.029958, -0.579149, 0.377587, 0.066274, -0.142511, 0.065776, -0.021534, 0.069398, 0.137090, 0.130601, -0.003306, -0.094632, -0.302942, 0.056631, -0.306701, -0.123805, -0.664516, -0.252886, 0.028612, -0.328518, 0.590849, -0.009991, 0.199144, -0.181258, -0.035628, -0.162019, 0.381697, -0.074954, -0.730803, -0.056418, 0.163705, 0.380058, 0.282928, -0.053624, },
    {0.262914, 0.042545, 0.063856, 0.052248, -0.400794, 0.162684, 0.014287, -0.092932, 0.159339, 0.532058, -0.113017, -0.230886, 0.126250, 0.151931, 0.036290, 0.782213, -0.173531, -0.271485, -0.455474, -0.003793, 0.003901, 0.448762, -0.180594, 0.030360, 0.441779, -0.258073, -0.109985, -0.274657, 0.037097, -0.073468, 0.858110, 0.008471, -0.364063, -0.035620, 0.070687, 0.040576, },
    {-0.144712, 0.149085, -0.170978, -0.802894, -0.252146, -0.110977, -0.239111, -0.237537, -0.034107, 0.022636, -0.165149, 0.193809, 0.013881, 0.106097, 0.055217, -0.352906, -0.345909, 0.021063, -0.573434, -0.343921, 0.154317, -0.426553, 0.352354, -0.056546, 0.232067, -0.478392, -0.120610, -0.346040, -0.125214, -0.111166, -0.581824, -0.000010, -0.254647, -1.040368, 0.043725, -0.349374, },
    {0.090123, -0.227324, -0.123388, -0.270882, 0.106482, -0.125683, 0.055729, 0.060663, 0.038081, 0.249751, -0.105593, 0.042582, -0.002946, -0.029455, 0.023881, -0.181895, 0.174279, 0.219138, -0.451136, -0.072320, 0.246983, 0.511441, -0.220087, -0.050988, -0.558895, -0.535968, 0.099232, 0.622059, 0.140298, -0.041851, -0.045142, -0.320961, -0.223648, -0.069925, 0.282766, -0.062026, },
    {0.259756, 0.016708, 0.062337, -0.295277, 0.190891, 0.015155, 0.275084, 0.019066, 0.070085, 0.616373, 0.296786, 0.018975, -0.028918, -0.045684, -0.011484, 0.344021, -0.174677, -0.200734, -0.351111, 0.158767, 0.036252, 0.331135, -0.418968, -0.080360, -0.980744, -0.028531, -0.164573, 0.609760, -0.190447, -0.016491, 0.559018, -0.089074, -0.065864, 0.100231, -0.028917, 0.069909, },
    {0.135469, -0.108152, 0.108332, -0.491186, -0.309175, -0.244200, -0.029692, 0.115644, -0.034317, 0.044682, -0.241827, 0.024348, 0.146380, -0.371795, 0.043038, 0.008546, 0.171933, -0.304268, 0.525255, 0.027498, 0.284995, 0.088307, -0.040531, -0.143576, -1.082622, 0.024826, -0.131076, 0.408717, -0.255555, -0.235599, -0.605144, 0.014473, 0.157158, -0.133503, -0.442585, -0.050006, },
    {-0.409364, 0.194016, -0.002199, -0.371735, -0.024776, 0.415983, 0.156824, 0.008529, 0.052478, -0.221571, -0.227566, -0.134880, -0.003056, -0.143247, -0.046662, -0.691389, 0.137249, 0.230283, 0.011416, 0.111224, -0.447488, -0.111175, 0.056101, -0.116273, -1.468644, -0.064375, -0.097973, -0.242713, -0.263987, -0.071802, -0.207141, -0.063191, -0.197761, 0.748103, -0.301838, 0.170597, },
    {0.276995, -0.035835, 0.087003, 0.322275, -0.213744, -0.110007, 0.227514, -0.165696, 0.158823, 0.056953, 0.167365, -0.238640, 0.314757, -0.156098, 0.141726, 0.159492, -0.118756, -0.248193, -0.388518, -0.287462, -0.093350, -0.126662, 0.032440, -0.245506, -0.043007, -0.359817, -0.001740, 0.545635, 0.084294, -0.324491, -0.197642, -0.073054, 0.040889, -0.638700, 0.244136, -0.264316, },
    {0.171113, 0.131974, -0.166881, 0.134391, -0.069995, 0.005930, 0.066333, -0.187301, 0.068121, 0.125638, 0.023988, 0.009031, 0.009781, -0.189240, -0.083568, -0.158874, -0.059813, -0.181592, -0.070031, 0.081525, -0.161641, 0.021537, 0.039032, -0.135921, -0.100688, 0.099939, 0.069390, -0.034508, 0.019739, 0.028326, -0.095437, 0.075190, -0.122725, -0.047291, 0.071483, 0.015560, },
    {0.283824, -0.280860, 0.129191, -0.413884, -0.230287, -0.229399, -0.004531, -0.097540, 0.124625, 0.572355, 0.057732, -0.068006, 0.315930, -0.158109, 0.056539, -0.022161, 0.444349, -0.217095, -0.261310, -0.014189, 0.076748, 0.213160, -0.051337, 0.024559, -0.746339, -0.336320, -0.146924, 0.750202, -0.395416, -0.071481, -0.265015, -0.148262, -0.172554, 0.037334, -0.377685, -0.173437, },
    {-0.012084, 0.065064, 0.091377, 0.962389, 0.166541, 0.000763, 0.071072, 0.108043, -0.323799, -0.530371, -0.159321, -0.078335, 0.106832, 0.176210, 0.030804, -0.238131, -0.258984, 0.149562, -0.093624, -0.058955, 0.046080, -0.083937, -0.186830, -0.078137, 1.232590, 0.417693, 0.287075, -0.434490, -0.039903, 0.277230, 0.393889, 0.168338, 0.202407, -0.400330, -0.094725, -0.096447, },
    {0.368257, -0.210901, 0.017026, -0.816965, 0.270787, -0.239317, -0.184237, 0.083963, -0.196618, -0.427735, -0.029732, 0.272892, 0.109307, -0.213903, -0.109338, -0.024340, 0.384731, 0.057351, 0.240855, 0.181584, 0.186032, -0.398670, 0.169594, 0.183739, -1.099396, 0.262334, -0.217988, 0.314153, -0.664589, -0.020084, -0.184756, 0.067831, 0.088179, 0.207118, -0.261472, 0.175457, },
    {0.533017, -0.197941, 0.075991, -0.147746, -0.049507, -0.372543, 0.126653, -0.038087, -0.064249, 0.170803, -0.183923, 0.083898, 0.015525, -0.250960, 0.091962, 0.338133, -0.376487, 0.054738, -0.349427, -0.204941, 0.130588, 0.005565, 0.135531, 0.037414, -0.573768, -0.477948, -0.109324, 0.770735, 0.102376, -0.304890, -0.415758, -0.198312, -0.052134, 0.121279, 0.033170, -0.205977, },
    {0.263397, -0.111614, 0.112344, 0.376625, -0.293932, -0.300044, 0.109537, 0.155154, -0.123263, 0.036734, -0.207423, -0.233333, 0.014231, -0.199419, 0.064767, 0.199251, -0.236102, -0.273316, 0.163906, -0.066198, 0.181063, -0.076585, 0.094879, -0.084106, -0.894699, -0.338130, -0.011506, 0.559753, -0.227534, -0.001026, -0.110443, 0.294636, 0.321020, -0.257330, -0.613128, 0.006164, },
    {0.362981, 0.169388, -0.145533, -0.165416, -0.090008, -0.079220, -0.138626, -0.156730, 0.017096, 0.678709, 0.034302, 0.256144, 0.006127, 0.062469, -0.028471, 0.296895, 0.176823, 0.063447, -0.783871, 0.345249, 0.231111, 0.224516, -0.578864, 0.281009, 0.417247, -0.260020, -0.023069, -0.010634, -0.125673, 0.019113, 0.085412, 0.155210, 0.146646, 0.128395, -0.009706, 0.302579, },
    {-0.023473, -0.229394, -0.300960, -0.170574, -0.443995, 0.003674, -0.118253, 0.204497, 0.135108, -0.229149, -0.148356, -0.127769, 0.126036, 0.045639, -0.003412, -0.324646, 0.021263, 0.020489, -0.356608, 0.281849, -0.310618, 0.120534, -0.540224, -0.048684, 0.121701, -0.151551, -0.183869, 0.417134, 0.143255, -0.088115, 0.024299, -0.137001, -0.280208, -0.235723, -0.266216, -0.161261, },
    {-0.106580, 0.022398, -0.120379, 0.340164, -0.285195, -0.117732, -0.017583, 0.055392, 0.168741, -1.495814, -0.319933, -0.149586, -0.159149, -0.103924, 0.044472, -0.799744, -0.175034, 0.094565, 0.860782, -0.422208, -0.274410, -0.902536, 0.289683, -0.373130, 0.034818, 0.122297, -0.192143, -0.383752, 0.088525, -0.214450, -0.564941, -0.024262, -0.222353, -0.386804, 0.015453, -0.213046, },
    {-0.021072, -0.033279, -0.230305, 0.240135, 0.100521, -0.245236, -0.143916, -0.014555, 0.083271, -1.667811, -0.387847, 0.101029, -0.043482, 0.206284, -0.006441, -0.133203, -0.504837, -0.045809, 0.773782, -0.010764, -0.370360, -1.057690, 0.466744, -0.357048, 1.403433, 0.364000, -0.124286, -0.695617, 0.149616, 0.152436, -0.019819, 0.204345, 0.243170, -0.387865, -0.013895, -0.142516, },
    {0.249944, 0.148444, -0.115266, -0.439809, 0.013620, -0.028963, -0.312553, -0.002471, -0.197175, 0.613546, -0.439153, 0.069122, -0.105803, -0.108843, -0.012483, -0.063176, 0.493563, 0.227216, -1.140385, -0.201771, 0.264781, 0.333741, -0.024545, 0.233339, -0.593472, -0.751866, -0.005932, 0.436939, 0.432315, -0.146652, -0.399845, 0.073782, 0.156383, 0.322859, 0.042463, 0.078636, },
    {0.730300, -0.055741, -0.047978, -0.274128, 0.548427, 0.034735, -0.073383, -0.102567, -0.164518, -0.510194, 0.122649, 0.341635, 0.039983, -0.019601, -0.090696, 0.138026, 0.804309, 0.043464, -0.295158, -0.010950, -0.109742, -0.228704, 0.135844, 0.078927, -0.144074, -0.067009, 0.199999, 0.120681, 0.245643, 0.199887, 0.011198, 0.133580, 0.147038, 0.139192, -0.269016, 0.205317, },
    {0.487348, -0.028577, 0.006181, 0.147587, 0.134478, -0.232081, -0.102045, 0.018762, -0.116816, -0.140970, -0.250247, 0.077812, 0.045575, 0.053311, -0.014996, -0.070525, -0.115642, 0.185069, 0.103070, 0.137802, 0.285249, 0.119745, -0.437500, 0.156682, -0.232998, -0.010207, -0.196607, -0.035168, -0.284752, -0.058332, 0.403941, 0.180656, 0.415886, -0.218253, -0.286958, 0.162583, },
    {0.048772, 0.101581, 0.004069, 0.309699, -0.178132, -0.125544, -0.029710, -0.151087, 0.044706, 0.448217, -0.069281, 0.072923, 0.246642, 0.142822, -0.000055, -0.396320, -0.057099, 0.068048, -0.174438, -0.045174, 0.162398, 0.087682, 0.270974, -0.015583, 1.634944, 0.231440, 0.242889, -0.158645, 0.253490, 0.184325, 0.066062, -0.277186, -0.101789, -0.625781, 0.586130, -0.001716, },
    {-0.285595, -0.116360, 0.036737, -0.205559, 0.015644, 0.261434, -0.050238, -0.125444, 0.080623, -0.066199, 0.183004, -0.065474, -0.151314, 0.144852, -0.055639, -0.406933, -0.266130, 0.174094, 0.176738, -0.142350, -0.503415, 0.059895, 0.023026, -0.089524, -0.995148, 0.153490, -0.239871, -0.234984, -0.492483, 0.022156, 0.279907, -0.203950, -0.376324, -0.232382, -0.301399, -0.103586, },
    {-0.434006, 0.081046, 0.024133, -0.437619, -0.056489, 0.085844, 0.111479, -0.007748, 0.091811, 0.416549, 0.139582, -0.227744, -0.072485, -0.124862, -0.207649, 0.252252, -0.151817, -0.118125, -0.245760, -0.161759, 0.070142, -0.093802, -0.020542, 0.097280, -0.002060, -0.084953, -0.076037, -0.141879, 0.087288, 0.028426, -0.625528, -0.137642, -0.167831, 0.227015, -0.103913, 0.057784, },
    {0.098844, -0.076416, -0.014695, -0.260000, 0.073592, 0.162259, -0.059003, 0.150781, 0.015495, 0.330445, 0.110478, -0.302292, -0.149280, -0.153669, 0.094497, 0.213751, 0.129575, -0.084250, 0.363903, 0.417469, -0.177810, 0.791867, -1.125401, 0.162182, -1.628512, 0.225778, -0.268480, 0.869111, -0.451532, -0.158195, 0.872464, -0.021700, -0.326944, 1.049643, -0.339065, 0.169204, },
    {0.108698, 0.072276, -0.047828, 0.131174, -0.035121, 0.009814, -0.086760, 0.092259, -0.042023, -0.104312, -0.042797, -0.153934, -0.073579, -0.136179, -0.029137, -0.081166, -0.104638, 0.030605, 0.029068, -0.092512, -0.114506, -0.170676, 0.095237, -0.059431, 0.052768, -0.154607, 0.016733, -0.029829, -0.162862, -0.124786, 0.074272, -0.094359, -0.231073, 0.058248, -0.077900, -0.082420, },
    {-0.195419, 0.019000, 0.076395, -0.132019, -0.061293, 0.009483, 0.101581, -0.146897, -0.003746, 0.151146, -0.023050, -0.053224, 0.193354, 0.069139, -0.033916, 0.369221, -0.026705, -0.088023, 0.210324, -0.137633, -0.131352, 0.101333, -0.204454, 0.106874, 0.018925, -0.202698, -0.185359, -0.019547, -0.001796, 0.082913, 0.361940, -0.149916, -0.132676, 0.303932, 0.150219, -0.126013, },
    {-0.186551, -0.233673, 0.018833, -0.113035, -0.261822, -0.068185, 0.096181, 0.271638, -0.033506, 0.402321, 0.066588, -0.011340, 0.398684, -0.113447, -0.011421, 0.139369, 0.352713, -0.355770, -0.163620, 0.134416, 0.091209, 0.101470, 0.050398, 0.062389, -0.548802, -0.090645, 0.001243, 0.173868, -0.131512, -0.001178, -0.005454, 0.322854, 0.133504, 0.262120, -0.417261, 0.275919, },
    {0.195149, -0.225677, 0.095084, 0.252485, -0.043414, -0.133141, 0.121999, -0.237511, -0.120803, -0.180305, 0.150551, -0.019903, -0.049529, -0.288748, -0.103882, 0.080100, 0.133536, -0.141160, -0.033649, 0.002247, -0.026988, 0.272671, -0.063729, -0.208300, -0.168153, -0.060000, -0.036735, 0.035923, 0.156993, -0.025589, -0.216528, 0.022564, -0.103486, -0.249392, -0.151681, 0.032270, },
    {0.465382, -0.043913, 0.001735, 0.282427, 0.176975, -0.084273, 0.187519, -0.156561, -0.065373, 0.425089, 0.162717, -0.162275, 0.298481, 0.022124, 0.114350, 0.319733, -0.745641, -0.370218, 0.146606, -0.278124, 0.296253, -0.011814, 0.492972, -0.126771, -1.026493, -0.304246, 0.203753, 0.663794, -0.217963, 0.100951, -0.916490, -0.022553, 0.303172, 0.353609, 0.120475, -0.179528, },
    {-0.314403, 0.290575, -0.071492, 0.006681, 0.329179, 0.302793, 0.089847, 0.199344, -0.051149, -0.495173, -0.127445, -0.054594, -0.032949, -0.201518, -0.009250, -0.929185, 0.515824, 0.185289, 0.092985, 0.138050, -0.385462, -0.266806, -0.193774, 0.113417, -0.641014, -0.193788, -0.174944, -0.264887, -0.019259, 0.083295, -0.070927, -0.049491, -0.352937, 0.869927, -0.064264, -0.146580, },
    {0.111138, 0.074885, -0.018813, 0.334577, -0.199417, -0.040623, 0.047695, -0.096557, 0.083780, 0.231927, 0.122929, -0.125696, 0.145483, -0.111786, -0.064013, 0.320520, -0.469766, -0.107769, -0.284933, -0.038797, -0.064270, 0.502864, -0.047646, -0.032625, -0.015763, -0.316274, -0.032620, 0.279419, -0.143787, -0.135224, 0.755505, -0.263172, -0.252519, 0.257581, -0.140214, -0.237838, },
    {0.530219, 0.013732, -0.004901, 0.548453, -0.156555, -0.059343, 0.354099, -0.339257, 0.132018, -0.232426, 0.535239, -0.339216, 0.217077, 0.049343, 0.118452, 0.091745, -0.947093, 0.001633, -0.518526, -0.271205, 0.184542, -0.325989, 0.655705, -0.180636, -0.115870, -0.151233, 0.015420, -0.077047, 0.080622, -0.145086, -0.564874, -0.524267, -0.154671, -0.939802, 0.205907, -0.353427, },
    {0.542710, 0.119649, 0.024541, -0.094454, 0.392210, 0.079311, 0.418568, -0.049401, -0.048342, -0.472680, 0.473139, -0.032974, 0.390094, -0.091277, 0.058240, -0.439680, 0.336346, 0.038525, -0.219289, -0.107464, -0.152915, 0.297270, 0.089786, 0.216287, 0.195103, 0.277551, -0.087144, -0.273495, 0.394809, 0.235348, -0.056013, 0.041690, -0.019752, -0.372669, 0.126963, 0.008974, },
    {-0.053205, -0.048576, -0.181657, -0.034935, -0.125218, 0.014131, 0.218534, 0.076070, -0.126244, -0.014133, 0.108167, 0.092781, 0.131412, -0.096853, 0.105185, -0.183670, 0.239275, -0.088144, -0.009082, -0.118160, -0.099107, 0.031059, 0.111056, -0.003620, 0.159593, -0.075608, -0.123388, 0.187587, -0.024435, -0.147882, -0.171855, -0.210468, -0.096772, -0.023684, -0.122928, 0.002779, },
    {-0.039454, 0.173816, -0.010334, 0.750977, -0.019666, 0.109174, 0.151991, -0.190964, 0.020727, -0.243062, 0.094407, -0.013094, -0.063760, 0.181953, 0.044836, -0.186076, -0.375923, 0.152666, 0.096296, -0.280087, -0.043589, -0.282370, 0.144711, -0.233481, 1.153730, 0.017180, 0.124856, -0.797322, 0.050520, -0.054751, -0.070801, -0.289371, -0.130827, -0.596408, 0.418452, -0.033823, },
    {0.189994, 0.198433, -0.104868, -0.057564, 0.296685, 0.110084, 0.027676, 0.255691, 0.020786, 0.504438, 0.328266, 0.161967, 0.309546, 0.080799, -0.035541, 0.296712, 0.639739, -0.080459, 0.086753, 0.173248, 0.020012, -0.504461, 0.277792, -0.002224, 1.069631, 0.282683, 0.072032, -0.339091, 0.026406, 0.175849, -0.252997, -0.092276, 0.241123, 0.309825, 0.057837, 0.328767, },
    {-0.098660, 0.024367, 0.102172, -0.459848, -0.573958, 0.015978, -0.033654, 0.068945, -0.048456, -0.194374, -0.343023, 0.001104, 0.280136, -0.150631, -0.125919, -0.602793, 0.000250, -0.250606, 0.691666, 0.407245, 0.278915, -0.060465, -0.028286, 0.181198, -1.408366, 0.349731, 0.099494, 0.488199, -0.339537, 0.076120, -0.581623, 0.114893, 0.155283, -0.347814, -0.113866, -0.166161, },
    {0.112044, 0.244280, 0.144317, -0.651339, -0.154005, -0.084892, -0.017281, -0.092468, -0.069793, 0.606124, 0.123555, 0.098951, -0.052782, -0.124931, -0.248025, -0.204877, -0.302410, -0.135221, 0.156168, 0.068507, -0.045121, -0.295223, 0.382365, -0.095365, -0.159840, -0.142159, 0.014605, -0.147135, 0.108596, 0.117849, -0.508114, -0.146851, -0.254606, 0.586279, 0.157208, -0.101841, },
    {0.486305, -0.088523, 0.103408, 0.583918, -0.539036, -0.086703, 0.351437, -0.169701, 0.182971, 0.338998, 0.000913, -0.169465, 0.118840, 0.079850, 0.024340, 0.067118, -0.354971, 0.087372, -0.446749, -0.294425, -0.401945, 0.013687, 0.032646, -0.135521, 0.043472, -0.357969, -0.086778, 0.195924, -0.209576, -0.327792, 0.899427, -0.131063, -0.235580, -0.453663, 0.086216, 0.052849, },
    {0.077562, 0.001382, 0.017148, 0.059781, -0.061830, -0.093231, 0.130708, -0.126807, 0.076329, 0.176110, 0.075260, -0.180735, 0.284540, -0.144508, -0.089702, 0.125948, -0.193468, -0.212026, -0.053994, -0.080235, 0.095938, 0.088597, -0.170394, 0.055073, 0.063441, -0.232540, 0.047497, 0.109958, -0.026642, -0.282050, 0.088260, -0.169490, -0.077587, 0.065694, -0.179104, -0.111296, },
    {-0.084481, -0.067516, -0.061642, -0.137298, -0.018338, 0.105235, 0.124601, -0.129322, -0.168408, -0.004333, -0.094462, -0.052251, -0.151249, -0.036922, -0.100600, -0.090099, 0.034536, 0.019030, -0.020026, -0.078305, -0.009954, -0.032256, 0.058863, 0.113351, -0.120112, -0.149121, -0.187919, 0.069698, -0.080448, 0.050273, 0.079540, -0.110122, -0.107292, 0.165919, 0.129860, -0.126882, },
    {0.046588, 0.097253, -0.093482, -0.175285, -0.031570, -0.019451, -0.163231, 0.065925, -0.141782, -0.100616, 0.098985, 0.044648, 0.139503, 0.103706, -0.057285, -0.023109, 0.068447, -0.161574, 0.116475, -0.094174, -0.190020, -0.124896, -0.114603, 0.011792, -0.069674, 0.054641, -0.128228, -0.006161, 0.071600, -0.122594, -0.118650, 0.079889, -0.097787, -0.061437, 0.042495, -0.125025, },
    {-0.418753, 0.077080, 0.025879, -0.884960, 0.042182, 0.185530, 0.005926, -0.014627, 0.076784, 0.913194, 0.137527, -0.092600, 0.147711, 0.254327, 0.017387, 0.393344, 0.511992, -0.301889, -0.363729, 0.313145, -0.276673, 0.833186, -0.380388, -0.004058, -0.546232, 0.141558, 0.082817, 0.059360, 0.046133, 0.067351, 0.753165, -0.174228, -0.386491, 0.617172, -0.347021, 0.193825, },
    {0.029255, -0.073479, -0.131424, -0.134035, -0.017781, -0.164904, 0.153923, -0.157092, -0.152338, 0.037601, 0.084734, -0.163125, -0.062336, 0.104521, -0.032136, -0.095675, 0.004373, 0.099885, 0.029469, 0.067144, -0.089387, -0.022820, -0.106447, 0.127174, -0.015368, -0.134407, 0.042510, 0.023446, -0.159512, -0.131493, 0.049919, -0.098142, 0.117879, 0.165213, 0.112896, -0.184233, },
    {-0.109259, -0.150030, 0.004210, -0.052433, -0.340472, -0.168482, 0.031617, 0.104282, 0.120193, 0.411796, -0.015485, 0.061386, 0.294693, 0.067143, -0.066945, 0.586352, 0.314824, -0.112353, 0.188257, 0.109742, 0.125201, 0.506087, -0.361315, 0.076824, 1.025644, 0.123257, -0.130066, 0.072630, 0.019102, -0.108878, 0.563841, 0.067279, 0.140226, 0.528966, 0.225194, 0.022189, },
    {-0.519256, 0.044486, 0.034153, -0.022818, 0.123223, 0.183832, -0.024364, 0.261889, 0.047910, 0.253106, 0.046123, -0.016248, 0.031499, -0.100498, -0.063087, -0.146804, 0.000836, -0.039650, -0.167259, -0.317567, -0.236219, -0.560991, 0.457468, 0.083581, -0.307038, -0.196732, 0.108022, -0.574920, -0.107430, -0.057212, -0.643145, -0.102725, -0.003191, 0.431879, 0.011136, 0.002091, },
    {0.024768, -0.074608, -0.163866, -0.050989, 0.069347, -0.202985, -0.082071, 0.031455, -0.129222, 0.053496, 0.020740, -0.159486, 0.190028, -0.024742, 0.081959, -0.045564, -0.218145, 0.062109, -0.017921, -0.114044, -0.236625, 0.029407, -0.090486, -0.090741, 0.129499, 0.020443, 0.043235, -0.073893, -0.214045, 0.013819, -0.025920, -0.229848, -0.039801, 0.085185, -0.084726, -0.197316, },
    {-0.439687, -0.099369, -0.258740, 0.000318, 0.171935, 0.344175, -0.039489, 0.131008, 0.094699, -0.998421, -0.357087, -0.204180, 0.030224, -0.111559, 0.050309, -0.182370, 0.446876, -0.166071, 0.767730, 0.177526, -0.265697, 0.820261, -0.775683, -0.047044, -0.457447, -0.146182, -0.407604, 0.273576, 0.131787, -0.304908, 0.547296, -0.332619, -0.398031, 0.319562, 0.006673, -0.126697, },
    {0.186122, -0.033929, -0.023728, 0.450325, 0.017930, -0.343415, -0.056218, 0.058568, -0.045258, -0.402360, -0.281815, 0.033780, -0.081792, -0.130761, -0.053972, -0.162073, -0.067978, -0.017015, 0.805714, 0.220290, 0.223260, -0.214211, 0.062305, -0.161598, 0.579640, 0.388136, 0.179556, -0.156276, -0.136300, 0.300151, -0.476663, 0.293188, 0.250695, -0.391008, -0.233499, 0.068019, },
    {0.009132, 0.013786, -0.190155, 0.156487, 0.018414, -0.025542, -0.030213, -0.161589, -0.068082, 0.023720, -0.001087, 0.065367, -0.098492, -0.004977, -0.070028, 0.093469, 0.111740, -0.172219, -0.137150, -0.048747, -0.047413, 0.107548, -0.066615, -0.124991, 0.109513, -0.062577, -0.074353, 0.006658, -0.106424, 0.093026, -0.061720, -0.153734, 0.005432, -0.041173, 0.154139, 0.054586, },
    {0.226485, -0.289926, 0.126523, 1.081970, 0.434419, 0.036923, -0.061273, 0.027446, -0.184449, 0.320296, 0.124013, -0.022462, 0.230246, -0.102034, 0.047021, 0.199309, 0.316000, -0.115717, -0.091929, -0.297482, -0.341430, -0.509499, -0.297561, -0.227047, -0.208743, -0.515533, -0.049600, 0.800137, 0.279176, -0.343736, 0.078282, 0.199358, 0.306725, -0.163100, -0.201224, 0.119635, },
    {0.489379, 0.062035, -0.011308, -0.422602, 0.330988, -0.015230, -0.172880, -0.141071, -0.240715, -0.346011, -0.208828, 0.066020, -0.124130, 0.015078, -0.127124, 0.087705, 0.228529, 0.124923, 0.031668, 0.096603, 0.294297, -0.288021, -0.130912, -0.030053, -0.710262, 0.163268, 0.077780, 0.178358, -0.359063, 0.199746, -0.047560, 0.180553, 0.076958, 0.026038, -0.258133, 0.051750, },
    {-0.157204, 0.030158, 0.042134, 0.061522, -0.258577, -0.120727, 0.004530, 0.070005, 0.095079, 0.136814, -0.451625, -0.020206, 0.244752, 0.077128, -0.014558, 0.520048, 0.238777, -0.303056, 0.423039, -0.012050, 0.131314, 0.110737, -0.167647, 0.099943, 1.491954, 0.334954, 0.217124, -0.070416, 0.046639, 0.228866, 0.292846, 0.068629, -0.090327, 0.198144, -0.049592, 0.112018, },
    {-0.146509, -0.109702, 0.088449, 0.056326, -0.238620, 0.017104, 0.178000, -0.077285, 0.102651, -0.193894, 0.093622, -0.319516, -0.148598, 0.085902, 0.026515, 0.018165, -0.305775, 0.046553, 0.409449, -0.062641, -0.313053, 0.117206, -0.092404, -0.298044, -0.825019, -0.149408, -0.189279, 0.128755, -0.206861, -0.081337, 0.574274, -0.162480, -0.159861, -0.104637, 0.052864, 0.077410, },
    {0.405379, -0.121985, 0.104218, 0.678439, 0.449144, -0.101429, -0.072801, 0.049059, -0.170332, 0.277226, 0.031077, -0.184523, 0.205610, -0.164915, 0.130278, 0.074353, 0.530165, -0.343480, -0.117572, -0.149133, -0.156302, -0.409852, -0.196720, -0.300410, -0.517389, -0.395478, -0.058240, 1.083066, -0.048221, -0.305012, -0.213034, 0.151620, 0.396558, 0.169536, -0.066511, -0.022134, },
    {0.086554, -0.080045, -0.084519, -0.082379, 0.084087, 0.088832, 0.164988, -0.104391, -0.032506, -0.145448, 0.028032, 0.021968, 0.179103, 0.001723, 0.015969, 0.001785, -0.083836, -0.155835, 0.012789, -0.139281, -0.030850, 0.109545, 0.051206, -0.134580, -0.156027, -0.102202, -0.173579, 0.093769, -0.010555, -0.053465, 0.079535, -0.026486, -0.116677, 0.030550, 0.058976, -0.192377, },
    {-0.151968, 0.018196, 0.016454, -0.701174, -0.365198, 0.061905, 0.006143, 0.015564, -0.033662, 0.065717, -0.020803, 0.042110, 0.176083, -0.199821, -0.108409, -0.290610, -0.008662, -0.240096, 0.143053, 0.370346, 0.306652, -0.088010, 0.054652, 0.313921, -1.303088, 0.229524, 0.006612, 0.103011, -0.322823, 0.257249, -0.559754, 0.168876, 0.172978, -0.295562, -0.245861, 0.157141, },
    {-0.067327, -0.083772, 0.079261, 0.461352, 0.391843, 0.101788, -0.092006, -0.047941, -0.236753, 0.284770, -0.204991, 0.059160, -0.046161, 0.002091, 0.028828, -0.428991, -0.121576, 0.102777, -0.485402, -0.128438, -0.134668, -0.044973, -0.213492, -0.103620, 0.021639, -0.134314, -0.185766, 0.057289, 0.184145, -0.014335, -0.353950, 0.112605, 0.233391, 0.194952, -0.152711, 0.029605, },
    {-0.081316, -0.049052, -0.158905, -0.566040, 0.136943, 0.091743, 0.037312, -0.172497, 0.048497, -0.551816, -0.169569, 0.210023, -0.070672, 0.212858, 0.050854, -0.042284, -0.229834, 0.135652, 0.219638, -0.234767, -0.450573, -0.486304, 0.374090, -0.247602, 0.399171, 0.061088, -0.501681, -0.628139, -0.215805, -0.266236, -0.500076, 0.023561, -0.487784, -1.243197, 0.105834, -0.239980, },
    {-0.013549, 0.017235, 0.023878, -0.494018, 0.027615, 0.278485, 0.047535, -0.070979, 0.092916, -0.776259, 0.212824, -0.226635, -0.009631, 0.355747, -0.015245, 0.133100, -0.245368, 0.132024, 0.873491, 0.152888, -0.584540, 0.692879, -0.743961, -0.001930, -1.047271, 0.416613, -0.400674, -0.085038, -0.394796, 0.084250, 0.824595, -0.024848, -0.649803, -0.446441, -0.143077, -0.175272, },
    {0.216239, -0.058267, -0.134503, 0.106959, -0.028351, -0.220599, 0.229852, -0.069857, 0.071637, -0.082414, 0.142466, -0.113398, 0.039883, -0.054877, -0.122934, 0.030197, 0.006450, 0.044392, 0.023535, 0.117247, 0.077073, -0.051288, 0.111548, -0.007690, 0.096164, -0.215211, -0.061217, 0.005253, 0.123114, -0.188310, 0.060006, 0.006067, 0.059846, 0.098531, -0.070406, -0.165006, },
    {0.269052, -0.224092, 0.055678, 0.263120, 0.037822, -0.173271, -0.029410, 0.042105, -0.038938, 0.301093, 0.035120, -0.026356, 0.332338, -0.204521, 0.029967, 0.065102, 0.525817, -0.076396, 0.041838, -0.229643, -0.222151, -0.091655, 0.133902, 0.018100, -0.547997, -0.226115, -0.269688, 0.449713, 0.062792, -0.092485, 0.146962, 0.300900, -0.000852, 0.213685, -0.312856, -0.094723, },
    {-0.053351, -0.099976, 0.009703, -0.488475, 0.155939, -0.012279, -0.021804, -0.175353, -0.223078, 0.093435, 0.192380, 0.041433, 0.174796, -0.029963, -0.070254, 0.094299, -0.037530, -0.062103, 0.068427, -0.065166, 0.272898, -0.210390, 0.116802, 0.007886, -0.118077, 0.113746, 0.257572, 0.299146, 0.073252, -0.068499, -0.240197, -0.133834, 0.090740, -0.202926, -0.098165, -0.087308, },
    {-0.228805, 0.212423, -0.155429, -0.114054, -0.690726, 0.179609, -0.030383, -0.233009, -0.326574, 0.949394, -0.562493, -0.139436, 0.091235, -0.052205, 0.046764, -0.495996, 0.171617, 0.143212, -0.762702, 0.355367, 0.149272, 0.711884, -0.713390, 0.119797, -1.104837, -0.459754, -0.037795, 0.375360, 0.273904, 0.066709, -0.690934, -0.225588, -0.042164, 0.465071, 0.124898, -0.001619, },
    {0.671559, -0.052231, -0.149382, 0.015166, 0.406761, -0.234894, -0.254878, 0.009627, -0.033216, -0.514435, -0.139650, 0.272631, -0.009802, 0.097530, -0.188026, 0.013107, 0.610340, 0.010266, -0.319419, 0.104407, 0.029155, -0.597856, -0.140311, 0.225704, 0.081748, -0.110036, -0.040791, 0.008479, 0.282167, 0.074575, 0.330271, 0.530839, 0.267350, 0.202796, -0.353714, 0.096052, },
    {0.592401, -0.077019, 0.049172, 1.161845, -0.367316, -0.294667, 0.072483, 0.050488, 0.047604, -0.834496, -0.267415, -0.022829, 0.051041, 0.045762, 0.060202, 0.251610, -0.450611, 0.002735, 0.457118, -0.091337, -0.080658, 0.230591, -0.116145, 0.011879, 1.583465, 0.014319, -0.111467, -0.281445, 0.274017, -0.001199, 0.780437, 0.131410, 0.149211, 0.116210, -0.131874, -0.015641, },
    {-0.090625, 0.022919, -0.044833, 0.009028, 0.076497, 0.089415, 0.057385, -0.114980, 0.006603, 0.108105, -0.058309, -0.176341, 0.025610, 0.008638, -0.134585, 0.023878, -0.013040, 0.077521, -0.127424, -0.128365, -0.010290, 0.029181, 0.067088, -0.073166, -0.104300, -0.024000, -0.161382, 0.087365, 0.047012, -0.074325, 0.023108, -0.129136, 0.114922, 0.125830, 0.059606, -0.003118, },
    {0.047157, -0.145747, -0.013700, -0.033729, 0.083436, -0.046317, 0.057133, -0.039042, -0.130994, -0.087047, 0.046064, -0.136993, -0.091021, 0.099558, -0.131588, 0.143921, -0.139768, 0.100186, 0.032031, -0.053277, -0.145824, -0.061697, 0.095569, 0.150728, -0.035689, -0.047752, 0.045132, -0.097577, -0.088380, -0.100587, 0.036618, 0.138441, 0.053382, -0.083231, -0.057010, 0.015230, },
    {0.263891, -0.231691, -0.146064, 0.302002, -0.052386, -0.148036, 0.058473, -0.032413, 0.088776, -0.095403, 0.125279, -0.312121, 0.169361, -0.186161, 0.149771, 0.451552, -0.697222, -0.037392, -0.394572, -0.263294, 0.072365, -0.155592, 0.305320, -0.082002, 0.544144, -0.180990, -0.287968, -0.063007, -0.175315, -0.244883, -0.102756, -0.263851, 0.045623, -0.284656, 0.598028, -0.263470, },
    {0.324026, 0.051829, 0.138729, 0.727502, -0.042468, -0.045542, 0.189621, -0.128115, -0.182068, 0.310792, -0.198496, -0.007100, -0.109135, -0.115102, -0.040589, 0.157847, 0.369244, -0.208209, -0.141814, -0.149213, -0.320531, -0.618859, -0.087607, -0.141415, 0.165390, -0.450807, -0.417631, -0.032983, 0.820485, -0.307836, -0.094738, 0.044659, 0.244600, 0.259637, -0.330091, -0.089673, },
    {-0.518917, -0.016986, 0.072940, -0.645425, 0.011066, 0.238684, -0.043169, 0.197548, 0.072934, 0.438045, -0.081274, -0.044195, 0.346845, -0.270577, -0.089450, -0.063817, 0.044638, -0.247826, -0.403705, 0.045224, 0.241253, -0.544087, 0.067883, 0.076848, -0.799512, -0.071432, 0.028835, -0.258975, 0.081524, 0.139046, -0.895092, 0.019294, 0.042819, -0.016033, 0.055524, -0.138455, },
    {0.318318, 0.130600, -0.027685, 0.028721, -0.325917, -0.031704, 0.052352, -0.069765, -0.022441, 0.856236, -0.034060, -0.041217, -0.010310, -0.022098, 0.068212, 0.364491, -0.437161, 0.035421, -0.234104, 0.148391, 0.086239, 0.271364, -0.196704, 0.155180, 0.756318, -0.025876, 0.189014, 0.182080, -0.025700, 0.174288, 0.130313, -0.150428, -0.055747, -0.073762, 0.371502, 0.056232, },
    {0.516244, -0.222706, 0.141137, 1.115991, 0.388298, -0.135944, 0.184848, -0.055483, -0.191618, -0.307269, 0.266386, 0.061525, 0.160989, -0.141329, 0.060522, -0.026424, 0.576431, -0.169847, -0.472733, -0.276680, -0.236292, -0.100449, -0.056407, -0.018453, 0.055668, -0.387359, -0.309087, 0.203390, 0.715254, -0.136112, 0.173721, 0.337307, 0.169442, -0.391783, -0.356337, 0.268436, },
    {-0.060304, 0.053988, 0.037636, -0.470668, -0.072017, 0.225855, -0.012374, -0.015880, 0.102815, 0.864699, 0.420075, -0.215614, 0.232581, 0.007429, 0.032507, 0.284722, 0.487035, -0.389173, -0.899984, -0.154793, -0.017199, 0.271850, 0.113064, 0.007411, 0.001246, -0.075206, 0.163020, 0.109406, 0.186428, -0.046401, 0.084933, -0.132546, -0.282773, 0.219848, 0.035468, -0.024897, },
    {0.142572, 0.038480, 0.092923, -0.152011, -0.097731, -0.209877, 0.213236, 0.025649, -0.134353, -0.183639, -0.009546, -0.057264, -0.006928, 0.104420, -0.172065, 0.114633, -0.341842, -0.219664, 0.120600, -0.082987, 0.151567, 0.075079, 0.130072, -0.046612, -0.023284, 0.070129, -0.125333, 0.049023, 0.016498, -0.032424, 0.012089, 0.049924, -0.127115, 0.110760, 0.173709, 0.057251, }
};

const fixed_pt l1_bias[HIDDEN_SIZE1] = {-0.042595, -0.209098, -0.141138, 0.096545, -0.175195, -0.075341, 0.174331, -0.136085, -0.006626, -0.055870, 0.120076, 0.117958, 0.188252, 0.037993, -0.054022, -0.033024, 0.118753, -0.177888, -0.124449, 0.001328, 0.033755, 0.410044, -0.222189, -0.083421, 0.055182, 0.347244, -0.051012, 0.058490, -0.242400, 0.084414, -0.187376, -0.189477, -0.157558, 0.266378, 0.070843, -0.213396, -0.082701, -0.000600, 0.054182, -0.129551, -0.169815, 0.141523, 0.079261, -0.183118, -0.009758, 0.003253, -0.219806, -0.224438, -0.082721, -0.109852, 0.202599, 0.244349, 0.313903, 0.061239, -0.064920, 0.032814, 0.042535, -0.196635, 0.189560, -0.284002, -0.018652, -0.318946, -0.018717, -0.030096, -0.141198, -0.417879, -0.125685, -0.108152, -0.138700, 0.052375, -0.026793, 0.228136, -0.223972, -0.011387, 0.054161, -0.039268, -0.032381, -0.032221, 0.167019, -0.049101, -0.206243, -0.439947, 0.091543, 0.046343, -0.478490, 0.353468, 0.076423, -0.066404, 0.307263, -0.288990, -0.028237, -0.273271, 0.016205, -0.157376, -0.101573, 0.360903, -0.173150, 0.122042, 0.119337, -0.237598, -0.139382, -0.335455, -0.117100, 0.002254, -0.013680, 0.148849, 0.071447, -0.285706, -0.184742, -0.310530, -0.076063, -0.056551, 0.211788, -0.120706, 0.002378, -0.240073, -0.073460, -0.077906, -0.371423, -0.190844, 0.085242, -0.107147, -0.115960, 0.065456, -0.307697, 0.070232, 0.125941, -0.048001, };

const fixed_pt l2_weights[HIDDEN_SIZE2][HIDDEN_SIZE1] = {
	{0.044287, 0.016010, -0.078932, -0.019777, 0.071812, 0.010920, -0.021917, -0.081398, 0.053447, 0.016689, -0.000851, -0.111951, 0.085234, 0.040922, -0.061477, -0.054450, -0.016799, -0.003704, -0.056742, 0.175861, 0.040125, 0.713786, -0.067983, -0.115951, 0.014072, 0.058685, 0.052947, -0.032443, -0.016523, -0.027773, -0.044746, 0.036441, 0.010769, 0.026897, -0.289097, -0.133668, 0.053877, 0.033351, 0.016404, -0.113162, -0.063724, 0.041396, -0.083042, -0.050751, -0.044451, -0.128084, -0.028869, 0.003346, -0.098676, -0.003395, -0.133906, -0.119522, 0.017662, -0.024991, -0.058850, 0.041855, -0.035079, -0.075124, 0.007192, -0.077968, 0.031043, 0.048030, -0.054067, -0.083777, 0.042974, -0.006486, -0.102147, -0.145354, -0.000990, -0.257139, -0.077060, 0.262576, -0.099863, 0.041263, -0.086466, -0.002384, -0.100417, -0.030641, -0.072796, -0.073374, -0.066256, -0.010754, 0.242497, -0.054589, 0.006292, 0.159571, -0.104835, -0.111878, 0.211372, -0.056005, 0.043161, 0.037923, 0.015661, -0.026029, 0.066422, -0.070762, 0.047638, -0.003097, -0.102711, -0.018810, -0.072439, -0.101162, 0.024295, 0.056715, -0.187492, -0.009974, -0.014018, -0.029267, 0.019976, -0.210280, 0.046903, 0.000808, -0.191062, -0.095779, -0.059760, 0.031118, -0.210287, 0.680613, -0.118219, -0.032932, 0.034784, -0.069743, -0.092740, 0.013760, -0.075352, 0.024691, 0.029693, -0.031753, },
    {-0.083119, 0.038696, -0.071888, -0.066437, 0.057213, 0.024588, -0.046735, -0.033512, 0.011835, 0.010734, 0.045017, 0.000932, -0.004769, 0.014027, 0.035586, -0.065319, -0.047456, -0.001867, -0.011846, -0.035852, -0.039063, -0.011667, -0.075850, 0.084353, -0.120168, -0.022207, 0.037533, -0.005671, -0.067948, 0.053230, 0.022668, -0.077276, 0.079717, -0.013901, 0.091231, -0.004557, 0.043041, -0.060552, -0.118900, -0.020579, -0.019143, -0.057703, -0.073169, -0.051255, -0.040900, -0.075311, -0.056015, 0.043745, -0.042980, 0.039056, -0.070649, -0.043604, -0.002935, -0.029258, 0.020704, -0.089967, -0.065500, -0.081762, -0.019345, 0.049784, 0.109068, -0.045775, 0.030421, -0.021034, -0.075889, 0.017453, 0.008821, 0.004346, -0.042519, -0.027406, -0.006845, -0.115824, -0.115191, 0.003545, -0.079533, -0.073746, 0.035382, -0.108397, -0.034143, -0.025876, 0.059431, 0.013688, -0.101014, -0.090311, 0.038107, -0.027609, 0.051048, -0.033785, -0.016924, 0.072464, -0.048771, -0.111607, -0.001816, -0.048848, 0.078574, 0.012951, 0.079566, -0.015608, 0.000145, -0.037116, -0.072877, -0.089438, 0.013411, 0.013694, -0.021420, -0.013903, -0.024376, -0.109149, 0.056777, -0.031713, -0.067958, 0.052743, -0.059991, -0.044848, 0.013770, -0.006535, -0.127390, -0.088445, -0.086742, 0.043851, -0.083596, 0.016331, -0.030779, 0.030567, -0.017381, 0.057104, 0.016368, -0.032169, },
    {0.064492, -0.070216, 0.064357, 0.116989, -0.026722, -0.163349, -0.401603, -0.148383, 0.002028, 0.037165, -0.078624, -0.066464, 0.101995, 0.044937, -0.089110, 0.109383, -0.113653, -0.028452, 0.065187, -0.017963, -0.039808, -0.198645, -0.183076, -0.074269, 0.166061, -0.240390, 0.009144, 0.093494, 0.170418, 0.080952, 0.129018, -0.040898, 0.081025, -0.209326, 0.004234, 0.147030, -0.324348, -0.416031, -0.129485, 0.069480, -0.174036, -0.259263, 0.047081, -0.053531, -0.041400, 0.141759, -0.109768, 0.033902, -0.160503, -0.000337, -0.151491, -0.097694, -0.157530, -0.182985, 0.032284, -0.195604, -0.242570, -0.147640, -0.176675, 0.062042, 0.044870, -0.098339, -0.158239, -0.357864, -0.161961, -0.118128, 0.008158, 0.103621, 0.049005, 0.142735, 0.257752, -0.456567, 0.180147, 0.040904, -0.236708, -0.164258, -0.169511, -0.086050, 0.024784, 0.012404, -0.008099, 0.020297, 0.110388, 0.020080, -0.149675, -0.151976, -0.009970, -0.047525, 0.125347, -0.256572, -0.070208, -0.079891, -0.074170, -0.066727, 0.020028, -0.132163, -0.026532, -0.204053, -0.101497, -0.074226, -0.212455, -0.226519, 0.069698, -0.183138, -0.349235, -0.181910, 0.070694, 0.261343, 0.012668, -0.374396, -0.052046, 0.032512, -0.040924, -0.064854, 0.081619, -0.197918, 0.104268, -0.326531, -0.033853, -0.044849, -0.018145, 0.052232, -0.137363, -0.152819, 0.050270, -0.085749, -0.163040, -0.016808, },
    {-0.010676, -0.295049, -0.243796, 0.087186, 0.036364, 0.031828, 0.014772, 0.039879, 0.268296, -0.425857, -0.045341, 0.118886, -0.090947, -0.022918, -0.231737, -0.325873, -0.069777, 0.008348, 0.010317, -0.121415, -0.243542, 0.160847, 0.047218, -0.005223, 0.124114, 0.188702, -0.019214, -0.339929, -0.045876, -0.047226, -0.085468, -0.102738, -0.005687, -0.495484, 0.161892, 0.165595, -0.125120, -0.181467, -0.071546, -0.315241, 0.032446, -0.035998, -0.177057, 0.031153, 0.096061, -0.223837, 0.147403, 0.199359, -0.167242, -0.023549, 0.081885, -0.037314, -0.053719, -0.092820, 0.051455, -0.182132, -0.090551, -0.156867, -0.123495, -0.095237, 0.034526, -0.094579, 0.063116, 0.199962, -0.040093, 0.010117, 0.066990, -0.183209, 0.289536, 0.243236, -0.068674, 0.306624, 0.111937, -0.001240, -0.388505, -0.143625, -0.281659, -0.085866, -0.045916, -0.079820, -0.035636, -0.193852, -0.126966, -0.074767, -0.278810, 0.261916, -0.074866, 0.043795, 0.079447, -0.086947, -0.044895, -0.175430, -0.076798, 0.036318, -0.046532, -0.113595, -0.040859, 0.108356, -0.133502, -0.070986, -0.154753, 0.214838, -0.086518, -0.177116, 0.217058, 0.193928, 0.029397, -0.332422, -0.056982, 0.013257, 0.054456, -0.198668, -0.243723, 0.082003, -0.125598, -0.007632, -0.044646, 0.138886, 0.179575, -0.067057, -0.076419, 0.167384, 0.071598, -0.247168, -0.064556, -0.067632, -0.047243, 0.091420, },
    {-0.003223, -0.011728, -0.086869, -0.114689, -0.071548, 0.021421, -0.176960, -0.156389, -0.024281, -0.025631, -0.079458, -0.053202, -0.153771, 0.034494, -0.050554, -0.082762, -0.112497, 0.098782, 0.036633, 0.052699, -0.031917, -0.171719, 0.018464, 0.046716, -0.136995, 0.231299, -0.085875, -0.018606, -0.141639, -0.048645, -0.075559, 0.079563, 0.058975, 0.079638, 0.136536, 0.044702, 0.001833, 0.086789, -0.082185, 0.037265, -0.034700, 0.059775, 0.079070, -0.013991, -0.100133, 0.037786, -0.049227, -0.135303, 0.391670, -0.064678, -0.283823, 0.248753, -0.129628, -0.037809, -0.066435, -0.025115, -0.178745, -0.027396, -0.010824, -0.130278, 0.027514, -0.078326, -0.056741, -0.000376, -0.028758, -0.085941, 0.016739, -0.101988, 0.010165, -0.149018, -0.015328, 0.091555, 0.054082, -0.078836, 0.078131, 0.150400, 0.145856, -0.003699, 0.050387, 0.033052, -0.098979, -0.054895, -0.120486, 0.075271, 0.030461, -0.083087, 0.015649, -0.190333, 0.060815, 0.115063, -0.015280, -0.051494, 0.048535, 0.024506, -0.040028, 0.001654, -0.074726, 0.083975, -0.068231, 0.044987, -0.078771, -0.096843, -0.020841, 0.027871, -0.024586, -0.097587, -0.145395, -0.158818, -0.105172, -0.027913, 0.000543, 0.069922, 0.386563, -0.052690, -0.092232, -0.122712, 0.094810, -0.126441, -0.093041, 0.041973, 0.008802, -0.009288, 0.331416, 0.027030, -0.043808, 0.250345, -0.118250, 0.050502, },
    {0.042996, 0.030471, -0.039418, -0.011891, -0.006650, -0.089415, 0.041612, -0.047979, 0.074560, 0.004553, -0.001093, -0.069088, -0.130189, 0.068635, 0.038417, -0.091145, 0.064506, -0.050789, -0.036089, -0.027490, 0.018533, 0.092891, -0.099041, -0.052410, -0.122279, 0.023460, -0.038029, -0.083407, -0.059455, -0.043923, -0.022550, 0.047461, -0.048766, -0.060679, 0.019685, 0.048607, 0.052370, -0.060203, -0.194753, -0.111766, -0.071581, -0.070993, 0.006702, -0.071817, -0.121406, -0.010437, 0.024076, -0.060202, -0.023424, 0.033458, 0.009327, 0.003598, -0.092679, 0.067728, -0.115731, 0.018006, -0.023852, -0.119110, 0.025610, 0.022284, -0.040917, -0.038501, -0.030632, -0.066245, -0.097382, -0.060410, -0.095524, -0.037586, 0.002966, 0.014894, 0.010124, -0.036686, 0.016909, -0.107183, -0.092411, -0.066200, -0.065117, -0.103512, -0.015213, -0.016166, -0.035880, -0.017962, 0.024923, 0.048591, -0.024362, 0.451566, -0.080686, -0.151177, -0.029481, 0.008126, 0.016744, -0.065647, -0.047370, -0.028490, 0.009546, -0.004580, -0.036267, 0.010858, -0.000351, -0.010622, 0.029733, -0.050497, -0.070193, -0.078704, -0.055986, -0.046400, -0.082490, 0.046637, -0.019218, -0.093768, -0.034938, 0.007757, -0.030210, -0.027435, 0.050083, -0.024016, 0.020176, -0.023314, 0.039184, 0.038683, -0.014988, 0.045462, -0.044791, 0.076596, -0.071155, -0.033608, -0.086121, -0.067186, },
    {-0.034529, -0.146036, 0.082130, -0.039755, 0.015469, -0.275992, -0.127784, 0.020827, 0.074261, 0.045136, -0.023093, 0.028665, -0.041142, 0.052651, 0.003890, 0.038244, -0.017050, 0.011276, -0.085662, -0.126476, 0.191738, 0.125770, 0.039659, -0.258582, -0.043060, 0.090157, 0.087470, 0.000554, -0.072344, 0.004377, -0.101509, -0.041197, 0.069695, 0.012744, -0.088919, -0.204339, -0.087048, 0.045056, -0.075485, -0.279763, -0.133717, -0.092978, -0.089424, 0.102855, -0.073981, 0.132529, -0.001475, 0.006915, 0.205422, 0.000899, 0.413586, 0.150676, 0.001373, 0.165329, 0.009802, -0.030242, 0.032023, -0.214149, 0.098612, 0.133361, 0.007109, 0.045840, -0.155438, -0.041289, -0.057798, -0.017161, -0.023179, -0.106388, -0.180487, 0.141760, -0.004034, 0.006858, -0.081078, 0.077559, 0.143911, 0.013539, -0.105518, -0.045655, 0.005541, 0.016647, -0.114386, -0.020906, -0.027854, 0.092536, 0.194423, 0.010976, 0.025669, 0.039065, -0.066963, -0.182350, 0.023575, 0.152000, 0.043945, -0.034718, -0.042060, 0.220038, -0.013907, 0.076893, 0.063913, 0.061240, -0.009291, -0.118844, -0.051749, -0.082010, -0.042478, 0.054072, 0.119372, -0.109241, -0.031656, 0.208392, -0.205602, 0.205297, 0.307712, -0.011190, -0.007637, 0.171235, -0.268197, -0.008367, 0.043728, 0.022484, -0.066794, 0.016379, -0.182975, -0.092710, 0.050448, -0.093497, 0.118123, -0.058297, },
    {0.083361, -0.035035, 0.027686, 0.028505, -0.024960, -0.036084, -0.019268, -0.113432, -0.084662, 0.062142, 0.020905, 0.083171, -0.117793, -0.062417, 0.014862, -0.120733, -0.042530, 0.020474, -0.025479, 0.056677, -0.175254, -0.153039, -0.118717, 0.055341, 0.049264, 0.054811, 0.054990, -0.007782, -0.000541, 0.080694, 0.062516, -0.035032, -0.022892, -0.024219, 0.014839, 0.123166, -0.065171, 0.067152, 0.010696, -0.251957, 0.184511, -0.068480, 0.015966, 0.079303, 0.085757, 0.001210, 0.087388, -0.180171, -0.338165, -0.066178, 0.049410, 0.242444, -0.044328, -0.030548, 0.017306, 0.116869, 0.070473, 0.014463, -0.033355, -0.117629, 0.023053, -0.044285, -0.083568, 0.265019, 0.029575, -0.054940, 0.122970, -0.030458, -0.206669, -0.080778, 0.188138, 0.074745, 0.138844, -0.089171, -0.091927, 0.088032, 0.079038, 0.007116, -0.104511, -0.077473, 0.006821, -0.343536, 0.015689, -0.005781, -0.266446, 0.047788, -0.069762, 0.012316, 0.176498, 0.115179, -0.143909, -0.021799, 0.006656, -0.045743, 0.050757, 0.091429, -0.023762, 0.047934, -0.065428, 0.015770, -0.186700, 0.020775, 0.010796, -0.100353, 0.115063, -0.058168, -0.065632, -0.181525, -0.065657, 0.325914, 0.027079, -0.137162, -0.153078, 0.004601, -0.040881, -0.072888, 0.346706, 0.158961, -0.051627, -0.084797, 0.005757, 0.010812, -0.131026, -0.095070, 0.032252, -0.196681, -0.056485, -0.076969, },
    {0.004005, 0.299569, -0.019700, 0.058073, -0.084298, -0.055083, -0.207752, 0.204931, 0.128128, 0.076309, -0.103730, -0.005598, -0.012902, 0.051888, -0.123910, 0.035627, -0.181563, 0.033824, -0.008009, 0.042101, -0.398097, -0.010423, 0.054526, 0.022536, -0.018063, 0.062282, 0.028268, -0.299288, -0.119342, -0.082922, 0.000687, -0.065203, 0.061226, -0.018684, 0.058799, -0.098515, -0.093650, -0.058717, 0.007261, -0.230647, -0.028252, 0.131879, -0.192388, 0.011871, 0.094088, -0.116485, 0.101739, 0.382205, 0.181538, 0.078894, -0.207644, 0.053443, -0.176412, -0.016461, -0.073208, -0.064504, 0.030643, -0.080742, 0.073398, -0.175207, -0.016815, -0.084190, 0.050752, -0.058605, 0.000888, -0.014869, 0.010018, 0.190004, 0.266154, 0.160233, -0.133662, -0.183529, 0.068094, 0.021732, 0.106699, -0.051224, -0.044342, 0.103930, -0.073022, -0.145879, -0.036424, 0.003161, -0.096565, -0.089069, 0.071913, 0.102651, -0.032356, 0.113190, 0.006836, -0.081607, -0.054898, 0.038747, 0.020938, 0.028117, -0.067352, -0.018922, -0.054889, 0.049906, -0.005063, 0.018204, 0.104984, 0.085732, -0.102668, -0.203230, -0.080516, 0.034909, 0.090202, -0.101705, 0.037414, -0.131419, 0.030135, 0.145812, 0.135705, -0.054348, -0.087987, 0.011232, -0.018743, -0.528266, 0.142453, -0.065317, 0.043492, -0.044842, -0.004249, -0.159904, 0.058191, -0.197185, -0.081570, 0.034081, },
    {0.052610, 0.285813, -0.008577, 0.005146, -0.064796, 0.012765, -0.079133, 0.127352, -0.064941, 0.080632, -0.071661, -0.029251, -0.054827, 0.065876, 0.187844, 0.119411, -0.104223, -0.005304, 0.034866, 0.107742, -0.176321, -0.202095, 0.014324, -0.025090, -0.005059, -0.022507, -0.040725, -0.085648, -0.047050, -0.082896, 0.054496, -0.039147, -0.068747, 0.055279, 0.131661, 0.015848, -0.039630, -0.102813, -0.218786, -0.023538, 0.070466, -0.130454, -0.095812, 0.068129, 0.045271, -0.021014, 0.088790, 0.116864, 0.214726, 0.229257, -0.211128, -0.012162, -0.116698, -0.000439, 0.069172, 0.185307, 0.025174, -0.083896, 0.123727, -0.110743, 0.065424, 0.074795, -0.025855, -0.348587, -0.020636, -0.012794, 0.042551, 0.141647, 0.115164, -0.039651, 0.237262, -0.498244, 0.086968, -0.011069, 0.059727, 0.019274, 0.104348, 0.056194, -0.043644, -0.141555, -0.010961, 0.089723, 0.232324, 0.000446, 0.247316, -0.017120, 0.067568, 0.024629, -0.221846, -0.067289, -0.063042, -0.018003, 0.085634, -0.054118, 0.066646, 0.026425, 0.072200, -0.057546, -0.063056, -0.032609, 0.134587, -0.115701, 0.083371, -0.015738, -0.361014, 0.009166, 0.066341, -0.070769, 0.101760, -0.129620, 0.014006, 0.111239, 0.234035, 0.088319, -0.014912, 0.045517, 0.286219, -0.153977, 0.021037, -0.090164, 0.086559, 0.074149, -0.048396, -0.148044, -0.007533, 0.026907, 0.028626, -0.012002, },
    {-0.095468, 0.033240, 0.054654, 0.087277, -0.020660, 0.112729, -0.079341, 0.030168, 0.042290, 0.091042, 0.052614, 0.072014, 0.138739, -0.032815, 0.067099, -0.017271, 0.206560, 0.100756, 0.034262, 0.039851, -0.107020, -0.010651, -0.055530, -0.089811, 0.104938, -0.036423, 0.034080, 0.035797, 0.086404, -0.024237, -0.012004, 0.047599, -0.012690, 0.054932, 0.052019, 0.157538, -0.147373, -0.114297, 0.101524, 0.192267, 0.101504, 0.055086, 0.034255, 0.032617, -0.007023, 0.033483, 0.068826, -0.029107, -0.232392, -0.235501, -0.100168, 0.039926, -0.015461, -0.143373, 0.030298, -0.029350, -0.003309, -0.068241, 0.136647, -0.107855, 0.097493, -0.023535, -0.059187, -0.191961, -0.003456, -0.025242, 0.005696, 0.116804, -0.281598, -0.352624, 0.047704, 0.045394, 0.058622, 0.009097, -0.027735, -0.080702, 0.116767, -0.055124, 0.085747, -0.022365, 0.043337, -0.142690, 0.094309, -0.098459, -0.284766, 0.063494, 0.055681, -0.020633, -0.148444, -0.057366, -0.003974, -0.059275, -0.019518, -0.036833, 0.051150, -0.064410, -0.021074, -0.022048, 0.080314, -0.051038, -0.175071, -0.100971, -0.095797, 0.191237, -0.023822, 0.044903, -0.054543, 0.030466, 0.020575, -0.100495, 0.108072, -0.202095, -0.138973, 0.067141, -0.039861, -0.130154, 0.342650, -0.159507, 0.030315, 0.066484, -0.022149, -0.110349, 0.154190, -0.080475, -0.019576, 0.181891, -0.078337, -0.084762, },
    {-0.084957, -0.132828, -0.143237, 0.179530, 0.044789, 0.179172, -0.287549, 0.092321, 0.099726, -0.084817, -0.038687, 0.098882, -0.106542, -0.028584, -0.136648, -0.201472, -0.037294, 0.093245, 0.016606, -0.061182, 0.010060, 0.129940, 0.020332, 0.096806, -0.060282, -0.065219, -0.077775, -0.078780, 0.017935, 0.004139, 0.071873, 0.013882, -0.069016, 0.038335, 0.025591, -0.005147, 0.148188, -0.041271, 0.108795, 0.128718, -0.007409, 0.082618, 0.070834, 0.034705, -0.114188, -0.049961, 0.027828, 0.055366, 0.016017, 0.048107, -0.324728, -0.088703, -0.235160, 0.000678, -0.144415, -0.077319, 0.017293, 0.113031, 0.069398, -0.278747, 0.036294, -0.066370, 0.135660, 0.111057, 0.019682, 0.129362, -0.004086, -0.013277, 0.011595, 0.010549, -0.397777, -0.047682, 0.132059, -0.059055, 0.051461, -0.103688, 0.054932, 0.072522, -0.044636, 0.050232, -0.002473, 0.029265, -0.433494, 0.031763, -0.039755, 0.030792, 0.000101, 0.000602, -0.044391, 0.097723, -0.061811, -0.142058, 0.069410, -0.064338, 0.047256, -0.191130, -0.049623, 0.023346, 0.015241, -0.014008, -0.160667, 0.146128, -0.080578, 0.103589, 0.114541, 0.042097, -0.076794, 0.055116, -0.013226, 0.121061, 0.042010, -0.055677, -0.085952, -0.125191, -0.054937, 0.018523, -0.037158, -0.542194, 0.167505, -0.116969, 0.067409, -0.048153, 0.038073, -0.050204, -0.042991, 0.043670, -0.138115, -0.068598, },
    {-0.004028, 0.071631, -0.058393, -0.168610, -0.061880, -0.145013, 0.018988, -0.253120, -0.418840, -0.387113, 0.015562, -0.019298, 0.133928, 0.063107, -0.235634, 0.179436, -0.105577, 0.052859, -0.082831, 0.138176, 0.036824, -0.131541, -0.141101, 0.044420, 0.169887, -0.173346, -0.000716, 0.017734, -0.063491, -0.086297, -0.107802, -0.089068, -0.078407, 0.064504, -0.234852, -0.407144, -0.159271, 0.032012, 0.047643, 0.050170, -0.117420, -0.160649, -0.180984, -0.053132, 0.061190, -0.266940, -0.340711, 0.178784, -0.074834, -0.191876, -0.261368, -0.217160, 0.051283, -0.221637, -0.502710, -0.237278, -0.255207, -0.186679, 0.088168, 0.065904, 0.056939, -0.200993, -0.050419, -0.198420, -0.127745, -0.262245, -0.032609, -0.086336, 0.114040, 0.121510, -0.307077, -0.215668, -0.290345, 0.166541, 0.118541, -0.009261, -0.492953, -0.030354, -0.050929, -0.216838, -0.163208, 0.069065, 0.153394, -0.194136, 0.130584, -0.167260, 0.057530, 0.249935, 0.039166, -0.186721, 0.002059, -0.389631, -0.001228, 0.041178, -0.071521, 0.013787, -0.087951, -0.137714, 0.011849, 0.043873, -0.056616, 0.063892, -0.007687, -0.132527, 0.035599, -0.050420, 0.050368, -0.118710, -0.048091, -0.237278, 0.085495, -0.438699, 0.025159, -0.036776, -0.166401, -0.140650, -0.108009, -0.108224, -0.496241, 0.032149, 0.015271, -0.262559, 0.075822, 0.011834, -0.065362, -0.198320, 0.069446, 0.088337, },
    {0.044464, -0.008135, -0.077204, 0.019514, -0.029217, -0.009875, -0.064729, -0.072956, -0.077559, -0.042544, -0.051935, -0.044813, -0.062357, -0.041292, 0.062073, -0.093267, 0.189169, -0.282454, -0.070201, -0.359028, 0.041901, 0.383437, -0.002943, 0.115526, -0.100763, 0.034242, -0.007269, 0.011538, 0.009202, 0.066644, 0.042876, -0.005929, 0.026960, -0.048845, -0.133109, -0.046925, 0.043435, 0.028706, 0.086999, 0.030842, 0.014314, 0.036006, 0.006220, -0.095943, -0.125243, 0.070583, -0.049171, -0.071794, -0.034355, -0.074793, 0.029960, -0.041560, 0.040236, -0.051474, -0.128841, -0.038207, -0.057414, 0.027486, 0.148509, 0.014083, -0.087330, -0.054647, -0.036837, 0.010193, -0.082259, -0.012164, -0.126156, 0.064908, 0.213265, 0.027984, -0.204194, -0.060876, -0.079920, -0.000632, -0.011241, -0.048015, 0.009372, 0.010683, -0.078144, -0.039190, -0.001752, -0.126588, 0.259643, -0.019499, 0.012287, 0.476303, 0.028254, 0.001267, 0.113208, 0.008663, 0.049077, 0.016050, 0.045212, 0.073904, -0.012205, -0.077470, -0.019417, 0.032213, -0.040079, -0.017354, -0.025194, -0.103803, -0.020366, 0.094510, 0.022483, -0.042388, 0.052544, 0.076578, 0.110918, -0.116926, -0.046637, -0.085894, -0.145723, -0.084163, -0.041426, -0.025677, -0.022088, -0.105347, -0.075137, -0.046432, -0.048115, -0.022708, 0.016121, -0.080763, 0.045256, 0.192880, 0.053814, -0.070419, },
    {-0.061655, 0.158441, 0.069279, -0.074851, 0.004161, -0.003584, -0.071942, 0.244495, 0.119424, 0.178260, 0.008140, 0.092978, -0.063941, -0.024519, 0.111709, -0.005851, -0.168473, -0.089761, -0.002124, -0.090768, 0.084143, -0.246430, 0.093607, 0.078620, 0.007546, 0.162672, -0.045690, -0.022367, -0.126672, 0.039663, -0.069188, -0.006582, 0.011413, 0.043596, 0.155889, 0.022586, -0.037751, -0.078637, -0.034952, -0.113622, 0.048637, 0.122201, -0.028965, -0.017113, -0.128197, 0.015951, 0.181703, 0.095875, 0.030941, 0.116221, -0.065586, 0.209304, -0.103611, 0.086254, 0.284641, 0.134952, -0.011462, -0.044158, -0.001307, -0.146349, 0.052641, -0.109485, -0.114793, -0.546091, -0.065609, -0.018916, 0.052439, 0.065846, -0.018306, -0.055556, 0.092060, -0.030876, 0.073911, 0.065515, 0.021663, 0.044366, 0.124893, -0.074656, 0.043607, -0.058879, -0.084892, -0.005346, -0.026964, 0.015995, -0.010416, -0.215455, -0.047543, 0.089415, -0.138791, -0.085884, -0.135254, 0.062684, -0.013125, 0.020920, -0.030634, 0.122969, -0.031542, 0.048210, -0.043865, -0.010518, 0.153302, -0.058691, -0.065409, -0.007777, -0.134791, -0.042318, 0.109291, -0.153738, 0.065274, 0.000046, -0.090550, 0.197520, 0.238958, 0.031874, -0.026663, -0.020398, 0.023622, -0.142997, 0.065108, 0.033098, -0.045344, 0.046819, -0.123556, -0.036226, 0.109662, -0.210750, 0.081822, -0.091297, },
    {-0.048591, 0.084683, 0.062642, 0.095533, -0.062524, -0.151158, -0.214084, 0.142838, -0.327460, 0.016822, 0.458741, 0.000141, 0.091688, -0.045337, 0.081460, -0.065904, 0.152142, -0.084340, -0.084965, 0.199528, -0.319138, -0.008843, 0.218474, 0.262890, 0.182272, -0.101105, 0.042731, -0.317041, -0.067607, -0.060477, 0.061110, -0.039230, -0.009498, 0.073767, 0.494009, 0.089850, -0.377538, -0.121481, -0.189687, 0.056233, 0.001294, -0.227857, -0.170883, -0.056302, 0.034228, -0.114969, -0.025722, 0.076232, 0.050151, -0.265054, -0.154704, 0.042446, -0.189859, 0.009690, 0.041551, 0.107730, 0.033853, -0.230359, 0.167601, -0.299001, -0.060417, -0.268524, -0.086973, -0.292446, 0.011178, -0.292304, 0.000993, 0.010662, -0.215761, -0.241394, 0.146105, -0.194047, -0.018461, -0.065762, -0.029640, 0.097154, 0.293807, -0.051796, -0.121609, -0.166153, -0.091675, -0.043312, 0.323393, 0.025064, -0.113862, 0.111527, 0.090291, -0.093137, -0.205986, -0.060071, -0.207978, 0.062022, 0.089728, 0.029511, 0.041095, 0.158618, 0.041440, -0.096261, -0.088602, -0.045963, 0.431434, -0.051055, 0.052973, -0.126409, -0.129986, -0.249627, 0.054155, -0.305257, -0.049178, -0.270171, -0.125769, -0.341741, 0.076852, -0.024776, 0.039232, -0.080842, 0.472610, 0.041341, -0.004134, -0.015113, 0.027047, -0.046965, -0.150126, -0.227329, -0.026117, 0.125865, -0.238403, 0.035426, },
    {0.075444, -0.048177, -0.113829, -0.163116, -0.039182, -0.373640, 0.102385, -0.314060, -0.332473, -0.431089, 0.089956, 0.004706, 0.077798, 0.031334, 0.005691, -0.017056, 0.049900, 0.122975, -0.014645, 0.079510, -0.127316, 0.395974, -0.248868, 0.047138, 0.017647, -0.161929, 0.004159, -0.020205, 0.010857, -0.034249, -0.125062, -0.032961, 0.017763, 0.037609, -0.024024, 0.140169, 0.127135, 0.124112, 0.025379, -0.043440, -0.028712, 0.057234, -0.136676, -0.038273, -0.021802, 0.019816, -0.409088, -0.053173, 0.087758, -0.184908, 0.320280, -0.187384, 0.244089, -0.367944, -0.075595, -0.183011, -0.157500, 0.073241, 0.171661, 0.148936, 0.066861, 0.049820, -0.244870, 0.015191, 0.026733, 0.021465, 0.053389, 0.129529, 0.064762, 0.231831, 0.185041, 0.142203, 0.172411, -0.158622, -0.037171, 0.055302, -0.305878, -0.092435, -0.115700, -0.039125, -0.046373, -0.012764, 0.104425, -0.203681, 0.054286, 0.493348, -0.076172, 0.000278, 0.074589, -0.032571, 0.250695, -0.577425, 0.073455, 0.088317, -0.041320, -0.223335, 0.053766, -0.092951, 0.149145, -0.008155, -0.261257, 0.120896, -0.054093, -0.249606, -0.001607, -0.075153, -0.156288, 0.061730, 0.040267, 0.241317, 0.085084, -0.247441, -0.056467, 0.091517, 0.099545, 0.109038, -0.132539, 0.251337, -0.411534, 0.067337, 0.088188, -0.122607, -0.206674, 0.110492, -0.244245, 0.029340, -0.001338, -0.004643, },
    {-0.037953, -0.101512, -0.031238, -0.072060, 0.085588, 0.017074, 0.168318, -0.118954, 0.105627, 0.032859, 0.005987, -0.029922, 0.202647, 0.016158, -0.073592, -0.101186, 0.044430, 0.118342, -0.041743, 0.111372, 0.097217, 0.318682, 0.058860, 0.022450, 0.000723, 0.118331, -0.013388, 0.097161, -0.064231, -0.025980, -0.032246, 0.033769, 0.055214, 0.129227, 0.045699, 0.019310, -0.098391, 0.090487, 0.069384, -0.005037, 0.198783, 0.015402, -0.013558, 0.049388, -0.092397, -0.302608, -0.063805, -0.018901, -0.128269, -0.225478, 0.293546, 0.180813, 0.217036, 0.035729, 0.005256, -0.036742, 0.031019, -0.005404, -0.023496, -0.085021, 0.054671, 0.049414, -0.036042, 0.009483, -0.047480, -0.120627, 0.111894, -0.019761, -0.103109, 0.192177, 0.196290, 0.064429, -0.136550, -0.127580, 0.031897, 0.024068, 0.058245, 0.036246, -0.049129, 0.071659, 0.019076, -0.127785, 0.072551, -0.021811, -0.090598, 0.492228, 0.045207, -0.082372, 0.155173, -0.282390, 0.015513, -0.085608, 0.047194, -0.024767, 0.066973, 0.212300, -0.085740, 0.000996, 0.083196, -0.021349, -0.003979, -0.037474, -0.057430, -0.091521, -0.047951, -0.021808, -0.043201, 0.059402, -0.034133, -0.262006, -0.002641, 0.107056, -0.039191, -0.024220, 0.027106, -0.036437, 0.108684, 0.414701, -0.065234, -0.068193, -0.081852, -0.144582, 0.076549, 0.086359, -0.091989, 0.039998, 0.044201, 0.019341, },
    {-0.016074, 0.045643, 0.031800, 0.041766, -0.031985, -0.088629, -0.094617, -0.047470, -0.004183, -0.056477, 0.035187, -0.025654, -0.059223, 0.049293, 0.011125, 0.020862, 0.014872, 0.052850, 0.022597, -0.052385, -0.087170, 0.417241, -0.053786, 0.067333, 0.001504, -0.069802, 0.024138, -0.075687, -0.010109, -0.013491, -0.079162, -0.027469, -0.019256, -0.050422, 0.039706, -0.126696, 0.048495, 0.034694, 0.018466, 0.121844, -0.029883, -0.052091, -0.024478, -0.029027, -0.084207, -0.130036, -0.060953, 0.027295, -0.004751, -0.102035, -0.042292, 0.037741, 0.067758, 0.018476, 0.028693, -0.034148, -0.043746, 0.026982, 0.000544, -0.042457, 0.092664, -0.039921, -0.113389, -0.092930, -0.110505, 0.033299, -0.039620, -0.006712, -0.054529, 0.004698, -0.086300, 0.317408, -0.058815, -0.029143, -0.054322, -0.007832, -0.033946, -0.031291, -0.001943, 0.065683, 0.008176, 0.052295, 0.052040, -0.092280, 0.012403, 0.287961, -0.009046, -0.111099, -0.081963, -0.042379, -0.023777, -0.071555, 0.011085, 0.006434, -0.032808, 0.054172, -0.017132, -0.043524, -0.116933, 0.004622, 0.053890, -0.019721, 0.076244, 0.011808, 0.024389, -0.035642, -0.067480, -0.093990, -0.018869, 0.049886, -0.062998, -0.039390, -0.022765, -0.040744, -0.118434, -0.000954, -0.148119, 0.044842, 0.047120, -0.028961, 0.000237, -0.114847, 0.092005, -0.039834, -0.133807, 0.114536, -0.029290, 0.031607, },
    {-0.055788, -0.077141, -0.096542, 0.030089, 0.042039, 0.053221, -0.170154, 0.024473, 0.046632, -0.031134, 0.060293, 0.124378, 0.178813, -0.044841, -0.133001, -0.111537, 0.123966, 0.120896, -0.099787, 0.218972, 0.016535, 0.150501, -0.009774, 0.096287, 0.114377, 0.063668, -0.062453, -0.033756, -0.076762, 0.048140, 0.108839, 0.069422, 0.114642, 0.216594, 0.051743, -0.085047, -0.002552, 0.010743, 0.191783, -0.042546, -0.039778, 0.087655, 0.260591, 0.024875, 0.051259, -0.065039, 0.072452, -0.045542, 0.210980, -0.456121, -0.163565, 0.257154, 0.061491, 0.036517, -0.099816, -0.064752, -0.045059, 0.059339, 0.256456, -0.117456, -0.037390, -0.063897, 0.074644, -0.180854, -0.004781, 0.036636, -0.091845, 0.121538, 0.039891, -0.038173, -0.346263, -0.177314, -0.014998, -0.001799, 0.084263, 0.060559, 0.138546, 0.066827, 0.039013, 0.069606, -0.024890, -0.046425, 0.111584, 0.015293, -0.274241, 0.272361, 0.010494, 0.033480, 0.153825, 0.143950, 0.021832, -0.043543, 0.037349, 0.111176, 0.034932, 0.153001, -0.076386, 0.073296, 0.180903, -0.044014, 0.207089, 0.095016, 0.037611, 0.054906, -0.086506, 0.112440, 0.022125, -0.068407, -0.094196, 0.258110, 0.047838, -0.154354, 0.173578, -0.024650, 0.007379, 0.076456, -0.032273, -0.241510, -0.028422, -0.038816, 0.051977, -0.001231, 0.133591, 0.141367, 0.025660, 0.033238, -0.034901, -0.019880, },
    {-0.077071, -0.033975, -0.014399, -0.028788, 0.017954, -0.138192, -0.048255, -0.128045, -0.043692, 0.011189, -0.008148, -0.100785, 0.035759, 0.032674, -0.111880, 0.045590, -0.143901, 0.012708, -0.012137, -0.096841, -0.067636, -0.075408, -0.113096, 0.068552, -0.051997, -0.105590, 0.044030, -0.141170, -0.139542, -0.037286, -0.017024, -0.047298, -0.020751, 0.040268, 0.017973, 0.024143, 0.060385, -0.086933, -0.222757, -0.128091, -0.153957, -0.081833, 0.044618, -0.055363, 0.003648, -0.045497, -0.184804, -0.231553, 0.178759, 0.072660, -0.056415, -0.071326, -0.096868, -0.027263, -0.108049, 0.035503, -0.068414, -0.016637, -0.102105, -0.033953, 0.074623, -0.094082, 0.005848, 0.069064, -0.096947, -0.118573, 0.006966, -0.073029, -0.113399, -0.132371, -0.150997, -0.123649, -0.091348, -0.056881, -0.080484, -0.050643, -0.040639, -0.048258, 0.054686, -0.024867, 0.007494, 0.007515, -0.059393, 0.035005, -0.011745, 0.021289, -0.013227, -0.247830, 0.014906, 0.093053, -0.017850, -0.157191, -0.035705, -0.048250, -0.032040, 0.058269, 0.065444, -0.041233, -0.198347, 0.046884, -0.033946, -0.117864, 0.048301, -0.039205, 0.034122, -0.073982, -0.005759, -0.037431, -0.043919, 0.042411, -0.092617, -0.072170, 0.040229, 0.034760, -0.096677, -0.082123, 0.096000, -0.078680, -0.128900, -0.035362, 0.031572, -0.007416, -0.103022, -0.109967, 0.004766, -0.040756, -0.063289, -0.002473, },
    {-0.025705, -0.059888, -0.050447, 0.034363, 0.007121, -0.142293, 0.155032, -0.279863, 0.103426, 0.022550, -0.027039, -0.072213, 0.060360, 0.036117, 0.086007, 0.060267, 0.120311, -0.032196, -0.052673, -0.020123, -0.137629, 0.090649, -0.037720, 0.035914, -0.071988, -0.061314, 0.024913, -0.076279, -0.067544, -0.038867, -0.022260, -0.075020, 0.030891, -0.338522, -0.227322, 0.131547, -0.206782, -0.152668, -0.076788, -0.079542, 0.122904, -0.085382, -0.175223, 0.064094, -0.033677, 0.003839, -0.059748, -0.148890, -0.263284, -0.079706, 0.122232, 0.014304, 0.128660, -0.137193, 0.012887, -0.032765, -0.093645, -0.035316, -0.070684, -0.058113, 0.011890, 0.035745, -0.092003, 0.133533, -0.117350, -0.227286, 0.158441, -0.027938, -0.093981, 0.116700, 0.324730, 0.270990, 0.117555, -0.107637, -0.223921, 0.018743, -0.100090, -0.038909, -0.179565, -0.111309, -0.097579, -0.170586, 0.065696, -0.068083, -0.171039, -0.004377, -0.001669, -0.142291, -0.074268, -0.282018, -0.192602, -0.057435, 0.036943, -0.075291, -0.013956, -0.036369, -0.000662, -0.076086, -0.138683, -0.047180, -0.034758, 0.105971, 0.101835, -0.066811, 0.175802, -0.042561, 0.016174, -0.123475, -0.066606, -0.102913, 0.049659, -0.003321, -0.219857, -0.063280, -0.060806, 0.078514, 0.064360, 0.387169, -0.027579, -0.089623, 0.040837, -0.150608, 0.009246, -0.156431, 0.014044, -0.111857, -0.134899, -0.038275, },
    {0.061802, 0.129818, -0.002977, -0.014994, -0.010377, -0.009477, -0.184736, -0.043849, -0.068869, 0.009267, -0.073600, 0.029688, -0.106891, 0.023976, 0.081325, -0.137349, -0.065718, 0.003869, -0.027459, 0.139905, -0.151169, -0.013144, -0.088411, -0.061652, 0.058667, 0.004442, -0.009778, -0.109206, 0.039469, 0.019699, 0.072341, 0.054335, 0.056686, 0.066891, 0.119940, 0.184271, 0.128009, 0.114597, -0.002152, -0.016365, 0.105431, -0.090585, 0.004911, 0.027639, -0.012385, 0.023784, -0.003229, -0.195538, -0.167739, 0.040682, 0.059668, 0.138468, -0.013007, -0.023380, 0.138784, 0.068208, 0.099428, 0.119433, -0.003938, -0.066874, -0.033039, 0.106264, 0.048914, 0.154140, 0.084555, 0.002320, 0.158242, -0.164173, -0.214317, -0.117015, 0.117937, -0.060390, 0.103455, -0.005780, -0.068669, 0.129654, 0.102918, -0.023714, -0.067294, 0.021169, 0.010329, -0.068244, 0.071663, -0.058403, -0.032509, -0.023177, -0.060567, -0.079296, 0.064533, 0.325156, 0.075051, -0.046904, 0.036577, 0.008646, -0.017494, -0.115558, -0.028283, -0.066671, -0.055195, -0.014905, -0.078804, 0.110280, -0.024992, -0.178775, 0.011343, 0.042079, -0.066612, -0.113386, 0.024875, 0.143891, -0.063940, -0.082147, -0.196830, 0.013236, 0.002131, 0.186481, 0.254156, -0.192568, -0.142239, -0.081498, -0.052077, -0.068645, -0.123135, 0.116726, 0.052559, -0.196790, -0.003868, 0.048725, },
    {0.003983, -0.166816, -0.018704, -0.015216, -0.080259, -0.034556, -0.095428, 0.003006, 0.105243, -0.032737, -0.073530, 0.084265, 0.016497, -0.065603, -0.143786, -0.179671, 0.202267, -0.003819, 0.000530, -0.146166, 0.065961, -0.057225, 0.052948, 0.053059, -0.035570, 0.180070, 0.076800, 0.162379, -0.030236, -0.063003, 0.014110, 0.094578, 0.062373, 0.082384, -0.053303, -0.074406, -0.113714, 0.021576, 0.105049, 0.057304, -0.144487, -0.001626, -0.000752, 0.014449, 0.026243, -0.102585, 0.104929, -0.113427, -0.260569, -0.242882, 0.199114, 0.308986, 0.081907, 0.028726, -0.057335, -0.018946, -0.020815, 0.036190, 0.009605, 0.039474, -0.073422, -0.049656, -0.038249, -0.194326, -0.060358, 0.091073, 0.019372, -0.110282, -0.220940, -0.123138, -0.166267, -0.059444, -0.032082, -0.036288, 0.011579, 0.074280, 0.033908, -0.007414, 0.014214, 0.045233, 0.057862, -0.152207, -0.116544, -0.065025, -0.461415, -0.127597, -0.045202, 0.008543, 0.107757, -0.143036, 0.001194, 0.053445, 0.001973, -0.021867, -0.049679, 0.075446, 0.079075, 0.058672, 0.082808, -0.008399, -0.080448, -0.086018, -0.080664, 0.114766, -0.193361, 0.058198, 0.018577, -0.005378, -0.036375, -0.143389, -0.050087, -0.029303, -0.224591, -0.090524, 0.062338, 0.025579, -0.028750, -0.070477, 0.111692, -0.032162, -0.077932, -0.119251, 0.132531, 0.027772, -0.020873, 0.179920, 0.004256, 0.012042, },
    {0.032574, 0.004616, 0.034542, 0.070787, -0.066360, -0.023328, -0.284760, 0.050088, 0.086273, -0.056072, -0.062102, -0.032148, 0.022042, -0.096089, 0.165916, 0.099948, 0.108340, -0.171646, 0.056754, -0.055685, -0.127952, 0.263909, 0.010688, 0.098113, 0.092649, -0.103054, -0.053313, -0.145595, 0.001844, 0.077082, 0.035495, -0.083353, 0.075962, -0.235740, -0.115901, 0.117394, -0.139630, -0.164475, 0.048781, -0.159282, 0.000322, 0.125811, -0.106540, 0.000795, 0.042513, 0.084404, 0.042206, 0.053847, -0.392783, 0.122033, 0.045398, 0.084814, -0.022954, -0.109576, 0.074861, 0.053865, -0.045336, -0.101419, -0.334247, 0.056319, 0.081620, -0.060640, -0.051829, -0.026973, 0.091521, -0.128849, 0.051785, -0.043195, -0.251889, -0.309780, 0.108357, 0.034666, 0.121224, 0.148801, 0.008011, 0.059364, -0.142367, 0.018360, -0.093175, -0.003972, -0.092658, -0.204114, -0.164826, -0.057705, -0.012717, 0.379343, 0.107158, 0.088308, 0.026477, -0.056613, 0.037667, 0.015671, -0.046673, 0.085385, 0.058124, -0.274187, -0.060270, 0.071327, -0.046817, 0.032630, -0.169784, -0.098641, 0.027923, -0.001120, -0.111091, 0.047458, -0.091485, 0.006910, -0.021498, -0.014652, 0.064559, 0.016240, -0.309141, -0.071885, -0.014454, -0.149045, 0.002086, -0.267034, 0.022382, -0.047040, 0.015589, 0.048479, 0.074989, 0.005257, 0.104447, 0.136724, -0.120073, -0.085886, },
    {-0.049763, 0.029774, 0.045546, 0.019086, 0.034493, -0.054845, 0.148687, 0.000125, -0.026523, -0.045154, -0.041770, 0.022660, -0.202008, 0.035480, -0.051312, -0.063744, 0.063086, 0.053039, 0.000818, 0.070958, 0.077839, 0.185538, -0.006621, -0.013696, -0.115524, 0.053895, -0.015340, -0.078834, 0.048663, -0.022771, -0.043007, 0.017330, -0.019935, -0.022553, 0.007975, -0.075314, 0.029169, 0.035257, -0.015470, -0.014528, -0.027133, -0.102480, -0.082829, -0.046839, -0.046653, -0.030016, 0.002642, -0.098960, -0.033866, -0.028095, 0.024678, 0.034689, 0.087395, -0.015944, -0.044617, 0.040431, -0.107215, -0.001686, -0.117687, -0.057321, 0.044335, -0.028002, -0.144252, 0.362490, -0.112758, -0.017902, -0.067470, -0.063798, 0.060835, 0.046120, 0.100044, 0.563496, 0.015115, -0.003087, -0.017125, -0.091567, 0.049503, -0.038580, 0.052297, -0.065442, -0.025829, 0.031319, 0.181931, 0.009673, -0.035870, -0.019190, 0.051474, 0.027544, 0.072215, 0.006023, -0.070105, 0.021579, 0.097033, -0.040453, 0.030454, -0.037399, -0.042717, 0.023831, -0.059873, 0.011802, 0.096667, 0.038212, -0.046021, -0.016308, 0.098361, -0.046908, -0.118168, -0.020492, 0.096833, 0.056530, -0.098128, 0.017985, 0.040317, 0.031860, -0.049715, 0.011258, -0.267255, 0.253680, -0.075135, -0.073863, -0.066739, 0.034597, 0.018993, -0.031852, 0.029296, 0.009004, -0.126375, 0.036167, },
    {0.109414, 0.014841, -0.141401, -0.041431, -0.069345, -0.050673, 0.222979, -0.168796, -0.125293, -0.194734, 0.191801, -0.071002, 0.094381, 0.028542, 0.069691, 0.099647, 0.166574, -0.003430, 0.065855, 0.160250, -0.122734, -0.031443, -0.084444, -0.060081, 0.010424, -0.069543, 0.003100, 0.015199, 0.017026, 0.034977, -0.125446, 0.010769, -0.016936, -0.078024, -0.039748, 0.047613, -0.107303, 0.019896, 0.000892, 0.030995, 0.011345, -0.049825, -0.063460, 0.056384, 0.135594, 0.127683, -0.116780, -0.011921, -0.016433, -0.025451, -0.003015, -0.258912, 0.116181, -0.092774, 0.059055, 0.012317, -0.105122, -0.026292, 0.151475, -0.081962, -0.034354, 0.014699, -0.056146, 0.071581, 0.006980, -0.066938, 0.049307, 0.079545, 0.031924, 0.010134, 0.287167, 0.108361, 0.015852, 0.015012, 0.039524, 0.023084, -0.190891, -0.014600, -0.103135, -0.116589, 0.047553, -0.188822, 0.129127, -0.073926, -0.104056, 0.076896, -0.020829, 0.026723, 0.027288, 0.011838, 0.277532, -0.043460, -0.037079, -0.035882, -0.014736, -0.134713, 0.025410, -0.123814, 0.105154, 0.045140, -0.141595, 0.041594, -0.041135, -0.029412, -0.012047, -0.050756, -0.007756, 0.032448, -0.056453, -0.097636, 0.020723, -0.147999, -0.168358, 0.046609, -0.078554, -0.020939, 0.143380, 0.252813, -0.237647, 0.087488, 0.034176, -0.019481, 0.058699, -0.032924, -0.012227, 0.002077, -0.104763, 0.108158, },
    {-0.101916, -0.048731, -0.061277, 0.097418, 0.084656, 0.105961, -0.005726, 0.110465, 0.022264, -0.172795, -0.080111, 0.106010, -0.039270, -0.010571, -0.275510, -0.147650, -0.124213, -0.061732, -0.075680, -0.078693, -0.217951, 0.044714, -0.011747, 0.039128, -0.076162, -0.043294, 0.000018, -0.197077, -0.125639, 0.054191, 0.064392, -0.083880, -0.049614, -0.274219, 0.009944, -0.028399, -0.031811, 0.061107, 0.041181, -0.384827, -0.107308, 0.112436, -0.083793, -0.086049, -0.073352, -0.028040, 0.120712, 0.143225, -0.256954, -0.239153, -0.272985, 0.007284, -0.164143, -0.013024, -0.213691, -0.178258, -0.068722, -0.090987, -0.055289, -0.353892, -0.087512, -0.302896, 0.262021, 0.122368, 0.021403, -0.058485, 0.002472, -0.055271, 0.151895, 0.150269, -0.084816, 0.177726, 0.026141, 0.017216, -0.074070, -0.072105, -0.202545, 0.018129, -0.046181, -0.022286, 0.019260, -0.209196, -0.467632, -0.094841, -0.312261, 0.160378, -0.017216, 0.071971, 0.021860, 0.067714, -0.102059, -0.150570, -0.099666, -0.052690, -0.014596, -0.187690, 0.072261, 0.078022, 0.007736, -0.020799, 0.038012, 0.153977, 0.029602, -0.249489, 0.143122, 0.089858, -0.082582, -0.338840, -0.037129, -0.075164, 0.002949, -0.067317, -0.032187, 0.003318, -0.076767, 0.025056, -0.016465, 0.094125, 0.214272, 0.042738, 0.051918, 0.076057, -0.138840, -0.058988, 0.019965, -0.086389, -0.173126, -0.056691, },
    {-0.065461, -0.004385, 0.065034, 0.160605, -0.023173, 0.072811, 0.185322, -0.018366, 0.094634, 0.060767, 0.019177, 0.049366, 0.118420, -0.117373, -0.031851, 0.069795, -0.075547, 0.022769, 0.049027, -0.009247, -0.152878, -0.264427, -0.001020, 0.056471, 0.041702, -0.194602, 0.086132, -0.114143, 0.086409, -0.086389, 0.087451, -0.005184, 0.057348, -0.130136, -0.122730, 0.179087, -0.243759, -0.034736, 0.060148, 0.107994, 0.042613, 0.105298, -0.016194, -0.038324, -0.001254, 0.027220, 0.107312, 0.017195, -0.564434, -0.025312, 0.128899, -0.042267, -0.097411, -0.060131, -0.005917, 0.083541, 0.008514, -0.004200, -0.213115, -0.167054, -0.040182, -0.047470, -0.012709, 0.048943, 0.096302, -0.032118, 0.123758, 0.019719, -0.447295, -0.194586, 0.121518, 0.148155, 0.206469, 0.000876, -0.107706, 0.005391, -0.056671, -0.099837, -0.107793, -0.143136, 0.012239, -0.264226, -0.041454, -0.040615, -0.149922, -0.264756, 0.047031, 0.017125, 0.042839, -0.200069, -0.129594, -0.083354, -0.043386, -0.036599, -0.075754, -0.158939, -0.112893, -0.074920, -0.018468, -0.043663, -0.108148, 0.121345, -0.033420, -0.053000, 0.146056, -0.025557, -0.106450, -0.067018, -0.007208, -0.156088, 0.130046, -0.084373, -0.295369, -0.053085, -0.123569, -0.222886, 0.120382, 0.235643, 0.110936, -0.000465, -0.021546, -0.008031, 0.080929, -0.164584, 0.061543, -0.030674, -0.036901, -0.028529, },
    {-0.050932, 0.052481, 0.094367, -0.040031, 0.060733, -0.047910, -0.090745, -0.033877, 0.001716, 0.076839, 0.054848, 0.018413, 0.047858, 0.012515, 0.115364, 0.194757, 0.075416, -0.174058, -0.035774, -0.150727, 0.170728, -0.156691, -0.012850, -0.048428, -0.051802, 0.192522, 0.069064, 0.103203, 0.086995, 0.009992, -0.034610, 0.010793, -0.036278, -0.154099, -0.184737, 0.148232, -0.023196, -0.121729, -0.044393, 0.296771, -0.080247, -0.112484, 0.031385, -0.000077, -0.082098, 0.093659, 0.008281, 0.017313, -0.124577, 0.277257, 0.022213, -0.039186, -0.075209, -0.028150, 0.254088, 0.128682, 0.083407, -0.012563, -0.236542, 0.121730, -0.063689, 0.149914, -0.052076, -0.064055, 0.073644, 0.013380, -0.041069, -0.152697, -0.026622, -0.031947, 0.283281, 0.075838, -0.046257, -0.002963, 0.062531, -0.025126, -0.060326, -0.075034, 0.045367, -0.049201, 0.019434, 0.111259, -0.066322, 0.104960, 0.228361, 0.056150, -0.032240, 0.029670, -0.052739, 0.032352, -0.021887, 0.137877, 0.037290, 0.035631, -0.025078, 0.041933, 0.103825, -0.045722, 0.005051, 0.103523, -0.164534, -0.140816, 0.014447, 0.104110, -0.101477, -0.035085, -0.034690, 0.134760, 0.059348, -0.143372, 0.007656, 0.143268, 0.044477, -0.049402, 0.021474, -0.142166, -0.055111, -0.034998, 0.033924, -0.010313, -0.024579, 0.003469, -0.013885, -0.068433, 0.065028, 0.075827, 0.044126, -0.012541, },
    {0.111320, -0.134737, -0.079132, -0.015910, 0.043493, -0.034325, 0.198881, 0.131060, 0.177932, -0.118655, -0.029360, 0.035398, -0.157492, -0.007393, -0.178550, -0.180142, -0.131263, -0.079132, -0.020298, -0.141180, -0.074640, 0.119620, -0.045823, 0.019656, -0.097179, 0.084078, 0.031694, 0.012608, 0.028249, 0.069227, -0.010645, -0.009910, 0.035898, -0.115662, 0.094351, -0.036349, 0.024982, -0.049036, 0.004788, -0.138746, -0.120455, 0.056556, -0.112964, 0.020193, -0.051539, -0.154260, 0.047196, 0.102677, 0.036175, -0.033430, -0.084485, 0.094549, 0.035759, -0.092837, -0.148937, -0.038793, 0.006970, -0.116319, -0.057636, 0.028686, -0.094843, -0.083646, 0.046069, 0.125904, 0.038231, 0.007836, -0.029402, 0.020790, -0.195663, -0.007331, 0.048896, 0.408411, 0.083701, 0.050030, -0.042064, -0.090373, 0.020481, 0.010476, -0.033260, -0.122293, -0.084792, -0.296932, -0.184772, -0.060224, -0.435958, 0.011441, 0.049386, 0.059430, 0.126358, -0.007961, -0.093270, -0.007211, -0.104965, -0.071304, 0.050798, -0.061453, -0.066196, 0.027392, -0.046411, 0.104930, 0.013195, 0.280805, 0.059518, -0.120447, 0.129933, -0.032684, -0.074774, -0.128379, -0.028693, -0.175340, -0.001696, -0.029346, -0.087303, -0.094562, -0.036657, 0.097644, -0.082125, 0.269547, 0.140252, 0.052927, 0.032819, -0.036096, -0.290513, -0.072154, 0.029891, -0.089952, -0.041923, -0.053440, },
    {-0.024107, -0.217325, -0.063780, -0.025234, -0.008616, 0.008703, 0.011858, 0.033291, 0.025682, -0.015810, -0.109844, 0.005803, -0.117783, 0.034868, -0.146783, 0.028849, 0.019225, -0.033395, 0.022061, 0.000687, -0.138290, 0.130828, 0.046521, -0.093539, -0.131725, 0.024188, 0.067671, -0.006376, 0.014561, -0.022532, -0.133492, -0.017672, -0.003855, -0.095602, -0.216059, 0.301659, -0.102681, -0.028325, -0.098350, -0.096564, -0.167617, -0.071112, -0.103696, 0.048678, -0.070762, 0.140341, 0.024565, -0.015496, 0.016637, -0.196418, -0.136506, -0.048105, 0.027839, -0.023665, -0.079863, -0.096626, -0.114301, 0.019139, -0.009582, -0.030666, 0.008274, 0.008319, -0.079719, -0.039502, -0.104495, 0.024392, -0.066958, -0.136343, -0.055606, 0.051343, 0.200502, 0.357681, -0.058253, -0.038533, -0.087530, -0.091917, 0.014208, -0.039216, -0.089913, 0.050420, 0.012870, -0.092441, -0.072328, 0.006307, 0.005676, 0.062736, 0.025433, -0.033398, 0.120379, 0.010209, 0.010298, -0.067264, 0.048829, 0.059748, 0.006512, 0.052191, -0.022686, 0.024165, 0.026831, -0.096492, 0.003514, 0.055212, 0.017373, 0.043570, -0.115034, -0.097605, -0.047240, -0.028412, -0.009123, 0.265825, -0.060838, 0.019357, -0.065670, -0.023553, -0.108187, -0.048579, -0.147587, 0.499294, 0.006813, -0.032583, -0.003006, -0.105137, -0.034236, 0.038713, -0.069804, -0.067888, -0.029587, -0.088009, },
    {-0.027045, 0.063512, -0.059247, 0.010596, -0.006138, -0.056249, -0.025786, -0.072437, 0.029317, 0.032686, 0.034880, 0.046192, 0.135964, -0.009081, -0.007513, -0.072620, -0.006627, -0.072081, 0.085639, -0.042135, -0.092633, 0.138239, -0.075142, 0.014718, -0.074481, -0.091163, 0.041054, -0.050933, 0.011176, 0.037585, 0.046700, 0.044260, -0.055135, -0.126592, -0.018645, -0.004584, 0.035876, -0.071241, -0.078869, -0.102630, -0.054612, -0.117475, 0.046241, 0.044189, -0.096685, -0.011258, 0.017124, 0.022128, -0.074208, 0.059440, 0.009460, -0.107842, -0.076208, 0.006899, 0.029567, -0.024318, 0.017672, -0.091471, -0.073755, -0.110682, -0.057963, 0.015100, 0.011991, -0.052294, 0.019006, -0.105802, 0.025121, 0.022488, 0.028149, -0.077219, 0.030550, 0.000278, -0.068883, -0.120105, 0.023286, -0.040822, -0.094944, -0.022175, -0.075536, 0.039631, 0.041176, 0.087541, -0.068499, -0.028309, -0.011847, -0.044950, 0.021557, -0.067121, -0.015037, -0.085404, 0.049588, 0.016500, -0.090141, -0.017262, 0.031470, 0.028244, 0.062442, 0.035822, -0.091317, 0.073100, 0.020115, 0.192846, 0.085999, 0.051480, 0.056786, 0.044112, 0.037137, -0.035727, 0.041076, -0.029461, -0.112427, -0.017931, -0.012248, 0.027032, -0.035137, 0.028306, 0.034493, 0.006048, -0.117350, -0.062110, -0.072697, 0.016193, -0.083098, -0.024928, -0.078134, -0.111251, -0.070414, -0.022654, },
    {0.063825, 0.049408, -0.049943, -0.015452, 0.085864, -0.199849, 0.174491, -0.009140, 0.192503, -0.148297, 0.035788, -0.033560, 0.138640, -0.049248, -0.057786, 0.070333, 0.351407, -0.101850, -0.023023, 0.024615, -0.023388, 0.435450, -0.148565, 0.058804, -0.115035, -0.126528, -0.056824, -0.099449, -0.021303, 0.009623, -0.147278, -0.013202, -0.008076, -0.020849, -0.150477, -0.068270, -0.227178, 0.060236, 0.019997, -0.050723, -0.022468, 0.011487, -0.099482, 0.099911, 0.073616, -0.130647, -0.111261, 0.089635, 0.090428, 0.185662, 0.179909, -0.295262, 0.100863, -0.041955, 0.043994, -0.067638, -0.161796, -0.127813, -0.126816, 0.082982, 0.034769, -0.096384, 0.004333, -0.112371, -0.088803, -0.171589, -0.097317, -0.288271, 0.220059, 0.274358, -0.033834, 0.080982, 0.006636, 0.007445, -0.117502, -0.009795, -0.384005, 0.023845, -0.027444, -0.076085, -0.044739, -0.082817, 0.201575, -0.079112, 0.076698, 0.599950, 0.139952, 0.097725, 0.133206, -0.211043, 0.301262, -0.104250, -0.039488, 0.015045, -0.042961, 0.033684, 0.094548, -0.188852, 0.015564, 0.120795, -0.175561, -0.029276, 0.022038, -0.008134, 0.078410, -0.016069, -0.101099, -0.056749, 0.074135, -0.085733, 0.026307, 0.142127, -0.045934, 0.109203, 0.012563, -0.087480, -0.400946, 0.088989, -0.140317, -0.046984, -0.027308, -0.037281, 0.036042, -0.058250, -0.098407, -0.040532, 0.000334, -0.039454, },
    {-0.013230, -0.044919, 0.085823, 0.010503, 0.019919, -0.044684, -0.095597, -0.069867, -0.089662, 0.086614, -0.007823, 0.078215, 0.215400, 0.088254, 0.077812, -0.037623, -0.229227, -0.045235, -0.035829, 0.128779, 0.043891, -0.016678, 0.003474, 0.044696, 0.153566, 0.004788, -0.010919, 0.058978, -0.033965, -0.008503, -0.074284, -0.093998, -0.008249, 0.330523, 0.002974, -0.114016, -0.061497, 0.013734, 0.070949, -0.210336, -0.034355, 0.022036, 0.065726, -0.030123, -0.052134, 0.073953, -0.012846, -0.101072, 0.233855, -0.364257, 0.037537, 0.064260, 0.080492, 0.050333, -0.197050, 0.044637, 0.087763, -0.019345, 0.137281, -0.138427, -0.062108, -0.098134, -0.128760, -0.454254, 0.002240, -0.056821, -0.049583, 0.153959, -0.285725, -0.199706, -0.093120, -0.326118, -0.069891, 0.005227, -0.000964, 0.020238, 0.140807, 0.105343, 0.063837, 0.003679, -0.109964, -0.030334, 0.229504, -0.033540, -0.279936, 0.160675, 0.075244, 0.105931, 0.017397, -0.020789, 0.086341, -0.092303, 0.022440, 0.081315, -0.018202, 0.268793, -0.043800, -0.034552, 0.142185, 0.012339, 0.081003, -0.303609, 0.024769, -0.234573, -0.156135, 0.021196, 0.033885, -0.066957, 0.063651, 0.000109, -0.134592, -0.291430, 0.060300, 0.047305, -0.054603, -0.091939, 0.230833, -0.074519, -0.009427, 0.049789, -0.049243, -0.170624, -0.004881, 0.153825, -0.042164, 0.003866, 0.078189, -0.058787, },
