#ifndef MODEL_H
#define MODEL_H

#include "hls_stream.h"
#include "ap_fixed.h"
#include "ap_axi_sdata.h"

#define INPUT_SIZE 72
#define HIDDEN_SIZE1 64
#define HIDDEN_SIZE2 64
#define NUM_CLASSES 9
typedef ap_fixed<32,16,AP_TRN,AP_WRAP,0> fixed_pt; //W,I,Q,O,N

const fixed_pt l1_weights[HIDDEN_SIZE1][INPUT_SIZE] = {
    {-0.445534, 0.016085, 0.071492, -0.492170, 0.052320, 0.111497, -0.160039, 0.008634, -0.000002, 0.872256, 0.123588, -0.157296, -0.177270, 0.078581, 0.036346, -0.075802, 0.130782, -0.078661, -0.876111, 0.026277, -0.032432, 0.270655, 0.198418, 0.032012, -0.027477, -0.132017, -0.010778, 0.308353, 0.057538, -0.012586, -0.260761, -0.147274, -0.228443, 0.476668, 0.340109, 0.010821, -0.948629, -0.527050, -0.349877, -0.292725, -0.011734, -0.522345, 0.055265, -0.455100, -0.013490, -0.718313, -0.149320, -0.077514, 0.016041, -0.946218, -0.438734, -0.137961, 0.111092, -0.008336, -0.462470, -0.701367, -0.607418, -0.256940, 0.036703, -0.787770, 0.036483, -0.609219, -0.539404, -0.301878, 0.106294, -0.580921, 0.421662, -0.319194, -0.131634, -0.200230, 0.002427, -0.138516, },
    {0.263083, 0.134000, 0.023501, -0.066592, -0.114056, -0.091933, 0.033008, 0.031055, 0.121837, -0.457432, 0.047596, 0.087399, 0.106614, -0.045862, -0.216299, 0.496897, 0.504461, -0.197120, -0.279919, 0.022022, 0.202176, -0.031888, -0.328199, 0.036354, 0.762525, -0.210523, 0.346676, 0.279790, 0.288599, -0.002852, -0.088079, -0.196445, 0.118122, 0.086554, 0.166886, 0.074353, -0.568363, -0.055697, 0.166290, -0.081115, -0.147712, 0.151883, -0.028515, 0.120498, 0.185596, -0.225907, -0.303104, -0.071793, -0.083852, 0.215731, -0.044297, -0.485882, -0.390562, 0.086989, -0.033217, 0.202335, 0.137449, 0.161739, 0.072654, -0.064601, 0.214766, 0.219488, 0.027912, -0.103977, -0.025029, 0.118781, -0.136838, 0.019709, 0.664010, 0.543624, -0.058502, 0.226778, },
    {-0.007646, 0.359240, -0.096768, -0.046263, 0.155864, 0.114898, -0.136709, -0.191598, -0.208759, -0.205410, 0.104782, 0.085127, -0.151567, 0.099178, -0.052370, -0.204134, -0.179015, 0.129530, 0.201909, 0.112743, 0.156573, 0.479135, -0.157641, 0.251864, -0.525155, 0.114796, 0.032090, 0.052257, 0.090332, 0.122964, -0.924227, 0.322979, 0.267414, 0.252062, -0.323073, 0.179817, -0.578425, 0.055376, 0.058714, -0.482467, -0.370913, 0.063873, 0.055988, -0.126648, -0.122471, 0.208076, -0.150377, -0.034116, -0.021100, -0.334803, 0.100940, -0.027583, 0.019984, 0.123361, -0.204285, 0.131535, 0.398079, -0.235318, 0.027050, 0.301480, 0.579395, 0.277432, 0.198967, -0.159837, -0.145810, 0.073740, -0.299373, 0.100488, -0.087392, -0.056804, -0.159848, -0.015626, },
    {-0.441083, 0.084196, 0.057962, 0.252719, -0.401400, 0.048883, 0.103940, -0.095456, -0.127111, 0.612265, -0.104290, -0.193424, -0.037657, -0.118545, 0.099977, 0.388534, -0.185384, -0.187085, -1.054654, -0.104579, -0.099013, 0.498767, -0.257740, -0.156649, -0.420207, 0.148259, -0.075841, 0.636741, -0.520181, -0.128698, -0.476383, 0.028581, 0.078497, 0.201559, -0.478574, -0.078369, 0.430233, 0.256145, 0.106050, -0.076433, 0.138001, -0.027449, 0.157147, -0.074607, 0.029232, -0.138630, -0.101127, -0.089381, -0.065558, 0.044501, 0.044387, 0.440680, 0.223244, -0.075379, -0.216336, -0.207439, 0.109205, 0.363508, -0.007227, 0.253641, -0.135453, 0.006947, -0.155278, -0.076122, -0.153630, 0.166524, 0.152767, 0.250836, 0.162513, -0.187754, -0.154594, 0.432787, },
    {0.412742, -0.200716, -0.116278, 1.034082, -0.252465, -0.099663, -0.028617, -0.017741, -0.004922, -0.507790, -0.390062, 0.146859, 0.040144, -0.196629, -0.016807, -0.749931, -0.258616, 0.086025, 0.050465, 0.223112, 0.390977, -0.257871, -0.503683, 0.165209, 0.683629, 0.177893, 0.122141, -0.403876, 0.199323, 0.050197, 1.077053, 0.068397, 0.128572, -0.799854, -0.192608, 0.038326, 0.384864, 0.053183, -0.109399, 0.259224, -0.008599, 0.140829, 0.193036, 0.065614, -0.315971, 0.632290, 0.136168, -0.099527, 0.170667, 0.034250, -0.059905, -0.161318, -0.045585, -0.205126, 0.230872, 0.102040, 0.193650, 0.152994, 0.139435, 0.052317, -0.613013, -0.155537, -0.017345, -0.136527, 0.050956, 0.012637, 0.170232, 0.069695, -0.243513, -0.176697, -0.048268, -0.161538, },
    {0.313126, 0.228172, -0.047928, -0.002410, 0.188557, -0.196650, -0.073786, 0.133143, -0.138254, -0.051159, 0.033161, 0.122398, -0.220717, -0.009262, -0.285190, -0.207813, -0.048210, 0.161054, -0.291685, 0.051104, -0.040807, -0.080089, -0.263773, 0.000433, 0.166795, 0.393701, 0.447937, 0.499843, -0.380051, 0.333208, -0.935846, 0.272746, 0.178725, 0.390939, -0.189408, 0.172798, 0.283961, -0.019405, -0.024731, -0.069910, 0.014613, 0.014234, 0.187293, 0.061319, 0.010435, 0.577549, -0.028264, 0.021834, 0.160741, 0.024178, -0.122828, 0.224754, 0.212266, 0.029975, -0.189334, 0.083321, -0.080936, -0.095293, 0.101619, -0.161817, 0.214565, 0.048374, -0.144772, 0.150117, 0.102724, -0.049478, -0.421041, 0.134912, 0.206494, 0.340410, -0.028366, 0.091079, },
    {0.023425, -0.059652, -0.075264, -0.450280, 0.112054, 0.019063, -0.114128, 0.034558, 0.012748, -0.389119, -0.002620, 0.172322, -0.030427, -0.077827, 0.059965, 0.379379, -0.051997, -0.147319, -0.517215, -0.028317, 0.144280, 0.237660, -0.339177, 0.176748, 0.563071, -0.114658, 0.111570, 0.150841, 0.237197, 0.167099, 0.516014, -0.047815, 0.021627, 0.483741, -0.027991, 0.286968, -0.949669, -0.142783, -0.331760, 0.162566, -0.251933, -0.415562, -0.065584, -0.279675, 0.000539, 0.041567, -0.329995, 0.122926, -0.134663, -0.402219, -0.422010, 0.052094, -0.267371, 0.205502, -0.107421, -0.425467, -0.492609, -0.221439, -0.032810, -0.457960, -0.106955, -0.269535, -0.445567, -0.406142, -0.057144, -0.441166, -0.151371, -0.283150, -0.618691, 0.317397, -0.049602, -0.556138, },
    {-0.111915, 0.118279, -0.103830, -0.347599, 0.005858, 0.025973, -0.072501, -0.289377, 0.028594, 0.197353, -0.114714, 0.094664, -0.184085, 0.029062, 0.083419, 0.250836, 0.023039, 0.291817, -0.353333, 0.149255, 0.326511, 0.294110, -0.354241, 0.159494, 0.498494, -0.248367, -0.109755, 0.247196, 0.063721, -0.011833, -0.467765, -0.363494, -0.234168, -0.066513, 0.088801, -0.098470, -0.733727, -0.588338, -0.385824, 0.018255, -0.258936, -0.629372, 0.181565, -0.513104, -0.372216, 0.151441, -0.219293, -0.086845, 0.107788, -0.772073, -0.397701, -0.025177, -0.252723, 0.013970, -0.311419, -0.404203, -0.342716, -0.327150, -0.000872, -0.612496, -0.074014, -0.356362, -0.481860, 0.040107, -0.009298, -0.665994, 0.112640, -0.472300, -0.367784, 0.199954, 0.000881, -0.584714, },
    {0.002361, 0.097586, 0.093900, -0.125877, -0.267249, -0.090470, 0.234524, -0.092335, 0.079258, 0.614814, 0.385922, -0.152974, 0.241334, -0.029630, 0.068132, 0.452211, 0.170436, -0.307034, -0.606322, -0.167473, -0.193145, 0.197681, 0.147605, -0.096741, 0.238061, -0.292060, -0.290344, 0.431382, 0.174379, -0.380034, -0.255440, -0.146426, -0.267117, 0.016185, 0.034000, -0.106998, 0.352213, -0.004184, 0.075545, -0.140241, -0.018492, -0.045094, -0.006732, -0.231558, 0.152979, -0.035749, 0.011950, -0.113935, 0.070668, 0.032948, 0.025571, 0.523049, 0.238410, 0.013225, -0.116429, -0.177362, -0.213380, 0.364497, 0.018996, 0.052198, -0.234544, -0.232139, -0.191447, 0.369560, -0.199478, -0.018619, 0.055614, -0.264820, -0.120285, 0.229126, -0.028308, -0.104908, },
    {-0.335456, -0.012277, -0.149843, -0.069611, 0.215743, 0.151861, 0.006695, 0.167404, -0.079125, -0.376216, 0.129870, 0.116968, 0.037029, 0.044325, 0.055549, -0.248705, 0.307259, -0.043467, 0.775239, 0.033969, -0.170720, 0.207902, -0.163973, 0.177589, -0.999657, 0.281943, 0.213150, 0.014981, -0.509712, 0.062238, -0.652160, -0.120600, -0.179014, 0.068162, 0.043824, -0.068963, 0.402109, 0.289013, 0.118457, -0.241889, -0.063275, 0.221539, -0.097402, 0.097661, 0.111298, 0.031142, 0.006340, 0.131643, -0.069579, 0.108154, 0.088216, 0.475208, 0.001051, -0.057334, -0.251310, 0.183265, 0.076100, 0.115288, -0.191609, 0.264369, 0.589399, 0.188663, 0.297301, 0.529808, -0.167914, 0.246285, -0.333811, 0.166827, -0.037361, -0.051952, -0.017344, 0.289726, },
    {0.086739, -0.149709, 0.060775, 0.460223, -0.242206, -0.005962, 0.018785, -0.125268, 0.143629, -0.364981, -0.049615, -0.041935, -0.091075, 0.215988, -0.025834, -0.652458, -0.442372, 0.183361, 0.705649, -0.161436, -0.144258, -1.011629, -0.157527, -0.156678, -0.472971, -0.261057, -0.431998, -0.491401, -0.231641, -0.215397, 0.930352, -0.200656, -0.003445, -0.875239, -0.040289, -0.221561, 1.056576, -0.327771, -0.003798, -0.027101, 0.104686, 0.188292, 0.057968, -0.111768, -0.326002, -0.157997, 0.086374, -0.038389, 0.061559, 0.431566, 0.069032, 0.363499, -0.344065, -0.047316, 0.145637, 0.325315, 0.050478, 0.034197, -0.383815, 0.106480, -0.262541, -0.077844, 0.058446, 0.424642, 0.070865, -0.021214, -0.361821, 0.065876, 0.275680, -0.116087, -0.178903, 0.063600, },
    {0.324447, -0.023074, -0.186674, 0.314566, 0.346381, -0.169051, -0.191790, -0.004010, -0.180451, -0.348691, 0.263320, 0.071797, -0.140192, -0.214309, -0.092323, -0.249973, 0.216479, 0.050333, 0.066172, 0.010806, 0.028027, -0.136255, -0.256274, 0.044291, 0.272513, 0.253864, 0.503855, 0.329462, -0.210771, 0.279220, -0.318966, 0.024935, -0.158464, -0.012969, 0.253926, -0.003410, -0.161528, -0.139331, 0.026571, 0.152602, 0.269457, 0.119280, 0.027984, 0.196147, 0.065713, -0.218656, 0.113103, 0.081399, -0.056936, -0.002030, 0.061967, -0.046915, -0.164956, 0.024459, -0.011378, 0.251118, -0.005780, -0.017021, 0.202559, 0.018235, 0.322435, 0.192409, -0.024880, 0.236309, 0.189930, -0.062621, -0.392346, 0.316256, 0.319636, 0.433624, 0.215214, 0.100242, },
    {-0.096072, 0.027499, 0.048679, 0.446809, 0.267379, 0.057738, 0.159807, 0.078281, -0.001919, -0.588513, -0.240455, -0.059733, -0.116326, -0.050002, -0.181223, -0.303444, 0.383810, -0.002647, -0.651374, -0.439012, -0.530368, -0.612621, 0.507314, -0.440173, -0.824653, 0.189510, 0.100791, 0.299598, -0.099580, 0.109880, -0.403594, -0.061206, -0.101532, 0.388476, 0.237477, -0.228804, -0.291382, -0.391424, -0.573141, -0.312273, -0.222625, -0.410360, -0.003907, -0.593303, -0.506408, -0.322953, 0.056382, -0.004478, 0.063794, -0.592882, -0.507133, -0.182104, 0.027602, -0.090994, -0.261735, -0.545470, -0.558966, -0.291648, -0.049558, -0.630895, -0.034604, -0.530332, -0.328852, -0.163460, -0.044719, -0.599549, 0.082712, -0.467413, -0.543568, -0.021263, -0.045797, -0.790551, },
    {0.015804, -0.051705, -0.018822, 0.069518, 0.020347, -0.083808, -0.045641, -0.117235, -0.113480, 0.023480, 0.036145, -0.034794, 0.063844, 0.065303, -0.046652, -0.083016, 0.104889, -0.053921, -0.045768, 0.044654, -0.069292, -0.078768, -0.039781, -0.130770, -0.075395, -0.115367, 0.017310, -0.091142, 0.004090, 0.040705, -0.041835, -0.094781, -0.130551, 0.059131, 0.064971, -0.023557, -0.111401, -0.014257, -0.059716, -0.085101, -0.092857, 0.024193, 0.083656, 0.031615, -0.063367, 0.047458, 0.032356, -0.061529, 0.036531, 0.091174, 0.092967, 0.075673, 0.047657, -0.045118, 0.115793, -0.116444, -0.069347, -0.008682, 0.071165, -0.072505, 0.039056, -0.130046, -0.048565, 0.059293, -0.083545, 0.025609, 0.081134, -0.028553, -0.045605, -0.012386, -0.117295, -0.028414, },
    {-0.345269, 0.202564, 0.098671, -0.694458, -0.668602, -0.163781, 0.000831, -0.229135, 0.045501, 0.954604, 0.468822, -0.104982, 0.122282, -0.046827, 0.061397, 0.581338, -0.440583, -0.196215, -1.080987, -0.140642, -0.030891, 0.546668, -0.039247, -0.271745, -0.285387, -0.273386, -0.163312, 0.614185, -0.091687, -0.212635, -0.461344, -0.065690, -0.077445, 0.550613, 0.210566, -0.151120, 0.311226, 0.035424, -0.078128, -0.076384, 0.030910, -0.160235, -0.040630, -0.090263, 0.062267, -0.331368, -0.178512, -0.113124, 0.062917, 0.012601, 0.025102, 0.554932, 0.044774, -0.056906, -0.070060, 0.062725, 0.243493, 0.124458, 0.114995, 0.126427, 0.072148, -0.202385, -0.163873, 0.175773, -0.140856, -0.118584, -0.092185, -0.035688, 0.105450, -0.123012, -0.230480, 0.299823, },
    {0.254816, -0.148518, 0.041907, -0.335316, 0.036997, -0.148337, 0.008026, -0.119054, 0.009368, -0.076649, 0.239522, -0.001408, 0.057433, -0.121343, 0.121452, 0.004086, 0.246752, -0.203807, -0.052244, -0.347267, -0.009624, -0.404362, 0.017948, -0.177913, 0.536086, -0.468705, -0.350480, -0.042937, -0.025659, -0.246933, 0.065877, -0.424607, -0.488002, -0.367016, 0.282380, -0.426382, 0.857718, -0.053525, 0.101563, -0.038772, 0.128318, 0.119356, -0.108032, -0.120170, 0.091003, 0.121869, -0.072638, 0.005920, -0.010005, 0.371144, 0.143392, 0.511923, -0.077987, -0.041933, -0.298384, -0.049110, -0.453909, 0.109745, -0.244809, -0.240040, -0.235304, -0.336431, -0.048220, 0.647379, -0.020345, 0.156805, -0.004820, -0.394100, -0.535565, 0.113440, -0.074607, -0.124983, },
    {-0.173060, 0.025116, -0.208781, -0.326368, -0.171371, -0.035682, -0.217423, -0.317143, 0.025285, 0.389114, -0.017874, 0.084039, -0.172545, 0.143385, 0.080391, -0.026412, 0.041867, 0.268682, -0.097919, 0.066768, 0.306295, -0.049550, -0.277300, 0.148241, 0.168945, -0.203449, -0.220016, 0.390420, 0.005078, -0.103369, -0.553275, -0.409227, -0.299007, -0.280072, 0.330728, -0.280326, -0.137185, -0.412777, 0.152159, 0.108310, -0.181600, -0.172577, 0.117402, -0.483654, 0.025616, 0.100642, -0.158249, 0.041759, 0.171482, -0.291979, -0.002813, 0.111681, -0.214534, -0.124399, -0.379145, -0.391061, -0.404619, -0.230438, 0.097398, -0.431407, 0.088796, -0.388928, -0.313684, 0.175933, 0.022466, -0.396331, 0.042976, -0.447133, 0.031957, 0.134998, 0.078296, -0.135639, },
    {-0.383780, -0.162008, 0.075090, 1.038926, -0.144711, -0.140941, -0.176215, -0.014150, -0.028141, 0.666373, -0.365237, -0.000054, 0.029291, -0.226410, 0.048279, -0.138070, -0.102572, 0.069046, -0.548126, 0.095355, -0.087464, 0.268117, -0.415289, -0.044959, 0.083473, 0.304205, 0.148324, -0.191473, -0.289921, 0.035439, 0.324318, 0.180913, 0.119263, -0.275850, -0.511608, 0.086718, -0.399955, 0.249881, -0.057920, 0.253130, 0.154444, -0.133348, 0.232320, -0.308427, -0.170097, -0.060390, -0.066359, -0.077816, 0.131225, -0.371834, -0.111871, 0.073587, 0.273779, -0.157726, -0.171135, -0.178213, 0.020493, 0.221789, 0.291829, 0.012500, -0.391297, -0.116339, -0.058148, -0.645257, 0.027600, -0.122375, 0.323550, 0.028320, 0.204733, 0.086276, 0.026878, 0.465780, },
    {0.355850, -0.180385, -0.009269, 0.196414, 0.265744, -0.132820, -0.066472, 0.097005, 0.051207, 0.551125, 0.078897, -0.147573, 0.166157, 0.068535, -0.039829, 0.373166, 0.147929, -0.186412, 0.032530, 0.199724, 0.172452, 0.084165, -0.119936, -0.014588, 0.143158, 0.170097, 0.115887, -0.183703, -0.015185, 0.028829, 0.625150, 0.207520, 0.200742, 0.487616, -0.130198, 0.235836, -0.108221, 0.058750, -0.137869, 0.251399, 0.166848, 0.168029, -0.071255, 0.296663, 0.150647, 0.362439, -0.060222, 0.184329, -0.165788, 0.064973, -0.363240, -0.237335, 0.321693, -0.008554, 0.359952, -0.025922, -0.231128, 0.284306, 0.052179, -0.019942, -0.332245, 0.088982, -0.204413, -0.685159, -0.061870, 0.187404, 0.331787, 0.402397, 0.547868, -0.091118, -0.029085, 0.452117, },
    {0.146416, -0.051333, 0.007102, -0.089922, 0.014384, -0.107703, 0.029737, -0.139793, -0.148094, 0.106511, 0.043810, -0.122240, -0.053413, -0.099053, -0.116377, 0.025443, -0.032184, -0.087681, -0.095525, 0.053892, -0.133958, 0.073735, 0.027790, -0.073883, -0.073343, -0.106453, -0.095612, -0.020967, -0.034545, 0.041965, 0.008045, -0.042812, -0.125898, 0.049582, -0.047554, -0.158653, -0.022665, -0.063573, -0.098720, 0.025230, -0.068230, 0.005925, -0.049125, 0.000915, 0.037231, 0.054337, -0.115494, -0.000305, 0.017193, -0.102600, -0.006798, 0.002423, -0.144764, -0.083670, 0.082611, -0.109991, -0.005571, 0.063949, 0.052659, -0.013199, -0.044454, -0.096371, 0.016496, 0.011053, 0.003083, -0.126462, 0.089909, -0.133801, 0.016565, 0.031084, -0.097514, -0.101385, },
    {-0.176161, -0.061443, -0.137321, 0.128860, -0.254069, -0.145768, 0.189032, 0.147424, -0.031945, 0.346150, -0.451158, -0.199579, -0.090809, 0.092977, -0.028331, -0.756838, -0.429316, 0.235105, 0.727263, 0.011759, -0.106082, -0.748915, -0.501226, -0.005171, -0.878916, -0.107057, -0.302266, -0.358098, -0.613169, -0.084433, 0.464096, 0.180859, -0.049543, -0.426704, -0.495012, -0.178166, 0.892470, 0.235703, 0.011941, 0.153438, 0.139067, 0.049020, 0.078770, 0.111806, -0.269426, -0.052723, 0.154766, -0.145989, 0.037548, 0.020971, 0.025617, 0.001630, -0.107664, -0.140205, -0.319690, -0.076577, -0.053635, 0.244594, -0.073159, 0.097653, 0.200343, 0.377360, 0.078402, -0.007391, -0.204520, 0.128910, -0.117363, 0.250672, 0.195760, -0.146731, -0.125409, 0.323392, },
    {0.097084, -0.329360, 0.017900, -0.477730, -0.035723, 0.083215, 0.137157, 0.134465, 0.094723, 0.331798, 0.056431, -0.228773, 0.298992, 0.194390, -0.007777, 0.418378, -0.116815, -0.427920, 0.193840, 0.047527, 0.078837, -0.333603, 0.050931, -0.000879, 0.509928, -0.357327, -0.042833, -0.420687, 0.496161, 0.038917, 0.460085, -0.046569, -0.016731, 0.801374, -0.101944, 0.133691, -0.660353, -0.038077, -0.100757, -0.009638, -0.070587, 0.060739, -0.115356, 0.270263, 0.350048, 0.022645, 0.097057, 0.167337, -0.149670, -0.085449, -0.241984, -0.845671, 0.240111, 0.030162, 0.251015, 0.002372, -0.036257, 0.228230, 0.061830, -0.331940, -0.167316, -0.172491, -0.098259, -0.046634, 0.047720, -0.155906, 0.487511, -0.288679, -0.455599, 0.134923, 0.023815, -0.651510, },
    {0.254052, -0.286855, -0.017478, -0.140089, 0.000029, -0.062886, -0.000986, 0.017347, 0.007708, -0.206601, 0.108600, 0.006560, 0.114492, 0.142812, -0.058391, -0.450526, -0.142161, -0.118484, 0.076077, 0.059811, 0.063635, -0.548692, 0.130295, -0.072425, 0.247148, -0.056989, 0.139711, -0.065783, 0.040781, 0.044989, 0.296120, 0.113433, 0.158642, 0.250793, -0.264609, 0.181251, -0.289158, -0.279060, -0.222667, -0.081554, -0.109175, -0.239180, -0.185472, -0.083449, -0.077451, 0.264972, -0.162368, 0.046383, 0.039207, -0.409828, -0.265246, -0.243689, -0.010969, 0.128219, -0.137675, -0.327311, -0.597701, -0.234744, 0.074744, -0.416645, 0.077347, -0.170357, -0.415110, -0.352159, 0.115060, -0.452595, -0.074458, -0.113429, -0.441868, 0.135747, 0.079391, -0.649492, },
    {-0.276887, 0.239804, 0.039203, 0.482117, -0.300663, 0.243180, 0.064633, 0.152795, 0.011947, -0.591516, -0.371955, 0.052731, -0.204942, 0.100674, -0.225743, -0.157043, 0.128972, 0.113362, -0.081116, -0.272501, -0.370417, -0.359492, 0.106590, -0.240362, -0.773715, 0.166552, 0.170954, 0.344293, 0.009526, 0.317198, -0.913865, 0.152980, 0.008553, 0.034448, 0.356465, 0.024129, -0.358575, 0.008400, -0.015013, -0.207866, -0.212064, -0.071532, 0.081530, -0.497584, -0.379849, -0.217621, 0.168358, -0.015450, 0.148979, -0.156519, -0.334317, -0.157487, 0.017859, 0.069923, -0.272040, -0.212771, -0.578421, -0.332829, -0.001616, -0.529283, 0.651209, -0.372862, -0.192212, 0.021613, -0.035081, -0.292035, 0.022363, -0.264681, -0.302729, 0.155443, 0.085817, -0.455250, },
    {-0.123574, -0.027086, 0.074236, 0.231946, 0.152305, 0.102176, 0.077445, 0.082934, 0.025735, -0.439495, -0.402862, 0.066818, -0.216188, 0.214945, -0.151227, -0.712876, 0.193707, 0.151131, -0.237809, -0.259096, -0.456861, -0.893276, 0.402941, -0.342126, -0.670292, 0.279928, 0.136415, -0.002052, -0.063110, 0.191513, -0.240353, 0.169514, -0.132134, 0.130505, 0.282407, 0.043936, -0.341750, -0.362060, -0.531779, -0.146991, -0.047031, -0.277574, 0.127682, -0.397366, -0.401691, -0.520289, 0.085736, -0.085355, 0.162355, -0.624076, -0.405958, -0.323988, -0.047020, -0.030266, -0.136629, -0.409191, -0.593425, -0.308102, 0.066558, -0.596497, -0.237266, -0.567449, -0.403701, -0.175778, 0.015764, -0.616576, 0.262341, -0.369543, -0.652931, -0.199877, -0.063360, -0.639273, },
    {0.330468, -0.028295, 0.066727, 0.332078, -0.105180, -0.148309, 0.025084, -0.079602, -0.264045, -0.345999, -0.182042, 0.145250, 0.051391, -0.366963, 0.109416, -0.330683, 0.143451, -0.087125, -0.383447, 0.221252, -0.083769, 0.068467, 0.061856, 0.092152, 0.222081, 0.344390, 0.158277, -0.146794, -0.193704, 0.259816, 0.317227, 0.241833, 0.319777, -0.252443, -0.346395, 0.096534, -0.590250, 0.409481, -0.007861, 0.186100, -0.051020, 0.142131, 0.221553, 0.025260, -0.039664, -0.009951, -0.026597, -0.301418, 0.176519, -0.201187, 0.028175, -0.283874, 0.235894, 0.002685, -0.272210, 0.193968, 0.615308, 0.356082, -0.079727, 0.493070, -0.229866, 0.051258, 0.132442, -0.750922, 0.149199, 0.174816, 0.210644, 0.096228, -0.008995, -0.243101, 0.085044, 0.194412, },
    {0.504277, -0.096825, -0.098602, 0.986001, -0.549241, -0.101217, -0.007158, -0.089515, 0.000659, -0.617043, -0.223070, 0.248745, -0.115393, -0.100361, 0.033658, -0.842336, -0.368813, 0.371883, 0.110930, 0.106109, 0.391976, -0.535031, -0.169222, 0.035778, 0.596468, 0.094686, 0.158765, -0.513686, 0.026726, -0.016166, 1.170083, 0.113305, 0.205624, -1.187064, 0.087798, 0.014567, 0.691158, -0.175925, -0.070316, 0.252187, 0.140794, 0.051760, 0.053994, -0.217941, -0.182872, 0.459176, 0.047319, -0.125691, 0.089236, 0.118590, -0.007284, 0.060873, -0.085312, 0.003366, 0.284460, 0.171474, -0.009864, -0.055933, -0.507243, -0.096127, -0.871783, -0.120166, -0.032665, -0.300490, 0.142201, -0.196151, 0.003551, 0.025556, 0.046338, 0.091927, -0.003618, 0.064820, },
    {-0.219670, -0.115249, -0.040166, -0.041111, 0.100874, 0.072192, 0.170859, -0.020491, -0.171662, -0.240818, -0.025301, -0.168755, -0.020161, 0.106510, 0.042627, 0.036754, -0.185662, -0.070110, 0.195716, -0.026258, -0.123928, 0.139155, -0.071803, -0.046135, -0.447332, -0.107714, -0.155323, -0.174814, -0.182863, -0.199508, 0.073961, -0.099450, -0.306052, 0.223497, 0.027119, -0.251538, 0.328313, 0.173147, 0.074163, -0.015952, -0.079886, 0.218219, -0.052834, 0.141576, 0.084568, 0.083549, 0.103831, 0.080491, -0.093458, 0.147469, -0.009793, 0.104789, 0.113419, 0.073407, -0.043372, 0.203178, 0.178452, -0.031276, -0.210021, 0.048041, 0.249234, 0.135876, 0.087079, 0.222276, -0.099776, 0.092935, -0.079809, 0.119967, -0.317081, -0.107289, -0.055399, -0.054694, },
    {0.069732, -0.021108, -0.002229, 0.112674, -0.196199, -0.081160, -0.136839, 0.074136, 0.091210, 0.264314, -0.393535, 0.074376, -0.154168, 0.012370, 0.012364, -0.952334, -0.157030, 0.351773, -0.370061, -0.046438, -0.175505, -0.857348, -0.295624, -0.110696, -0.008018, -0.122294, -0.262927, 0.012427, -0.287054, -0.020001, -0.111044, 0.090135, -0.036014, -0.467655, 0.167051, -0.119588, 0.176330, -0.444413, -0.275195, -0.248125, -0.211403, -0.195436, 0.025247, -0.465253, -0.624344, -0.088731, 0.156006, -0.156071, 0.058163, -0.567828, -0.278685, -0.217574, -0.535202, -0.175956, 0.034837, -0.040979, -0.338183, -0.108037, 0.094515, -0.531475, -0.205687, -0.251619, -0.076421, 0.139654, -0.054133, -0.230468, 0.174987, -0.159481, -0.150326, -0.054060, 0.074919, -0.425650, },
    {-0.095169, 0.115302, 0.099787, 0.056375, 0.137949, -0.005329, -0.117143, 0.088104, -0.061945, 0.931207, -0.309152, -0.197127, 0.088514, -0.078598, -0.066521, 0.028923, 0.356315, 0.004923, -0.821591, -0.479697, -0.492716, -0.215253, -0.115078, -0.351044, -0.065146, -0.342950, -0.278932, 0.484473, 0.072990, -0.211767, -0.198826, 0.088234, 0.251416, 0.126013, -0.391577, -0.127681, -0.779918, -0.062419, 0.092075, 0.155539, -0.057295, -0.026869, 0.100299, 0.067690, 0.391882, -0.455274, -0.303057, 0.108122, -0.022250, 0.067939, 0.014368, -0.275566, -0.184324, -0.085118, 0.439267, 0.053050, 0.233595, 0.052091, -0.048737, 0.079189, 0.065198, -0.200309, 0.088512, -0.539130, 0.044067, 0.108751, 0.600940, 0.070584, 0.678435, -0.026606, 0.012475, 0.474868, },
    {-0.034706, -0.101770, -0.136571, 0.059201, -0.103857, -0.122635, 0.110446, -0.080558, 0.054589, -0.117594, -0.043977, -0.137586, 0.146715, 0.083185, -0.024721, -0.081407, 0.069107, 0.028462, -0.081166, -0.066426, 0.072633, 0.052420, -0.047894, -0.128977, 0.014561, -0.046597, 0.059163, -0.149548, 0.053756, -0.072500, 0.078543, -0.116477, 0.010320, 0.134240, -0.115498, 0.008676, 0.007027, 0.023080, 0.006055, 0.022270, -0.094913, -0.072585, 0.149988, -0.042265, 0.024460, 0.080584, -0.116265, -0.050184, 0.088107, -0.062140, 0.038065, 0.013491, 0.000105, -0.135926, -0.098303, 0.053226, 0.053989, -0.124927, -0.139698, -0.055122, -0.128242, 0.002794, 0.072745, 0.086534, -0.131041, 0.038631, -0.074648, 0.084689, -0.052247, -0.114022, -0.046224, -0.061838, },
    {0.283625, -0.256599, -0.103736, 0.547903, 0.046154, -0.133305, -0.018465, 0.029415, -0.068675, -0.210426, 0.020166, 0.063295, 0.195910, -0.141369, 0.119118, -0.536426, 0.027447, -0.202825, -0.071836, -0.214005, -0.011356, -0.067500, 0.067468, 0.038076, 0.960619, -0.035205, 0.044485, -0.813860, 0.151864, -0.078569, 0.719812, -0.046711, -0.047792, -0.106312, -0.268989, -0.063571, -0.089674, 0.135966, -0.087663, 0.206767, -0.030417, 0.078650, -0.001122, 0.264448, 0.268165, 0.032318, 0.192248, 0.048323, 0.068067, 0.314406, 0.119400, -0.457813, 0.314679, -0.113942, -0.058233, 0.069443, 0.225889, 0.516755, -0.052017, 0.241009, -0.183613, 0.060831, 0.161158, -0.010607, -0.121187, 0.036679, 0.214388, -0.100213, -0.666244, -0.203751, -0.110968, -0.430587, },
    {-0.137272, 0.154910, -0.039398, 0.063391, -0.355319, 0.102905, 0.052487, -0.126176, -0.054111, -0.001458, -0.453368, 0.060286, 0.027092, 0.101733, 0.037400, -0.368144, -0.437534, 0.047817, 0.978859, 0.273984, -0.119377, 0.407351, -0.433361, 0.242554, -0.670260, 0.292296, -0.014663, -0.163592, -0.418382, 0.237204, 0.082024, 0.220634, 0.012772, -0.029879, -0.657384, 0.112481, 0.323016, 0.500650, -0.016259, 0.200017, -0.045356, 0.216634, 0.252248, 0.079485, -0.345255, 0.286664, 0.150927, -0.116178, 0.078579, 0.170467, 0.024234, 0.391609, 0.186564, -0.053684, -0.012141, 0.248404, 0.437056, 0.421448, 0.017300, 0.350411, 0.159402, 0.377677, 0.246579, 0.117253, 0.065462, 0.305078, 0.086391, 0.309523, 0.003138, -0.353695, 0.067955, 0.339079, },
    {0.233226, 0.155370, -0.200533, 0.252097, 0.203923, -0.045613, -0.048699, -0.000705, -0.158482, -0.113265, -0.195904, 0.197504, -0.244630, -0.102917, -0.285621, -0.256943, 0.027496, 0.081533, -0.323447, 0.003776, 0.086543, -0.266861, -0.260592, 0.131121, 0.284988, 0.436373, 0.242959, 0.534543, -0.418818, 0.172190, -0.450961, 0.145695, 0.088997, 0.152653, -0.166860, 0.159171, 0.362724, 0.077916, -0.018633, -0.016316, 0.101338, -0.042122, -0.040205, 0.249679, 0.034958, 0.142923, 0.022469, -0.027097, 0.099419, 0.000230, -0.054903, 0.030461, 0.057337, 0.075860, -0.007824, 0.142134, -0.097851, -0.017626, -0.017466, 0.030466, 0.428383, 0.321464, -0.054007, 0.083682, -0.075151, 0.034484, -0.281293, 0.408364, 0.355234, 0.653173, -0.039269, 0.166624, },
    {0.272724, -0.115207, 0.023714, 0.058639, -0.160881, -0.059648, 0.056450, -0.232072, 0.089940, -0.437752, 0.333903, 0.094317, 0.086520, -0.000175, 0.038949, -0.144123, -0.077164, 0.123915, 0.177665, -0.140732, -0.090060, -0.701323, 0.203518, -0.042879, 0.741929, -0.393283, -0.616094, -0.579808, 0.192281, -0.339704, 0.824951, -0.359715, -0.166833, -0.540935, 0.235496, -0.156011, 1.051187, -0.151705, 0.083759, 0.069469, 0.086059, 0.154527, -0.044443, 0.012495, -0.045191, 0.160215, 0.151235, -0.043082, 0.100337, 0.663529, 0.206059, 0.326126, -0.211876, -0.107078, 0.293442, 0.228448, 0.125833, 0.239238, -0.332297, 0.162411, -0.585252, -0.191402, 0.148024, 0.764572, 0.026146, 0.238713, 0.102232, -0.253521, -0.061840, -0.103628, -0.154295, 0.072716, },
    {-0.000574, -0.130903, 0.007856, -0.227832, 0.276929, 0.000906, -0.093712, -0.007212, 0.028372, 0.607545, 0.235487, -0.145883, 0.277072, 0.131645, 0.009017, 0.466209, 0.053801, -0.376065, -0.358885, 0.243453, 0.280234, 0.547694, -0.018119, 0.312998, 0.463990, 0.180916, 0.206481, -0.045625, 0.172134, 0.133109, 0.278839, 0.056862, -0.062510, 0.679064, 0.005937, 0.105985, -0.615752, -0.021131, -0.164145, 0.145409, 0.032621, -0.243649, -0.056546, 0.125064, 0.146366, 0.080198, 0.031184, 0.052677, -0.175541, -0.340975, -0.398456, -0.210926, 0.246962, 0.153846, 0.044590, -0.458421, -0.754014, 0.206140, -0.030331, -0.482990, 0.071649, -0.134431, -0.482112, -0.408023, -0.101111, -0.423725, 0.491218, -0.349017, -0.693964, 0.123997, 0.040384, -0.445752, },
    {0.075921, -0.091924, -0.187135, 0.029015, 0.427294, 0.009686, -0.165363, 0.058131, -0.163770, -0.296732, -0.009423, 0.079431, -0.072963, -0.092222, -0.206070, 0.226631, -0.023956, 0.000518, -0.342533, 0.095734, 0.342381, 0.111004, -0.424994, 0.061613, 0.473749, 0.042363, 0.401596, 0.452364, -0.223904, 0.316801, 0.024484, 0.048632, 0.035003, 0.167603, -0.241672, 0.172921, 0.325022, 0.033525, -0.037346, -0.075120, 0.087496, -0.102111, 0.071022, 0.288864, 0.252946, 0.193240, -0.146021, -0.051628, 0.001305, 0.150048, 0.071633, 0.010426, -0.173291, -0.075308, -0.243933, 0.023396, -0.180388, 0.043766, -0.131823, -0.165739, 0.371042, 0.247630, -0.300807, -0.302819, 0.112368, -0.079784, -0.572668, 0.405754, 0.309288, 0.222666, -0.072890, 0.181376, },
    {0.017530, -0.247204, 0.017982, -0.736257, 0.083501, 0.006527, -0.008987, 0.115351, 0.076632, 0.573285, 0.070256, -0.102979, 0.300667, 0.051228, 0.041866, 0.294747, -0.057770, -0.417537, 0.545645, -0.116625, -0.024601, -0.127782, 0.142003, -0.019958, 0.560769, -0.436147, -0.228472, -0.596510, 0.400006, -0.263302, 0.161833, -0.139698, -0.227552, 0.892053, 0.126926, 0.034693, 0.102092, 0.045164, -0.072988, -0.034758, 0.022987, -0.047580, -0.121270, 0.248381, 0.287549, 0.491141, 0.034016, 0.206708, -0.186017, 0.218601, -0.168333, -0.242712, 0.131687, 0.086840, -0.219512, -0.148155, -0.450842, -0.138533, 0.042978, -0.228511, -0.080016, -0.277691, -0.329771, 0.121033, -0.121104, -0.147123, 0.028947, -0.895840, -1.102844, 0.053155, 0.055081, -0.806732, },
    {0.093500, 0.002275, -0.075491, 0.117716, -0.017037, -0.029668, 0.043261, 0.038685, -0.058916, -0.059506, 0.064088, -0.115767, -0.071457, 0.081446, -0.069730, 0.028200, -0.030618, -0.141776, -0.141975, -0.130679, -0.049684, -0.085205, -0.140234, -0.087348, -0.036749, -0.073580, 0.021834, -0.049932, 0.117389, -0.143257, -0.006548, -0.018625, -0.112105, 0.086763, -0.129180, -0.121306, -0.090627, 0.004053, -0.049687, 0.076841, 0.089478, -0.105041, -0.075175, 0.025363, -0.084778, 0.065967, 0.029320, 0.025007, 0.037824, -0.024423, -0.061922, 0.029169, -0.044183, -0.108827, 0.021080, -0.141440, -0.090829, -0.085592, -0.129681, 0.087599, 0.088388, 0.021099, -0.079897, 0.062884, -0.128158, 0.007579, 0.109429, 0.088554, -0.020771, 0.087872, -0.090467, 0.039842, },
    {0.136020, 0.049511, 0.040728, -0.063434, -0.047519, 0.016367, 0.051332, -0.139470, -0.082773, -0.060597, -0.026966, 0.035057, 0.159292, -0.111421, -0.082799, 0.052009, 0.080639, -0.048238, -0.134070, -0.172180, 0.082951, 0.136787, 0.071458, -0.018947, 0.130445, -0.040607, -0.072672, 0.068290, 0.123049, -0.120827, -0.013190, 0.058075, -0.146231, -0.167168, -0.150414, -0.038403, 0.094814, -0.030853, -0.055754, -0.072587, -0.137458, -0.007136, 0.032775, 0.058885, -0.023175, -0.121923, 0.127668, -0.005178, 0.125737, 0.025669, -0.077563, 0.136955, 0.091712, -0.054275, 0.043288, 0.061243, -0.089731, 0.063341, -0.066494, -0.102132, -0.126025, -0.000363, 0.065844, -0.058583, 0.018235, -0.095821, 0.089070, -0.104137, -0.070397, 0.054112, 0.068289, -0.103219, },
    {0.310600, -0.110672, -0.291115, 0.166338, 0.033188, -0.219785, -0.219469, 0.132353, -0.088093, -0.082530, 0.043783, 0.104210, -0.044717, -0.047027, -0.257874, -0.175008, 0.108392, 0.081011, -0.089256, 0.088368, 0.056387, 0.097259, -0.210465, 0.080298, 0.329537, 0.109286, 0.117278, 0.712898, -0.194311, 0.252522, -0.390919, -0.046339, -0.113344, 0.299854, -0.213329, -0.058585, -0.029111, -0.071825, 0.095469, -0.000259, 0.064055, 0.135661, 0.035408, 0.316257, 0.231012, -0.104367, -0.041069, -0.088500, 0.115746, -0.000664, 0.106387, -0.195449, -0.009464, -0.002373, -0.100957, 0.085190, 0.025021, -0.217050, -0.049842, 0.007303, 0.142850, 0.390689, -0.043128, -0.345949, -0.134628, 0.210521, -0.489295, 0.284559, 0.429423, 0.877620, -0.064255, 0.188915, },
    {0.249973, -0.050018, -0.143130, -0.086667, -0.198154, 0.000355, 0.027932, -0.152669, -0.134170, -0.397018, -0.172807, 0.141840, 0.095902, -0.180966, 0.168530, -0.145838, -0.165242, 0.016719, -0.189587, 0.143166, 0.351725, -0.174262, 0.058071, 0.160621, 0.789984, -0.130494, 0.134711, -0.121775, 0.002760, 0.096344, 0.324314, -0.141576, -0.222891, -0.103804, -0.066537, -0.075733, -0.205831, -0.224845, -0.090321, -0.037441, 0.087602, -0.110558, -0.148754, -0.000656, 0.147867, 0.133805, -0.018293, 0.028196, 0.039263, 0.094253, 0.196110, -0.278987, 0.056925, -0.149236, 0.186569, 0.064644, 0.161279, -0.196627, 0.042505, -0.070486, -0.520540, -0.351720, -0.147781, -0.119134, 0.029914, -0.180673, 0.079811, -0.242422, -0.593931, -0.058842, -0.019649, -0.357266, },
    {0.195868, -0.066418, 0.023255, -0.387219, -0.075470, 0.019933, 0.012381, -0.178462, -0.025426, -0.133931, 0.163794, 0.114657, -0.101923, -0.053953, 0.097166, -0.030218, 0.054381, 0.078424, -0.363235, -0.342738, 0.072776, -0.491020, 0.344712, -0.185511, 0.399113, -0.216632, -0.208075, 0.010312, 0.038378, -0.298259, 0.042146, -0.592528, -0.477485, -0.552021, 0.492580, -0.331331, 0.971765, -0.318016, 0.000248, 0.031441, 0.161681, -0.013910, -0.241847, -0.129939, -0.027948, 0.058625, -0.044330, 0.026930, 0.034096, 0.423318, 0.252613, 0.609172, -0.219374, -0.098219, -0.162750, -0.123181, -0.303467, -0.061392, -0.257446, -0.162689, -0.489045, -0.519001, -0.147161, 0.834700, -0.003992, -0.002218, 0.197781, -0.449608, -0.337539, -0.428393, 0.184902, -0.199987, },
    {0.067605, -0.039730, -0.076307, 0.382444, -0.303896, -0.255209, -0.013343, -0.175238, -0.022252, 0.294502, -0.166418, -0.060963, -0.033315, -0.060548, -0.017800, -0.589918, -0.647566, 0.284195, 0.553679, 0.141998, 0.230842, -0.354038, -0.248967, -0.035538, -0.167111, 0.016789, -0.215421, -0.252655, -0.181413, -0.226379, 0.529414, 0.033743, 0.094487, -0.809487, -0.258246, -0.137844, 0.464733, 0.377595, -0.028880, 0.254235, -0.007638, 0.169138, 0.121431, 0.099188, -0.389187, 0.497625, -0.059891, -0.114732, 0.071984, 0.114820, 0.090590, 0.290738, -0.069633, -0.203697, 0.107351, 0.214378, 0.358107, 0.078393, -0.073986, 0.186098, -0.267816, -0.060798, 0.323357, -0.077979, -0.063874, 0.202707, 0.417991, 0.019954, 0.146769, -0.461979, -0.248380, 0.192581, },
    {-0.136313, 0.347941, 0.040921, -0.205042, -0.242834, 0.130098, 0.270074, 0.123251, -0.015762, 0.204614, -0.212911, -0.230751, -0.079009, 0.063937, -0.130241, 0.561485, -0.102869, -0.153635, 0.450006, 0.253815, -0.183052, 0.071652, -0.085051, -0.040412, -0.498427, 0.035458, 0.023520, -0.179905, 0.130807, 0.047537, -0.877224, 0.159218, 0.011065, 0.320123, -0.250795, 0.155733, -0.333863, 0.164574, 0.123595, 0.088407, -0.325206, -0.000989, 0.004612, 0.183500, 0.096324, 0.361494, -0.029383, 0.086598, -0.002660, 0.174750, 0.072404, -0.222398, -0.017396, 0.002668, 0.128178, 0.298525, 0.317005, -0.094871, -0.282463, 0.318349, 0.001785, 0.077373, 0.475867, -0.158152, -0.238795, 0.185663, 0.219451, 0.101105, 0.367855, -0.050231, -0.041890, 0.373812, },
    {0.034656, 0.046026, -0.007321, -0.127439, 0.018518, -0.139047, 0.011515, -0.066372, -0.066338, 0.041155, 0.080340, -0.028229, 0.057084, 0.006873, -0.105842, 0.118842, 0.049036, 0.011212, 0.017400, -0.065530, 0.004314, -0.117912, 0.017602, -0.064086, -0.082407, -0.040129, -0.086543, -0.031593, -0.124180, -0.104713, 0.105498, -0.069320, -0.087963, 0.099175, 0.000204, -0.019628, 0.010829, -0.051623, -0.090689, -0.078261, 0.052804, -0.090756, 0.134215, -0.149355, -0.108882, -0.017301, 0.006460, 0.010597, 0.013301, -0.001801, -0.045599, 0.024130, -0.071377, -0.119619, -0.072542, -0.172331, -0.144699, -0.026553, 0.010439, -0.186475, 0.014242, -0.130070, -0.075824, -0.023523, 0.036769, -0.029613, -0.108714, -0.047689, -0.199786, -0.012864, 0.043113, 0.009525, },
    {0.155795, 0.067452, 0.029965, 0.086752, 0.067321, 0.014074, 0.110298, -0.130627, -0.074516, 0.016791, -0.035826, 0.027764, -0.068208, -0.086116, -0.079987, 0.009015, -0.011442, -0.037376, -0.001498, 0.036984, -0.110406, 0.073965, -0.012605, -0.141985, 0.037804, -0.002186, -0.154144, 0.055954, 0.019498, -0.075460, 0.079304, 0.067963, -0.104252, -0.107960, 0.116385, 0.053245, -0.028883, -0.029468, 0.059707, -0.090569, -0.038716, 0.079416, 0.051901, -0.105718, -0.139000, 0.150705, -0.084783, -0.007784, 0.152490, -0.132091, 0.030797, 0.049105, -0.068645, -0.058115, 0.047373, -0.040510, -0.127575, -0.019908, 0.060164, -0.064414, -0.056067, -0.112491, -0.006119, 0.047267, 0.060034, 0.023060, 0.112530, 0.035819, -0.066514, -0.074468, -0.060435, -0.052201, },
    {-0.075657, 0.064444, -0.013924, -0.031851, 0.055104, -0.118788, -0.043261, -0.074448, -0.051196, -0.036204, -0.054922, 0.000951, -0.023212, 0.033909, 0.002853, -0.063171, 0.046461, -0.104977, -0.082552, 0.063434, -0.080130, -0.094610, 0.091119, -0.080344, -0.055160, -0.043684, -0.073718, 0.084072, 0.062131, -0.146715, -0.083604, -0.140510, 0.074487, 0.094636, -0.000696, 0.002060, 0.080982, -0.049777, -0.002757, 0.105656, 0.002855, -0.011928, 0.082547, -0.005437, -0.076757, -0.056548, -0.069806, 0.049007, 0.132937, -0.096118, -0.074461, 0.029408, -0.008687, -0.137374, -0.000001, -0.029040, -0.019043, 0.064016, -0.057764, 0.077821, -0.043030, -0.127642, -0.050719, 0.032442, -0.060765, -0.027501, 0.033018, -0.023069, -0.066650, 0.100881, -0.013706, 0.102236, },
    {-0.324555, -0.082519, -0.131052, -0.709538, 0.003607, -0.031428, -0.104687, -0.097554, 0.007220, 0.701559, 0.136583, 0.063977, -0.108492, 0.125298, 0.128343, -0.269625, 0.118313, 0.147450, 0.953873, 0.081746, 0.017108, -0.051725, -0.033475, 0.213973, -0.464365, -0.294082, -0.222996, -0.069546, 0.176689, -0.127432, -0.869813, -0.366514, -0.438131, -0.237692, 0.521249, -0.294274, 0.467665, -0.140025, -0.056342, -0.235136, -0.114911, -0.222229, 0.148590, -0.041523, -0.045913, 0.250979, -0.045968, -0.072731, 0.123537, 0.070603, 0.104382, 0.417325, -0.250605, -0.114865, -0.066792, -0.154687, 0.006735, -0.373761, -0.323572, 0.060313, 0.487868, 0.110230, 0.099600, 0.627051, 0.103650, 0.070138, 0.005296, -0.091049, 0.049912, -0.067084, 0.156169, 0.007031, },
    {0.120117, 0.040360, 0.017409, 0.066676, 0.106425, -0.147650, 0.119986, -0.016279, -0.073290, 0.108007, 0.081639, -0.013426, -0.008832, -0.024363, 0.037000, 0.036203, 0.046921, -0.129966, 0.024841, -0.092077, -0.055375, -0.029503, -0.002717, 0.052876, -0.018350, -0.145921, -0.042178, 0.152186, -0.037725, -0.131189, -0.093127, 0.004404, -0.086006, 0.136296, 0.033371, -0.031667, 0.049591, -0.066951, -0.005071, -0.036472, -0.114799, -0.143488, 0.140141, 0.045780, -0.114930, -0.087793, 0.073990, 0.077134, -0.080877, 0.003710, -0.163881, 0.059610, 0.004848, -0.046286, 0.051271, -0.012773, -0.143708, 0.149897, -0.088545, -0.136288, -0.024300, -0.069350, -0.056970, -0.046983, 0.020284, -0.120175, 0.094947, 0.024702, -0.014634, 0.054312, -0.041697, -0.125394, },
    {0.081640, -0.141453, 0.043088, -0.701642, 0.213073, -0.149940, -0.035904, -0.098906, 0.036983, 0.457399, 0.136086, -0.235797, 0.134010, 0.055605, 0.081321, 0.573469, -0.037468, -0.431858, -0.046901, -0.378050, 0.032628, -0.517344, 0.187314, -0.105046, 0.436939, -0.372844, -0.099551, -0.288531, -0.044425, -0.246430, -0.054669, -0.184856, -0.372705, 0.036406, 0.084718, -0.094107, 0.828261, -0.323110, 0.012158, -0.115198, 0.182502, 0.115379, -0.170539, 0.121094, 0.401563, 0.126059, 0.102525, 0.234435, -0.121773, 0.393809, 0.031061, 0.024400, 0.064999, 0.073194, -0.469355, -0.293984, -0.599945, 0.128373, 0.047561, -0.354826, -0.229522, -0.614831, -0.193143, 0.656665, 0.032133, -0.123966, 0.349635, -0.828771, -0.918349, 0.185273, 0.035751, -0.452153, },
    {0.017303, 0.013174, 0.035653, 0.380251, -0.260721, -0.017929, 0.170907, 0.104573, 0.124556, 0.070179, -0.345291, -0.105685, 0.106030, 0.037997, -0.044181, 0.390309, -0.083490, -0.077901, 0.792707, 0.038614, 0.014511, -0.326793, 0.137482, 0.075096, 0.121855, -0.040176, -0.232122, -0.782886, 0.392148, -0.197298, 0.199713, 0.085751, 0.003195, -0.214320, -0.392660, -0.035574, 0.534598, 0.238491, 0.080362, 0.476937, -0.078780, 0.118428, 0.029116, 0.367862, -0.075405, 0.934980, 0.140512, -0.046694, 0.009598, 0.480969, 0.060461, 0.238860, -0.282480, -0.106542, 0.345765, 0.556741, 0.288328, 0.206569, -0.525394, 0.409988, 0.098787, 0.284938, 0.541037, -0.204029, -0.242165, 0.448679, 0.253366, 0.366642, 0.481856, -0.095881, -0.052806, 0.487878, },
    {0.012153, 0.003142, 0.033053, 0.376436, -0.023834, -0.155968, -0.143967, -0.201108, -0.103935, 0.110140, 0.113992, 0.244279, -0.227572, -0.073962, -0.008719, -0.484806, -0.052551, 0.199851, -0.724812, 0.292319, 0.175624, 0.483593, -0.053995, 0.073166, 0.391196, 0.415912, 0.297387, 0.234440, 0.197985, 0.117822, 0.091604, -0.076817, 0.055052, -0.420514, -0.028372, -0.046360, -0.573845, -0.015882, -0.205571, 0.042386, 0.154090, -0.174467, 0.120581, -0.519463, -0.299906, -0.318400, -0.195921, -0.066995, 0.096204, -0.611352, -0.239943, 0.306767, 0.023791, -0.053766, -0.070258, -0.085247, 0.013864, 0.003535, 0.052531, 0.033928, -0.238124, -0.054525, -0.477527, -0.398110, 0.015581, -0.280799, -0.032727, 0.432332, 0.711928, -0.126237, -0.006201, 0.362145, },
    {0.119791, 0.012686, -0.076403, -0.021775, -0.043790, -0.010527, 0.079071, -0.147482, -0.051917, 0.043814, 0.028577, -0.094846, -0.086961, 0.012078, -0.055648, 0.032116, 0.088747, 0.062538, 0.036961, 0.025681, 0.068448, -0.027878, -0.044430, 0.030598, -0.039263, -0.102413, -0.135496, 0.020601, -0.098283, 0.077327, 0.059712, 0.043990, -0.023022, 0.020331, -0.115368, -0.087502, -0.070107, -0.044881, -0.076479, 0.001279, -0.087993, 0.043287, -0.066498, -0.050175, -0.032961, 0.069769, -0.082229, -0.146614, 0.072388, -0.132412, -0.139265, -0.147855, -0.085991, -0.018987, -0.111520, -0.139704, 0.019463, -0.072260, -0.067298, -0.135530, -0.049798, 0.031249, -0.081970, -0.071896, 0.073091, -0.065777, -0.038351, 0.042289, -0.065399, -0.113915, 0.136635, -0.033149, },
    {-0.264213, 0.194859, 0.099905, -0.352421, -0.618289, -0.047227, 0.086570, 0.033810, -0.081058, 0.938021, 0.072457, -0.065381, 0.073035, 0.087732, 0.024255, 0.703930, -0.146714, -0.110524, -1.291272, -0.364709, -0.246943, 0.725345, 0.034877, -0.259181, -0.677320, -0.043714, 0.044354, 0.583702, -0.513656, -0.106160, -0.947554, 0.002313, 0.150986, 0.713981, -0.327334, -0.140464, -0.194418, 0.128357, 0.034850, -0.280993, 0.024787, -0.255746, 0.027176, -0.347731, 0.224372, -0.330697, -0.124295, -0.096132, -0.026962, -0.441112, -0.044853, 0.259322, 0.192397, -0.161502, -0.244192, -0.496170, -0.011008, 0.288984, 0.143420, 0.042034, 0.054666, -0.358637, -0.114944, -0.405641, -0.013745, -0.048492, 0.137532, -0.104691, 0.362702, 0.042482, -0.043091, 0.491833, },
    {0.096275, -0.231984, -0.098182, 0.089277, -0.164579, 0.068979, -0.021908, 0.079364, 0.110431, 0.141470, 0.002523, -0.049392, 0.055824, 0.045003, 0.059090, 0.263407, -0.136643, -0.104183, 0.104339, 0.127445, 0.274920, 0.533813, -0.114449, 0.086896, 1.003855, -0.402327, -0.047701, -0.949211, 0.521942, -0.113164, 0.938122, 0.039512, 0.077277, 0.346247, -0.038845, 0.132347, 0.004005, -0.117993, -0.282348, 0.244909, -0.151216, -0.179832, -0.106202, -0.060481, -0.085209, 0.548650, -0.308575, 0.106953, -0.078254, -0.262782, -0.357556, -0.505986, -0.017069, 0.014581, -0.062276, -0.196725, -0.811263, 0.230059, -0.079372, -0.576975, -0.154399, -0.203574, -0.091410, -0.333986, -0.188650, -0.195376, 0.584030, -0.432309, -0.756549, 0.103885, -0.072845, -0.714735, },
    {-0.380536, 0.085053, -0.147333, 0.122593, 0.104579, 0.115924, 0.131777, 0.079602, -0.151313, -0.139454, -0.084509, 0.115830, -0.145931, 0.134482, -0.046987, -0.353659, 0.083967, -0.034415, 0.706781, 0.262647, 0.059285, 0.732417, -0.435265, 0.202607, -0.948230, 0.344579, 0.240221, 0.308889, -0.339438, 0.205019, -0.932117, 0.219079, -0.106798, 0.408770, -0.188701, 0.003316, -0.394418, 0.389082, 0.008222, -0.147806, 0.071916, 0.131056, 0.150640, 0.131310, -0.209809, -0.105436, 0.079503, -0.044419, -0.112255, 0.051008, 0.023407, 0.506048, 0.016487, 0.090607, -0.273930, 0.173373, 0.226668, -0.197179, -0.022461, 0.342146, 0.530860, 0.368247, 0.083613, 0.074695, -0.253963, 0.225181, -0.451509, 0.381450, -0.097980, 0.160347, -0.056479, 0.240968, },
    {0.251726, 0.072268, 0.079086, 0.093672, -0.293798, -0.137385, -0.014096, -0.068582, 0.149826, 0.556016, 0.253714, -0.021443, 0.112268, -0.001247, 0.019967, 0.506170, 0.090623, -0.116970, -0.508669, -0.141342, -0.080402, 0.187566, -0.070617, 0.018095, 0.302100, -0.191936, -0.222457, 0.233976, 0.317442, -0.300467, 0.124444, 0.076641, -0.083655, -0.367388, -0.267620, -0.082056, 0.688661, 0.073747, 0.105477, 0.237049, -0.034799, -0.035134, 0.096014, -0.095056, 0.363802, 0.314815, -0.056215, -0.083323, -0.112643, 0.294511, -0.072514, 0.238829, -0.227741, 0.011345, 0.300522, 0.035194, -0.141237, 0.760176, -0.101944, 0.082231, -0.489570, -0.069508, -0.089590, -0.017465, -0.125692, 0.257292, 0.351646, 0.030849, 0.494345, 0.115467, -0.186254, 0.572859, },
    {0.369457, 0.005430, -0.019597, -0.708713, -0.078962, -0.007422, -0.130745, 0.104453, 0.074903, 0.367994, 0.091744, -0.023936, 0.100979, -0.022767, -0.314057, 0.827437, -0.013939, -0.293521, -0.134971, 0.219008, 0.246745, -0.036841, -0.401359, 0.193057, 0.500962, -0.241241, 0.203187, 0.116957, 0.118610, 0.011924, 0.103506, -0.150061, -0.008114, 0.353235, -0.191271, 0.013346, -0.542590, -0.128238, 0.024165, -0.039018, 0.020900, -0.017289, -0.162548, 0.218330, 0.378873, 0.112155, -0.033187, -0.025182, -0.172228, 0.197171, 0.006357, -0.499094, 0.101450, 0.021070, 0.192275, 0.204226, 0.122051, 0.217047, 0.127294, 0.041025, -0.110536, 0.289483, -0.057090, 0.063460, 0.142554, 0.026371, -0.116199, 0.054415, 0.531644, 0.365741, -0.022605, 0.362084, },
    {0.158892, 0.028752, 0.049946, -0.190571, -0.075708, -0.142108, -0.097881, -0.011590, -0.124259, 0.052842, 0.102899, -0.008818, 0.110184, 0.032260, -0.128226, 0.063058, -0.098412, -0.055229, -0.126252, -0.009684, -0.043396, 0.057873, -0.014930, -0.098328, -0.070378, -0.079551, -0.064791, 0.075861, -0.096189, -0.107807, -0.336153, -0.043922, 0.059829, 0.078035, 0.131617, -0.161705, 0.099902, -0.158329, 0.005730, 0.189404, 0.152859, 0.004752, 0.176131, -0.172843, -0.119094, -0.062721, 0.242345, -0.178696, 0.239419, -0.129268, 0.007568, 0.053875, 0.026792, -0.021294, 0.113997, 0.002669, 0.076150, 0.029426, -0.049422, 0.068821, 0.021965, -0.017265, -0.089464, -0.065628, 0.047022, -0.089262, 0.047149, -0.077103, -0.093001, 0.107847, 0.158440, -0.125150, },
    {-0.512173, 0.040103, -0.107993, -0.574140, -0.100985, 0.140913, 0.094867, 0.075703, -0.054988, 0.458019, -0.392781, -0.084010, 0.155935, 0.194362, 0.031583, 0.023466, -0.063674, -0.103649, 0.895503, 0.275771, -0.113209, 0.039935, -0.690859, 0.157410, -1.032560, 0.019341, -0.252330, -0.070842, -0.177556, -0.072268, -0.591643, 0.072863, -0.286405, 0.302494, -0.125579, -0.131342, 0.167952, 0.393947, -0.009498, -0.138292, -0.067594, -0.018919, 0.042314, 0.260513, -0.162088, -0.047481, -0.032861, -0.223781, 0.070304, 0.182065, 0.141716, 0.097042, 0.029868, -0.056856, -0.344107, 0.289699, 0.324718, -0.197434, -0.304485, 0.317884, 0.455015, 0.434825, 0.436788, 0.554152, -0.331797, 0.249840, -0.001708, 0.301307, 0.062695, -0.011012, -0.252060, 0.302779, },
    {-0.019772, 0.006802, 0.038472, 0.105424, -0.054464, -0.012078, -0.026662, -0.047946, -0.104284, 0.093777, 0.120177, 0.080243, 0.070840, -0.033622, -0.106535, 0.009890, -0.029381, -0.093172, 0.019267, -0.081391, -0.134887, 0.021813, -0.126419, 0.004726, 0.109673, -0.007962, -0.032676, 0.037812, -0.078902, -0.030134, -0.029286, -0.047788, 0.061794, -0.109968, 0.070883, -0.026766, 0.016341, -0.065718, -0.108003, -0.018817, -0.030700, -0.145817, -0.051662, 0.064404, -0.060884, 0.017372, -0.034530, 0.041872, 0.120664, -0.108173, -0.071724, 0.014791, -0.057479, -0.139089, -0.086197, 0.039696, 0.068401, 0.002385, -0.065335, 0.068184, -0.029447, 0.021181, -0.137261, -0.153855, -0.096869, 0.026740, 0.086335, 0.024888, 0.047676, 0.143571, -0.140065, -0.086601, },
    {-0.055100, -0.114804, -0.001082, 0.094111, -0.055679, -0.116368, 0.012689, -0.005690, -0.030751, -0.061167, -0.077319, -0.024902, 0.108909, 0.039749, -0.080182, 0.074815, 0.016295, -0.041508, -0.095589, 0.099221, -0.045056, -0.040243, 0.055277, 0.048297, 0.058326, 0.045451, -0.057977, -0.055612, -0.035223, 0.063966, -0.043001, -0.019876, 0.013868, 0.039153, -0.044267, -0.064209, -0.096092, 0.113000, -0.082290, -0.098532, 0.088885, 0.022460, 0.019446, 0.009517, -0.005821, -0.006733, -0.057497, -0.109392, -0.086678, 0.027919, -0.030656, -0.092168, 0.100972, -0.060986, -0.059737, 0.095475, -0.074332, 0.077363, 0.105720, -0.105497, 0.070934, -0.066397, -0.036650, -0.116752, -0.082115, 0.114785, -0.045250, -0.010780, 0.093255, -0.064595, -0.030383, -0.014377, },
    {0.009751, 0.045351, 0.030762, -0.032561, -0.035137, 0.084828, -0.094222, 0.103997, 0.029564, -0.145773, -0.359933, -0.126647, -0.097397, -0.083271, -0.156341, -0.477126, 0.195020, 0.111252, -0.493009, -0.332364, -0.411903, -0.633138, -0.308711, -0.288256, -0.545541, 0.115370, 0.060562, 0.004127, -0.364809, 0.100068, -0.715339, 0.110492, 0.070733, 0.010552, -0.549683, 0.013963, -0.866752, -0.457138, 0.105685, -0.482139, -0.354747, -0.132726, -0.018919, -0.070135, -0.049033, -0.597407, -0.360825, -0.021723, -0.039412, -0.064752, 0.151647, -0.484569, -0.177145, 0.190274, 0.157127, 0.090598, 0.222977, -0.285134, -0.018576, -0.054066, -0.079531, 0.068308, 0.325977, -0.110218, 0.020643, -0.028006, 0.447474, 0.069575, 0.255560, -0.294315, 0.110893, 0.101776, },
};

const fixed_pt l1_bias[HIDDEN_SIZE1] = {0.101762, -0.103289, 0.212677, -0.145013, -0.014584, 0.233822, 0.036863, -0.014664, -0.153485, 0.093334, -0.245266, 0.082815, 0.106674, -0.020328, -0.281226, -0.229246, -0.114360, -0.145245, -0.130883, -0.009453, -0.140161, 0.092870, -0.114288, 0.293497, 0.206055, -0.040212, -0.015404, -0.055974, -0.068533, -0.291244, 0.031675, 0.013333, 0.129179, 0.152924, -0.133091, 0.043914, 0.101807, 0.024576, -0.122629, 0.011511, 0.073631, -0.068605, -0.240271, -0.200946, 0.018367, -0.048549, 0.054667, 0.040492, 0.024027, -0.018209, -0.121505, -0.006615, 0.103956, -0.139773, -0.188705, -0.044762, 0.151704, -0.144551, -0.080175, -0.125615, 0.031888, -0.104634, -0.054522, -0.103001, };

const fixed_pt l2_weights[HIDDEN_SIZE2][HIDDEN_SIZE1] = {
	{-0.045993, -0.021761, -0.218009, 0.138182, 0.017837, -0.112457, 0.051192, -0.231306, 0.037858, 0.059137, 0.106033, -0.256542, -0.288130, 0.116645, 0.110104, 0.203749, -0.039386, 0.027751, 0.226352, -0.147092, 0.120440, 0.248174, 0.040303, -0.326424, -0.222043, 0.116625, 0.062326, 0.099836, -0.091596, -0.056504, 0.089073, 0.139367, 0.017244, -0.207831, 0.121841, 0.074865, -0.003902, 0.046668, 0.116530, 0.022170, -0.174264, -0.078395, -0.060546, 0.014443, -0.183878, -0.065640, 0.052116, 0.077586, -0.102815, 0.077256, 0.228109, 0.158198, -0.013354, -0.012227, 0.019994, 0.105895, -0.335257, 0.271153, 0.281068, -0.154656, -0.065621, -0.069944, -0.008225, -0.149589, },
    {0.157688, 0.048119, 0.413769, -0.437377, 0.066860, 0.169522, 0.289339, 0.270136, -0.066633, -0.138135, -0.265904, -0.121265, -0.095849, -0.075713, -0.163579, -0.063253, 0.352697, -0.005391, -0.267964, -0.031060, -0.028543, -0.154286, 0.016179, -0.106337, -0.219828, -0.412210, 0.028834, -0.190247, 0.034016, -0.035538, 0.077801, -0.213079, 0.158096, -0.130227, -0.137326, 0.079351, 0.171615, -0.035119, 0.009605, 0.053464, 0.126849, 0.025488, 0.088415, 0.091647, -0.132475, 0.120911, -0.061932, -0.037895, 0.454863, 0.049704, -0.065743, -0.349910, 0.120893, -0.014336, -0.261050, 0.009873, 0.130503, -0.330697, -0.318751, 0.212212, -0.038831, 0.060681, -0.023269, -0.036451, },
    {0.190013, -0.047604, -0.254710, 0.162872, -0.189377, -0.374797, -0.301003, -0.210733, 0.019609, -0.173381, 0.097050, 0.017951, 0.069215, 0.070972, -0.046691, -0.079135, -0.050864, 0.028802, -0.121813, 0.082702, 0.004817, -0.053993, 0.069909, 0.065060, 0.138461, -0.184244, -0.026793, -0.048643, 0.087354, 0.035326, 0.048544, -0.081796, -0.171264, -0.070480, -0.059032, 0.125574, -0.087991, -0.041261, 0.069978, -0.003297, -0.120973, -0.172622, 0.050083, -0.136815, -0.250811, 0.094404, 0.002858, 0.081423, 0.053895, -0.075768, 0.017603, -0.318598, 0.107268, -0.092774, 0.076589, -0.267382, -0.092199, 0.009714, 0.007956, -0.139723, -0.039268, 0.083746, 0.081593, 0.061702, },
    {0.027096, -0.036589, 0.002224, 0.081625, 0.087633, 0.404081, 0.162034, -0.105827, 0.154219, 0.028742, -0.163206, 0.028290, -0.114776, 0.086237, 0.088363, 0.065239, -0.204226, 0.152653, 0.077046, 0.138107, -0.081678, 0.074946, -0.049131, -0.087517, -0.171432, 0.208165, -0.134358, 0.103499, -0.285321, -0.036802, 0.106478, 0.232179, 0.070898, 0.325914, -0.030364, 0.280438, 0.296194, 0.180330, 0.130212, -0.008408, 0.501312, -0.145785, -0.104469, 0.077748, -0.156726, -0.027233, 0.096219, -0.046670, -0.235208, -0.023026, 0.101277, 0.036704, 0.039334, 0.098278, 0.082028, 0.264010, 0.123389, 0.003655, -0.025172, 0.010487, 0.031372, -0.051786, 0.124550, -0.130765, },
    {-0.178897, 0.194208, 0.142196, -0.057566, -0.180885, -0.017585, -0.251362, -0.109212, -0.195783, 0.055638, -0.047209, -0.348038, -0.200887, -0.027956, -0.143346, -0.073443, -0.189734, -0.319810, 0.121958, 0.025544, 0.178497, 0.112407, -0.165810, 0.007959, -0.298236, -0.027070, -0.253686, -0.044573, -0.394197, 0.097931, -0.014075, 0.018955, 0.143556, -0.178931, -0.069736, -0.183995, -0.078159, -0.059333, 0.027061, -0.065916, -0.244267, -0.071369, -0.221925, 0.029769, 0.138623, 0.001277, 0.151662, 0.025452, -0.007597, -0.032962, -0.207104, 0.046824, -0.365930, -0.050566, -0.241268, -0.324591, 0.028427, 0.028909, 0.054313, -0.027656, 0.284872, 0.019712, 0.117268, 0.191279, },
    {-0.143344, -0.211043, -0.264771, 0.121879, 0.018879, -0.026612, -0.004230, -0.283942, -0.061853, -0.068712, 0.021287, -0.075537, 0.007979, 0.039284, 0.161088, -0.140973, -0.164825, 0.170881, 0.160632, 0.041268, -0.030804, -0.009651, 0.027865, -0.353123, -0.078501, 0.232138, 0.120203, -0.032949, -0.153933, 0.050834, 0.094445, -0.012696, 0.143149, 0.019103, -0.106944, 0.008532, -0.217339, -0.164930, 0.122436, -0.108435, 0.008215, 0.012637, -0.126003, -0.068584, -0.155885, 0.047842, -0.078171, -0.000803, -0.108959, -0.040635, -0.208649, 0.024404, 0.146362, 0.032826, 0.115807, -0.253771, -0.209164, 0.013710, -0.109826, 0.106385, -0.027042, 0.034216, 0.028508, -0.207951, },
    {-0.126350, 0.121567, 0.086260, -0.065455, -0.082114, -0.189595, -0.301154, 0.043528, 0.191841, 0.172442, 0.131964, -0.486858, -0.190878, 0.047969, 0.025250, 0.163409, 0.005125, -0.182130, 0.007357, -0.027671, -0.010347, -0.085516, -0.224180, -0.224744, -0.163021, -0.221129, -0.000769, -0.000303, -0.210919, -0.067260, -0.006712, -0.038395, 0.111284, -0.348769, 0.199630, -0.312638, -0.455703, 0.151924, 0.102174, -0.002461, -0.448856, 0.013328, 0.083976, 0.058274, -0.009590, -0.006829, 0.072476, 0.083788, 0.159806, -0.106423, 0.111082, 0.140328, -0.382027, -0.088906, 0.071689, -0.237714, 0.081297, 0.065959, -0.014772, 0.043994, 0.237992, 0.066368, -0.057383, 0.121755, },
    {0.067871, -0.115354, -0.155255, -0.123864, -0.005420, -0.258981, 0.066304, -0.155008, -0.114043, 0.206341, -0.237090, 0.060978, 0.200511, 0.038013, -0.022532, 0.192216, -0.243194, -0.127430, -0.016873, 0.010431, -0.101657, 0.144376, 0.109571, 0.305759, 0.133581, -0.276637, -0.027880, 0.112734, -0.183702, -0.126161, 0.014221, 0.025795, -0.103504, -0.105030, -0.100334, 0.311205, 0.090194, 0.214821, -0.028835, 0.121424, 0.280721, 0.088011, -0.021388, -0.135423, -0.015057, -0.033690, 0.084329, -0.139274, -0.162235, 0.063072, 0.142197, -0.198395, -0.078887, 0.054447, -0.237037, -0.007194, 0.183073, -0.056007, 0.090718, 0.121642, -0.019341, -0.050593, 0.087253, 0.005072, },
    {-0.017813, 0.103165, -0.135442, -0.137697, 0.182043, -0.231705, 0.104412, -0.149227, -0.031842, -0.266267, 0.130662, -0.079238, 0.200946, -0.083615, -0.140445, -0.066192, -0.263268, -0.002382, 0.108693, -0.061846, 0.070844, 0.106862, 0.164429, -0.042645, 0.331054, 0.086068, 0.136257, -0.142771, 0.077706, -0.192062, -0.057910, 0.092793, -0.002123, 0.086952, -0.112301, 0.078438, -0.195453, 0.039303, -0.086912, -0.022694, -0.154215, 0.071857, -0.109889, 0.053063, -0.298462, 0.050821, 0.002778, 0.035139, -0.255997, 0.105993, -0.036601, -0.004067, 0.005868, -0.104129, -0.153444, 0.063881, -0.295695, -0.017520, -0.057762, -0.039861, -0.193996, -0.114423, 0.028445, -0.138564, },
    {0.011223, 0.169331, -0.259427, -0.315642, -0.012937, -0.011291, -0.224752, 0.136205, -0.156468, -0.192069, 0.008979, 0.207856, -0.188915, -0.016169, -0.146749, -0.198562, -0.141763, -0.120524, 0.128881, 0.058796, -0.002266, 0.061892, 0.005206, -0.057836, 0.252717, -0.164206, 0.115068, -0.089351, -0.096686, -0.033896, 0.091875, -0.198470, -0.032437, -0.146970, 0.045828, -0.007412, 0.047368, -0.388700, -0.004876, -0.056188, -0.069834, -0.239326, -0.027338, -0.169535, 0.077330, -0.096532, 0.008251, -0.061958, 0.111527, -0.112802, -0.178191, 0.074328, -0.018755, -0.085671, 0.006468, -0.148041, -0.115185, 0.064300, 0.102160, -0.036076, 0.195934, -0.118021, 0.076589, 0.002387, },
    {-0.251834, -0.025099, -0.188816, -0.083033, 0.083231, -0.171987, -0.161766, -0.012921, -0.159983, 0.032144, 0.158688, -0.163273, -0.118940, -0.100793, 0.055777, -0.094199, -0.070590, -0.084996, 0.090813, 0.029615, 0.178151, -0.061177, -0.094438, -0.150084, -0.142911, -0.140677, 0.070890, 0.063209, 0.033715, -0.014247, -0.091592, -0.104861, 0.235400, -0.373546, 0.183305, -0.184495, -0.132731, -0.024478, 0.119721, -0.006804, -0.301660, -0.261712, -0.069568, 0.090190, 0.058496, 0.138633, 0.081510, 0.062122, 0.091411, -0.084224, -0.006325, 0.172764, -0.047024, -0.051108, -0.000698, 0.053455, -0.049811, 0.093642, 0.118955, 0.069338, -0.004045, -0.030450, 0.077755, -0.062590, },
    {0.127876, 0.139380, -0.172801, -0.068382, -0.157147, -0.019602, 0.022851, -0.077901, -0.172396, -0.053731, 0.159443, -0.230139, 0.282354, 0.044529, -0.250451, -0.138000, -0.321398, 0.013638, -0.075520, -0.082433, 0.186683, -0.021014, 0.080896, 0.196417, 0.160677, -0.084065, 0.046704, -0.226261, 0.025061, 0.097987, -0.019278, -0.280996, -0.129069, -0.003625, -0.030634, -0.096758, -0.067238, -0.098061, 0.040472, -0.124352, 0.001661, -0.298125, -0.203456, -0.103498, -0.042711, -0.112211, -0.056663, 0.007455, -0.306131, 0.014004, -0.313004, -0.120263, -0.051262, 0.116343, 0.055070, 0.014164, -0.108121, -0.116709, -0.089026, -0.013033, -0.010053, 0.056545, 0.059664, 0.281053, },
    {-0.062349, -0.079595, -0.010094, -0.008377, 0.139559, -0.274481, -0.130771, -0.055262, -0.171481, -0.021368, 0.216814, -0.323135, -0.145479, 0.059888, -0.009401, -0.224694, 0.079206, 0.090919, 0.067803, -0.098499, 0.211243, -0.109734, 0.013266, -0.167569, -0.031334, 0.125496, 0.249325, -0.023271, 0.221191, -0.120700, 0.073705, -0.191215, 0.147654, -0.290942, 0.047148, 0.007098, -0.197214, -0.108263, 0.054838, -0.107583, -0.110036, -0.107759, -0.026224, 0.169201, -0.094596, 0.063681, -0.120605, -0.073738, 0.212848, 0.003468, -0.143227, -0.042382, 0.004636, 0.007446, -0.093141, -0.040866, 0.299431, -0.029169, -0.157627, -0.076703, 0.077765, -0.087090, -0.050747, -0.102833, },
    {0.160670, -0.224036, 0.127347, -0.025220, -0.058682, -0.168796, -0.036131, 0.043436, -0.110796, -0.120472, -0.078789, -0.288116, -0.175116, 0.002849, -0.003479, -0.026181, 0.148410, 0.275665, 0.051513, 0.047730, -0.014764, -0.006982, 0.023663, -0.188508, 0.001242, 0.099118, 0.022644, 0.019639, 0.159189, -0.293771, -0.044718, -0.074870, 0.081079, -0.002659, -0.042542, 0.099977, 0.017544, 0.045740, -0.051320, 0.070794, -0.085115, -0.082771, 0.055739, 0.089074, -0.341845, 0.137383, 0.076053, -0.040396, 0.051269, 0.056919, 0.063329, -0.028010, -0.102757, -0.056361, 0.053446, 0.039563, 0.141116, 0.054606, 0.031955, -0.205571, -0.184671, 0.023604, 0.113892, -0.463846, },
    {-0.120040, -0.119543, 0.050366, 0.113600, 0.005969, 0.407481, 0.009475, -0.160596, 0.225619, 0.236138, -0.280921, 0.480513, -0.024577, -0.130661, -0.082066, 0.089688, -0.228888, 0.066341, -0.006769, -0.021034, 0.083702, -0.328554, -0.224958, -0.085921, -0.016749, 0.231971, 0.084702, 0.291521, -0.296266, 0.056786, -0.072401, 0.156719, 0.346841, 0.487319, -0.095075, 0.009065, 0.156646, -0.128113, -0.046930, 0.112910, 0.495845, 0.164491, 0.002286, -0.051762, -0.069827, -0.006209, -0.005406, 0.046880, -0.093802, 0.030102, -0.179285, 0.009779, 0.124726, -0.099552, 0.205563, -0.461335, 0.144085, -0.059382, 0.029428, 0.106666, 0.171836, 0.104831, 0.108033, -0.055662, },
    {0.147023, -0.009321, 0.006890, -0.189783, -0.019852, 0.274022, 0.122576, 0.436390, 0.014090, 0.021307, 0.047507, -0.042827, 0.323047, -0.013578, -0.025293, -0.091289, 0.078870, 0.123970, -0.129680, 0.042986, -0.005144, -0.025137, 0.064076, 0.325416, 0.455831, -0.122008, 0.059251, 0.029391, 0.149400, -0.213204, -0.144808, 0.015024, -0.017330, 0.093203, -0.141943, 0.169239, 0.164319, -0.067897, 0.021219, 0.080845, 0.071425, -0.105993, -0.025652, -0.032399, 0.072786, -0.056104, -0.071540, 0.059336, -0.062087, -0.025495, -0.164189, -0.094561, 0.198267, 0.056834, 0.169536, 0.148831, 0.093219, -0.099288, -0.153658, 0.043815, -0.286774, 0.146335, 0.009813, 0.074397, },
    {-0.018355, 0.093848, -0.347480, -0.202806, -0.142876, -0.016937, -0.194658, -0.132574, 0.110723, -0.064976, -0.225272, -0.136627, -0.098384, 0.042322, 0.211909, -0.101143, 0.046228, -0.113169, 0.000364, 0.077142, -0.021946, 0.075683, -0.232931, -0.185966, -0.295136, 0.094653, -0.137195, -0.288390, -0.026623, -0.074913, -0.031846, -0.157766, -0.178239, -0.335038, -0.134525, -0.063041, -0.000535, -0.141476, -0.029928, 0.024034, -0.105759, -0.197054, -0.016435, 0.001846, 0.200647, 0.055580, -0.112237, -0.085221, 0.047985, -0.128298, -0.130862, -0.116654, 0.039217, -0.002672, 0.131017, -0.083517, -0.175567, -0.003294, -0.066978, -0.074908, -0.015448, 0.047899, -0.005286, -0.016820, },
    {-0.261196, -0.125103, -0.004928, 0.033147, -0.080574, 0.110244, -0.078331, -0.146441, 0.112524, 0.188109, 0.155485, 0.192909, 0.141835, -0.051539, -0.092581, 0.242515, 0.010723, -0.221032, -0.094370, 0.092377, 0.058751, -0.157217, -0.016577, 0.358521, 0.230639, -0.335014, 0.105977, 0.122574, 0.008691, -0.211716, -0.050398, 0.087189, -0.073230, 0.130132, 0.140344, -0.383127, -0.009287, -0.014086, 0.002321, 0.060893, 0.073570, -0.003810, 0.177409, -0.096437, -0.123414, -0.010742, 0.051476, 0.013995, 0.027011, -0.069526, 0.138858, -0.101265, -0.159589, 0.010275, 0.039034, -0.150901, 0.074797, 0.126955, -0.032876, 0.228870, -0.168655, -0.043078, -0.113849, -0.181615, },
    {0.077988, -0.199692, -0.215691, 0.120314, -0.126080, -0.176264, -0.125204, -0.208064, 0.142222, -0.163762, -0.084823, -0.128537, 0.012405, -0.072619, 0.159551, -0.065944, -0.172817, 0.057375, 0.018903, 0.026929, -0.007751, -0.059136, 0.019008, -0.259645, 0.102364, 0.066088, -0.235423, -0.040429, 0.063575, 0.195723, 0.042900, -0.233085, -0.045174, -0.122182, -0.305683, 0.079110, -0.135877, -0.214632, 0.123610, 0.081867, -0.122658, -0.264257, -0.116584, -0.041408, -0.241864, -0.021239, 0.097891, 0.059091, -0.223315, 0.117372, -0.140121, -0.133939, 0.174076, 0.088286, 0.136019, -0.059931, -0.220295, 0.063790, 0.034247, 0.090307, -0.045651, 0.057545, 0.057941, 0.074960, },
    {0.289226, -0.114003, 0.066842, 0.129174, -0.145918, 0.063337, -0.070383, 0.053440, -0.024104, -0.003849, 0.029075, 0.257254, -0.072663, -0.010988, 0.198703, -0.075907, 0.129586, 0.118584, -0.049376, -0.079649, 0.041876, -0.261200, -0.206259, 0.037905, 0.057627, -0.241787, -0.395546, -0.039406, 0.220133, -0.313704, 0.021303, -0.222637, -0.092740, -0.040283, -0.195011, 0.127752, -0.027108, -0.161836, -0.032791, -0.259498, -0.202790, -0.026623, 0.027743, 0.199924, -0.057042, 0.058499, -0.067537, 0.030374, 0.029308, 0.044925, 0.030899, 0.037811, 0.175398, -0.076304, -0.123470, -0.088366, -0.179988, -0.190074, -0.104867, -0.292999, 0.013989, -0.066125, -0.104438, -0.389152, },
    {-0.042732, 0.211261, 0.010279, -0.011834, -0.271777, 0.332308, 0.053416, -0.064264, 0.166923, -0.076982, -0.137806, -0.068398, 0.018376, -0.015124, 0.307987, -0.051551, -0.079521, -0.053027, 0.120695, 0.008370, -0.182331, 0.122061, 0.017459, 0.020185, 0.032320, -0.010966, -0.208490, -0.055525, -0.148113, 0.077940, 0.053116, -0.213625, -0.065872, 0.210159, 0.014516, 0.110149, 0.080674, 0.276578, -0.086707, -0.001660, 0.147649, -0.061163, -0.349251, -0.335975, 0.111626, -0.029693, 0.084531, -0.131883, -0.193826, -0.141870, 0.072087, 0.135820, -0.106813, -0.024207, -0.102631, 0.103249, -0.114420, 0.099547, 0.222760, 0.013523, -0.224372, -0.058629, 0.013003, -0.116219, },
    {0.039836, 0.013726, -0.005841, -0.114510, 0.112983, -0.245163, 0.205135, 0.012728, -0.044926, -0.083548, -0.119773, -0.350072, 0.134452, -0.021805, -0.004247, 0.066229, -0.229435, 0.085203, -0.082865, -0.088432, -0.095593, 0.194951, 0.148215, 0.163599, 0.367205, -0.070403, 0.109784, 0.071765, -0.151271, -0.045182, 0.003829, 0.222164, -0.143534, -0.216565, -0.145904, 0.027145, -0.020847, 0.205483, -0.101145, 0.027161, -0.220804, 0.172616, 0.000494, -0.056345, -0.047243, 0.089960, -0.150632, -0.048450, -0.143699, -0.146563, 0.022801, -0.060717, -0.137539, -0.004172, -0.094662, 0.054060, 0.244850, -0.120878, -0.035880, 0.027198, -0.064070, 0.104534, -0.087544, -0.008077, },
    {0.065615, -0.175103, 0.073521, 0.105372, -0.170168, -0.083180, -0.012860, 0.038255, 0.238119, 0.180253, -0.047783, -0.136889, -0.157230, -0.023337, 0.233180, 0.057052, 0.286565, -0.109694, -0.073429, 0.151070, 0.078038, 0.036267, -0.018136, -0.016586, -0.197281, -0.095744, -0.167735, 0.087057, -0.140467, 0.027029, -0.082189, -0.015623, -0.054681, -0.239189, -0.064594, 0.079583, 0.055399, 0.279299, 0.098276, 0.154830, -0.001264, -0.110197, 0.084199, 0.005157, -0.051065, 0.024760, -0.065056, -0.045100, 0.257219, -0.045753, 0.081157, 0.014903, -0.039466, 0.039237, 0.101448, -0.099940, 0.306122, 0.013126, -0.177738, 0.016738, 0.271124, 0.112689, 0.035914, -0.074055, },
    {-0.001338, -0.117613, 0.122375, -0.020831, 0.157311, -0.266087, -0.135460, -0.001482, -0.001160, 0.108275, 0.073469, -0.114367, -0.078343, 0.005784, -0.107563, -0.165650, -0.141547, 0.115172, 0.024621, 0.054982, 0.171179, 0.065703, 0.052700, -0.376150, -0.147977, 0.073895, 0.003991, 0.086866, 0.048179, 0.141931, -0.097700, -0.006768, 0.173639, 0.042953, -0.058873, 0.058096, 0.027950, -0.039772, -0.032644, -0.046587, -0.044849, -0.073785, -0.146969, 0.178739, 0.070261, 0.096552, 0.019846, 0.023431, 0.029848, -0.014069, -0.208363, 0.089796, 0.059078, 0.062710, 0.056314, -0.020895, 0.010604, 0.027023, -0.010010, -0.183570, 0.138178, -0.000945, 0.052739, 0.012534, },
    {-0.029600, -0.033913, -0.020770, 0.102143, 0.245111, -0.233597, 0.084588, 0.106337, 0.115144, -0.178833, 0.059390, -0.278045, -0.163268, -0.110665, -0.347454, 0.093207, 0.119293, -0.010851, 0.098120, 0.006911, -0.115253, 0.171787, 0.047297, -0.375616, -0.257776, 0.104397, 0.140538, 0.029161, -0.056438, -0.178848, 0.052906, 0.096538, 0.040838, -0.064445, -0.004636, 0.129202, 0.081569, 0.176540, 0.038187, -0.051592, -0.179820, 0.221477, 0.010793, 0.134833, -0.446072, -0.030369, 0.007450, 0.038510, 0.169111, 0.056872, -0.020443, -0.023069, 0.078052, 0.153221, -0.238974, 0.123613, -0.152819, 0.118876, -0.009728, -0.100772, -0.247611, -0.061092, 0.111651, -0.417319, },
    {0.018245, 0.176892, -0.045224, -0.283012, 0.025381, 0.302027, 0.065324, -0.068946, -0.303759, -0.289607, 0.255006, 0.073879, 0.146303, 0.073947, -0.076131, -0.123416, -0.320022, -0.128565, 0.170923, 0.059402, 0.180405, 0.288845, 0.146381, -0.087513, 0.001405, -0.138931, -0.031161, -0.219286, -0.020190, 0.045052, -0.078362, -0.163226, -0.064380, 0.264588, 0.156488, 0.081832, -0.040791, 0.082207, -0.093866, 0.015033, -0.022905, -0.295905, -0.226865, -0.049390, 0.073691, -0.029292, 0.047656, -0.131752, -0.226957, 0.079141, 0.151716, 0.291845, -0.273709, -0.018523, -0.081109, 0.155959, -0.144330, 0.068119, 0.324997, 0.051934, -0.060156, 0.010822, -0.037834, -0.064400, },
    {-0.025123, 0.297168, 0.183566, -0.175925, 0.114546, -0.060711, 0.019591, 0.288089, -0.211336, -0.044650, 0.156109, -0.172730, 0.032028, -0.077691, -0.168264, -0.057718, 0.157884, 0.023837, -0.097463, -0.089210, 0.112589, -0.003873, 0.057984, -0.089223, 0.084715, -0.108027, 0.207545, 0.085070, 0.136628, -0.029940, 0.037172, -0.026242, 0.345693, 0.112140, 0.129200, -0.044973, -0.100294, -0.069095, 0.117374, -0.115297, -0.144333, -0.122577, 0.011044, 0.170452, 0.200522, -0.066666, -0.000984, -0.019084, 0.013395, 0.013079, -0.149861, 0.080085, 0.105518, 0.078593, -0.176642, -0.042337, -0.039943, -0.051065, -0.033653, -0.023950, 0.119525, 0.067137, 0.123177, 0.115553, },
    {0.094562, -0.004397, 0.035882, -0.056419, 0.112425, 0.086321, 0.189784, 0.247471, -0.141216, -0.129455, 0.113617, 0.046347, 0.203482, -0.122073, -0.218510, -0.172205, -0.009542, -0.042483, -0.061179, 0.032910, 0.150059, 0.027515, 0.074138, 0.353393, 0.452623, -0.153578, 0.283078, 0.031130, 0.311449, -0.105732, -0.037764, -0.159071, -0.039124, 0.169764, -0.004879, -0.082227, 0.096893, -0.126032, -0.083512, -0.059042, 0.365590, -0.161904, 0.012222, -0.063936, 0.009418, -0.057465, 0.043699, -0.086245, 0.135152, -0.004033, -0.052563, -0.166051, 0.128373, -0.037429, 0.044522, 0.010318, 0.078322, -0.107592, -0.109778, 0.106721, -0.161152, 0.067271, 0.053680, 0.022618, },
    {0.023673, -0.168391, 0.132856, -0.156214, -0.022593, 0.154999, 0.113326, 0.342028, -0.180117, 0.064226, -0.344576, -0.269657, -0.160669, -0.018425, -0.110891, 0.076677, 0.279656, -0.066303, -0.291783, -0.091397, -0.076259, -0.163070, 0.087096, -0.276163, -0.099209, -0.287860, 0.068226, 0.102704, 0.011234, -0.124773, -0.056674, -0.182497, 0.080609, -0.141895, -0.142958, -0.018761, 0.051801, -0.117205, 0.061919, 0.002819, 0.025240, 0.092461, 0.113620, 0.027369, -0.340970, 0.061198, -0.022018, 0.017809, 0.163286, -0.143823, 0.007936, -0.116317, 0.170253, 0.023388, -0.172731, -0.055240, 0.184076, -0.383465, -0.331946, 0.259095, -0.155744, 0.090835, 0.068865, -0.173718, },
    {-0.002853, -0.097559, -0.109103, -0.013859, 0.053576, -0.216077, -0.149443, -0.005430, 0.106403, 0.011615, -0.034599, -0.113770, -0.033159, -0.126111, -0.023189, 0.212314, 0.102206, 0.008512, 0.179658, -0.019195, -0.126154, 0.071428, -0.067401, -0.237407, -0.293319, 0.060692, 0.093775, -0.071241, -0.113739, -0.023295, -0.087597, 0.048953, -0.004565, -0.121874, 0.213161, -0.021130, 0.027147, 0.163703, -0.018329, -0.160803, -0.151301, 0.086318, 0.122839, 0.016261, -0.051750, 0.062138, -0.055277, 0.061428, -0.165029, -0.054917, 0.042895, 0.124094, -0.000210, 0.122273, -0.055849, 0.198689, -0.261422, 0.212629, -0.126106, -0.026959, -0.179032, 0.007338, 0.001447, -0.140671, },
    {0.043041, 0.095788, 0.169039, -0.016047, 0.126826, 0.337954, 0.095289, 0.145744, -0.138839, 0.110067, -0.000504, 0.077501, 0.330481, 0.040636, -0.097137, -0.117386, 0.060625, -0.053378, -0.101167, -0.073441, 0.098366, -0.050382, 0.066200, 0.450804, 0.455152, -0.041078, 0.080501, 0.049982, 0.121318, -0.044445, -0.025332, -0.103261, 0.219929, 0.096716, -0.038218, -0.001196, -0.052822, -0.018695, -0.080593, 0.044939, 0.190941, -0.090472, -0.137536, 0.019620, 0.073300, 0.071851, 0.111929, -0.107657, -0.070896, -0.078975, -0.258708, 0.040734, 0.084851, -0.003393, 0.042615, 0.154563, 0.298053, -0.071733, -0.078727, 0.099390, 0.026374, -0.075269, -0.119850, 0.022363, },
    {0.250871, -0.228072, -0.077032, -0.009548, -0.182373, -0.248717, -0.059677, -0.393624, 0.163817, -0.271328, -0.037982, -0.196247, -0.060550, -0.094408, 0.186645, 0.218534, -0.156080, 0.008937, 0.099577, -0.013556, -0.127325, 0.119330, -0.106678, -0.339210, -0.246521, 0.053107, -0.292673, 0.083202, -0.332272, 0.051979, -0.103321, -0.083268, 0.008798, -0.036418, -0.102154, 0.192723, 0.131962, 0.265733, 0.016467, 0.111867, 0.017438, -0.147531, -0.084489, -0.146290, -0.097160, 0.067956, -0.046018, 0.021358, -0.222282, 0.003518, 0.339643, -0.052577, -0.012369, 0.003420, 0.269303, 0.019716, 0.243228, 0.073115, -0.128669, -0.096142, -0.014276, -0.078878, 0.124263, -0.050595, },
    {-0.010084, -0.130686, -0.070296, -0.228295, -0.259675, -0.070434, -0.140315, -0.069890, -0.085639, -0.167752, -0.030709, -0.083599, 0.055312, 0.037119, 0.084187, 0.021614, 0.003772, -0.102356, 0.040907, 0.038502, -0.008650, -0.052854, -0.094975, -0.103689, -0.304943, -0.113062, 0.008171, -0.113675, 0.066831, -0.156591, 0.069469, -0.150468, 0.020841, -0.060509, -0.078280, -0.020969, -0.176427, -0.044895, 0.101128, 0.045691, -0.053214, -0.309131, -0.040172, -0.114570, -0.249037, -0.048567, -0.057453, 0.014892, 0.069339, 0.107379, 0.005850, 0.133756, -0.179651, 0.074982, -0.139912, 0.044078, -0.069440, 0.100945, -0.096589, 0.146118, -0.127049, -0.073965, -0.033541, -0.186293, },
    {-0.204503, -0.128349, 0.191189, -0.036787, 0.129253, 0.300574, -0.129948, -0.159847, 0.007963, 0.149972, -0.173604, 0.211103, 0.011201, 0.034969, -0.237303, -0.133046, -0.210587, -0.272853, -0.123573, 0.036183, 0.059206, -0.169359, -0.082170, -0.048348, 0.064330, 0.249014, 0.026249, 0.140662, -0.065219, -0.102239, 0.034956, 0.183914, 0.226690, 0.236074, -0.260537, -0.064757, 0.017234, -0.097942, 0.120769, -0.019250, 0.269860, 0.171989, -0.156953, -0.095975, 0.038893, 0.065945, 0.069419, -0.006383, -0.077573, 0.061761, -0.046417, -0.056591, -0.057927, -0.097995, 0.062611, -0.252559, 0.245879, -0.094409, -0.018677, -0.078299, -0.072531, 0.029579, 0.067692, -0.034061, },
    {-0.046064, -0.093996, -0.096171, 0.284784, -0.030246, -0.319113, -0.150400, -0.168941, 0.047594, 0.098130, 0.028532, -0.282366, -0.239523, 0.069249, -0.248940, 0.026415, -0.035488, 0.099100, -0.023912, 0.085067, 0.151618, 0.013431, -0.035246, -0.283117, -0.238325, 0.293256, -0.003867, 0.139074, -0.044434, 0.080585, -0.081194, 0.031877, 0.113156, -0.325814, -0.157433, 0.041257, -0.213399, -0.081649, -0.087031, -0.074927, -0.035250, -0.058184, -0.165136, 0.181717, -0.028780, -0.091913, 0.100664, -0.143597, -0.036985, 0.060841, -0.042923, 0.121454, -0.016799, -0.011888, -0.042233, 0.028763, -0.051351, 0.047749, -0.164697, -0.108413, 0.243012, -0.097054, 0.087954, -0.035726, },
    {-0.218618, -0.163695, 0.021599, 0.116353, -0.071835, -0.216156, -0.037747, -0.104001, -0.069498, 0.044309, 0.013663, -0.171213, 0.022341, -0.012673, -0.141882, 0.021554, 0.004848, -0.071468, -0.233503, 0.078526, 0.086607, 0.033165, -0.071123, -0.159796, -0.387107, 0.089224, -0.106589, 0.119028, -0.037092, -0.034069, -0.052890, -0.074575, 0.292148, -0.048474, -0.025173, -0.095674, -0.086495, -0.141859, 0.077073, 0.106377, -0.109847, -0.009295, -0.007095, 0.055292, 0.087302, 0.118948, 0.046898, 0.085928, 0.201699, -0.023438, -0.082377, 0.034814, -0.241788, -0.034340, -0.108183, 0.003949, 0.113258, -0.211361, -0.150335, 0.123174, 0.339389, -0.004947, -0.049380, 0.125073, },
    {0.030415, 0.183283, -0.150222, -0.088938, -0.077221, 0.315167, 0.018753, -0.085102, 0.074835, 0.004663, -0.051686, -0.364326, -0.086079, 0.037936, -0.114940, -0.003708, -0.181769, -0.097159, 0.248095, 0.044907, -0.058316, 0.328247, 0.109556, 0.033739, -0.337925, -0.198852, -0.071203, 0.092332, -0.112370, -0.077599, 0.047906, 0.023395, -0.080295, 0.063137, -0.236246, 0.297838, 0.015292, 0.096472, 0.065493, 0.073172, -0.108312, -0.103803, -0.209474, -0.273460, -0.071253, -0.000813, -0.162593, 0.079668, -0.216030, -0.117443, 0.141403, -0.054969, -0.111563, -0.065046, -0.142921, 0.084066, 0.045404, -0.058452, 0.282755, -0.137692, -0.111649, -0.049880, 0.111953, -0.020455, },
    {-0.220380, -0.125850, -0.254703, -0.031877, 0.203049, 0.064937, -0.051620, -0.181567, 0.096179, -0.095727, 0.293139, 0.060090, -0.089669, 0.022520, -0.018534, 0.067145, -0.046891, 0.068992, -0.064463, -0.016635, 0.079595, 0.065181, -0.143331, -0.333026, 0.064947, 0.045529, 0.227111, -0.051887, 0.037874, -0.302678, -0.021957, 0.147855, 0.047829, -0.166506, 0.246108, -0.175529, -0.361209, 0.132355, 0.103709, -0.001427, -0.210362, 0.052162, 0.104346, 0.122836, -0.517433, -0.154251, 0.096858, -0.025015, -0.095138, -0.073927, 0.090126, 0.094980, 0.028372, 0.105592, -0.098857, 0.091610, -0.400333, -0.009978, -0.095945, -0.111175, -0.061745, -0.028186, 0.018394, -0.227610, },
    {-0.228343, -0.031325, 0.140564, -0.038818, -0.247330, -0.351446, -0.016130, -0.026966, -0.138348, -0.010916, -0.020189, -0.333566, 0.123119, 0.067245, -0.157882, -0.046160, 0.010939, -0.099610, -0.048042, 0.004114, 0.203752, 0.023902, 0.046228, 0.128870, 0.290756, -0.010315, -0.016078, 0.010335, 0.059814, 0.086888, 0.050810, -0.117150, 0.031469, -0.113978, -0.222637, -0.276880, -0.193970, -0.205448, -0.070265, -0.078795, -0.184397, -0.128001, -0.017792, 0.086931, 0.028151, -0.112397, 0.138807, -0.090436, 0.042097, 0.031679, -0.157438, -0.371431, -0.095140, -0.085995, -0.197623, 0.013123, 0.148822, -0.247847, -0.137597, 0.077388, 0.214030, 0.047383, 0.021326, 0.169009, },
    {0.052937, 0.237134, -0.091753, 0.048502, -0.116132, 0.238488, -0.037735, -0.190162, 0.091808, -0.067001, 0.037275, 0.110511, 0.198156, -0.013766, 0.120337, -0.194247, -0.016314, 0.106944, 0.043496, -0.090531, 0.190214, -0.022942, -0.072421, 0.286818, -0.096549, 0.026529, -0.085208, -0.150796, -0.007800, 0.235723, 0.085527, -0.088290, 0.091272, 0.292388, -0.049163, 0.071854, 0.134171, -0.151057, -0.097236, 0.034702, 0.450854, -0.238927, -0.195690, -0.012392, 0.093125, -0.003648, 0.075998, -0.157712, -0.139078, 0.089900, -0.190770, 0.000419, -0.008932, -0.097261, 0.266688, 0.018103, -0.065304, 0.098762, 0.137684, 0.114667, -0.010388, -0.014459, -0.028309, 0.170486, },
    {0.046470, 0.134014, -0.120080, -0.215020, -0.162445, 0.264799, 0.176339, -0.027882, -0.005341, 0.010000, 0.005919, -0.023813, 0.287215, 0.147302, -0.007464, -0.216241, -0.232542, -0.119433, 0.100062, -0.098053, -0.139927, 0.182511, 0.100123, 0.181217, 0.348869, -0.042160, -0.086605, -0.158349, -0.066030, 0.082157, -0.045329, -0.027498, -0.054040, 0.220611, -0.125534, 0.117755, 0.109960, 0.126115, -0.006834, 0.023470, -0.082518, -0.166874, -0.151991, -0.301475, 0.009095, 0.001381, -0.044302, -0.038930, -0.167066, 0.088523, 0.069526, -0.104276, -0.078472, -0.092621, 0.048442, -0.003191, 0.144322, -0.107100, 0.189953, -0.131351, 0.006525, -0.095299, 0.039879, 0.102891, },
    {-0.282466, 0.122965, 0.125867, -0.003013, -0.061590, -0.166552, -0.269986, 0.065608, -0.088514, -0.026923, 0.095485, 0.193111, -0.039439, 0.039901, -0.138682, -0.033733, 0.110195, -0.082877, -0.064642, -0.070280, 0.128469, 0.092741, -0.093995, 0.025063, -0.005605, 0.098550, -0.169268, 0.184211, -0.146098, 0.445376, 0.023149, 0.033042, 0.162588, -0.051386, -0.049338, -0.313869, -0.063338, 0.000205, -0.060742, -0.007726, -0.033534, -0.024992, -0.160842, 0.034433, 0.142714, 0.057014, 0.045098, -0.111878, 0.065708, 0.076020, -0.073492, 0.124909, -0.102351, 0.061498, 0.025731, -0.094887, 0.226450, 0.026715, 0.182419, -0.009178, 0.200554, -0.069709, -0.070431, 0.196378, },
    {0.140655, -0.114618, 0.053809, -0.130333, -0.074566, -0.045607, 0.002554, 0.045390, 0.135574, 0.171126, -0.085717, -0.274506, -0.182152, 0.109062, 0.124327, 0.133255, 0.118408, 0.057418, -0.021918, 0.040461, -0.140265, 0.129971, 0.034031, -0.156264, -0.076388, -0.115782, 0.017530, -0.143154, -0.059480, -0.140301, 0.020392, 0.004635, -0.127711, -0.123731, 0.007783, 0.056975, 0.016515, 0.192792, 0.077346, 0.021274, -0.151834, 0.083975, 0.125308, 0.080484, -0.215347, 0.025506, 0.078113, 0.045337, 0.007593, -0.002361, 0.210371, -0.104532, 0.006101, -0.090648, -0.110217, 0.013638, 0.130800, -0.058283, -0.064778, 0.060522, -0.051491, 0.013296, 0.071690, -0.254814, },
    {-0.008968, -0.059996, 0.154872, -0.171501, 0.086592, -0.065324, 0.088756, 0.269919, -0.050520, 0.116933, -0.199105, -0.039823, -0.069001, 0.044777, -0.093255, 0.054730, 0.238565, -0.108760, -0.188033, 0.013138, -0.034755, -0.046543, -0.034899, -0.150069, -0.060426, -0.271100, 0.073388, 0.038292, -0.039842, -0.103541, -0.031239, 0.054503, -0.117886, 0.096852, -0.204927, -0.061902, -0.070206, 0.014280, -0.077837, -0.006024, -0.057457, -0.018448, 0.124719, 0.006391, -0.100920, -0.056925, 0.049021, 0.000118, 0.132470, -0.099215, -0.016785, -0.224426, 0.086974, 0.115300, -0.194788, 0.023762, -0.063014, -0.132764, -0.117723, 0.090010, -0.087344, 0.016445, 0.095098, -0.127348, },
    {-0.134372, 0.049711, 0.177566, -0.108559, -0.084887, 0.294188, 0.004231, -0.064307, -0.027233, 0.154393, -0.156744, 0.216799, -0.014308, -0.004887, -0.231228, -0.019587, -0.082331, -0.239344, 0.013770, 0.077821, -0.184414, -0.233595, -0.080109, -0.017563, -0.042941, -0.075957, -0.011017, 0.117827, -0.022019, -0.152630, -0.099961, 0.029980, 0.125737, 0.062858, -0.274013, -0.023063, 0.121464, -0.081366, -0.012022, 0.439654, 0.220170, -0.126599, -0.300071, -0.047701, -0.041078, 0.053211, 0.035744, -0.093307, -0.173148, 0.023534, -0.320330, -0.167968, 0.010935, 0.089947, -0.143652, -0.155503, 0.223449, -0.020566, 0.048698, 0.206573, 0.069460, 0.035460, 0.111277, 0.022114, },
    {-0.017538, -0.146090, -0.067406, -0.154588, 0.046788, 0.051428, -0.035149, -0.096468, -0.200820, -0.123130, -0.200679, -0.075623, -0.068722, -0.120395, -0.015894, -0.044674, 0.089158, 0.001582, -0.014167, 0.105592, 0.039630, 0.003387, -0.126920, -0.185399, 0.031866, -0.053905, -0.231744, -0.150002, -0.032670, 0.025168, -0.114951, -0.077052, -0.100063, 0.074294, -0.135085, -0.019478, 0.034205, -0.153749, 0.109365, -0.029041, -0.071210, -0.184424, -0.021059, -0.043536, -0.074606, 0.142135, -0.112664, 0.040333, 0.042870, 0.097018, 0.033129, 0.034473, -0.061998, 0.037235, -0.093114, 0.113542, -0.002725, -0.107192, -0.054935, -0.131937, -0.118758, -0.140371, 0.089256, -0.173380, },
    {-0.000530, -0.084092, -0.028344, 0.131599, 0.132668, -0.209771, 0.005050, -0.177399, 0.053471, -0.034216, -0.095622, -0.329831, -0.295791, 0.072543, -0.171196, -0.030454, -0.223886, 0.044968, 0.093955, -0.140272, 0.104643, 0.229751, 0.094605, -0.385502, -0.411426, 0.179206, -0.044119, -0.079336, -0.140850, 0.115587, -0.000623, 0.127771, 0.123441, -0.247291, -0.174058, 0.095978, -0.037665, 0.168337, 0.034794, 0.094959, -0.223316, -0.115110, -0.182691, -0.048421, 0.165269, 0.084282, 0.097899, -0.036389, -0.033855, -0.008993, 0.118908, 0.007126, -0.024158, -0.024085, -0.053283, 0.059012, 0.070201, 0.205071, 0.074645, 0.118669, 0.122359, 0.013115, 0.109502, -0.063256, },
    {-0.109982, -0.057721, -0.001926, 0.067551, -0.023502, -0.266189, -0.008253, 0.074182, -0.091241, -0.078164, 0.028790, -0.113808, -0.086538, 0.094371, -0.193959, -0.042945, 0.198315, -0.051954, -0.327681, 0.102928, 0.247177, -0.129098, -0.054028, 0.175259, -0.089571, -0.124784, -0.048867, -0.022974, 0.201508, -0.132260, -0.117633, -0.145854, 0.144112, -0.124493, -0.007164, -0.273454, -0.230327, -0.215655, -0.123893, 0.089839, -0.053049, -0.098265, -0.156295, -0.039126, 0.047054, 0.081335, -0.098700, -0.116720, 0.114745, 0.052194, -0.246950, -0.034632, -0.527220, -0.046421, -0.259028, -0.015042, 0.214016, -0.211756, -0.075073, 0.048095, 0.132320, 0.027935, -0.006318, 0.100818, },
    {-0.149950, 0.008746, -0.004805, 0.076737, -0.311258, -0.060710, -0.084871, -0.117069, 0.009180, 0.130771, 0.109697, -0.288160, -0.035878, -0.120191, -0.004941, -0.100981, 0.024306, -0.093064, 0.002513, -0.016924, 0.298688, -0.136517, -0.064147, -0.097255, 0.118907, 0.070733, -0.229415, 0.313647, -0.022711, 0.000848, 0.037156, -0.066802, -0.092659, -0.329795, -0.110215, -0.141581, -0.077574, 0.079981, 0.038318, 0.009435, -0.221850, -0.162838, -0.009790, -0.094763, 0.175306, 0.140149, 0.150167, -0.081277, -0.200788, 0.145862, -0.008661, -0.011201, -0.042961, 0.032697, -0.109910, -0.177566, 0.044282, 0.052950, -0.221665, -0.150223, 0.285833, 0.002087, 0.003890, 0.126441, },
    {-0.112525, -0.013015, -0.060726, 0.033880, 0.038950, -0.104373, 0.079119, -0.250713, -0.124245, -0.094360, 0.075861, -0.120913, -0.020000, -0.013646, 0.005811, -0.005998, -0.095844, -0.013821, -0.072018, -0.116964, 0.241004, 0.027618, 0.044835, -0.182215, -0.030904, 0.141844, 0.145977, -0.278582, 0.100016, -0.110236, -0.034752, -0.010850, -0.057666, -0.208857, 0.029326, -0.211545, -0.204953, -0.001519, 0.003938, 0.031849, -0.186473, -0.312790, -0.132426, 0.213383, -0.195161, -0.099548, 0.019665, -0.053954, -0.263137, 0.059350, -0.038648, 0.083850, -0.272801, 0.068486, -0.194348, -0.006119, -0.094187, 0.024800, -0.128851, -0.014550, -0.179870, -0.014063, -0.094042, -0.135319, },
    {0.131613, -0.135213, -0.275249, 0.144086, -0.202020, -0.199410, -0.166554, -0.190633, -0.014338, -0.015591, 0.064676, 0.287889, -0.021915, -0.005074, 0.135417, -0.030283, -0.264986, 0.166221, 0.121262, -0.047892, -0.008651, -0.080747, 0.091150, -0.118124, 0.044220, 0.087720, -0.063106, -0.079923, -0.087558, 0.030950, -0.015823, -0.168744, -0.006574, 0.016225, -0.230126, 0.006217, -0.026200, -0.139070, -0.077403, 0.088871, -0.227013, -0.207093, -0.070409, 0.033871, -0.226424, 0.003079, -0.060641, 0.045013, -0.318458, 0.118632, -0.097279, -0.204445, 0.324403, -0.026206, 0.189903, -0.342852, -0.439612, 0.011074, -0.137047, 0.063152, -0.034559, 0.032831, -0.048602, 0.065760, },
    {0.244753, -0.003089, -0.000631, -0.083005, -0.021615, 0.287757, 0.150305, 0.101450, -0.120518, -0.073087, -0.230055, 0.050295, 0.235494, 0.051482, -0.064249, -0.161827, -0.010824, 0.145232, 0.171147, -0.043209, 0.213994, -0.010437, 0.324172, 0.007679, 0.250499, -0.118050, 0.000703, -0.116507, 0.220199, 0.011671, 0.064206, -0.179455, -0.030831, 0.462414, -0.074714, 0.218711, 0.259531, -0.151903, 0.036738, 0.046061, 0.316995, -0.049067, 0.031446, -0.056012, -0.003410, 0.024646, -0.074126, 0.054943, 0.026712, 0.066283, 0.057959, -0.151904, 0.204990, 0.089586, 0.033702, 0.095802, 0.034251, -0.035119, -0.076003, 0.022944, -0.208150, 0.132828, 0.030723, -0.143178, },
    {-0.122093, -0.115640, -0.054614, -0.001005, 0.031236, -0.003687, -0.115443, 0.169278, 0.044594, 0.032179, 0.047915, -0.169537, -0.073530, -0.008566, 0.035150, 0.218291, 0.137798, -0.045473, -0.088707, -0.054374, -0.199949, -0.125237, -0.081118, -0.126112, -0.022102, -0.211877, 0.057749, 0.094173, -0.120101, -0.051236, 0.006050, 0.016500, -0.080479, -0.271070, 0.170227, -0.193361, -0.046727, 0.113111, -0.059032, -0.057506, -0.109411, 0.061582, 0.173008, -0.156143, -0.279211, 0.098020, 0.075627, 0.068431, -0.035517, 0.060978, 0.175303, -0.072683, -0.147666, -0.061303, 0.007339, -0.065245, -0.101451, 0.028047, -0.288581, 0.033866, -0.147144, -0.107967, -0.021047, -0.294733, },
    {-0.274514, 0.084887, 0.176379, 0.029270, -0.064787, 0.288061, -0.161864, -0.203059, -0.067952, 0.048662, -0.236262, 0.085225, 0.049932, -0.093756, 0.193627, -0.113330, -0.061044, -0.086365, 0.053942, -0.196526, -0.157685, -0.001013, -0.134899, 0.038669, 0.029014, 0.045624, -0.230861, 0.016707, -0.099869, 0.102295, 0.052784, -0.101889, 0.067228, -0.044887, -0.201703, -0.148211, 0.147039, -0.130717, 0.016346, 0.156493, 0.109074, -0.057527, -0.172582, -0.205884, 0.117576, 0.035318, -0.061057, 0.009122, -0.020570, -0.036466, -0.054214, 0.197418, -0.065358, 0.055457, 0.053174, -0.346721, 0.168156, 0.076762, 0.208522, -0.023286, 0.003162, -0.086297, -0.042694, -0.035617, },
    {0.054101, 0.044169, -0.136012, 0.060649, -0.169500, -0.248467, -0.021750, -0.263309, 0.246966, 0.089720, -0.114254, 0.048835, -0.241422, 0.117330, 0.398123, 0.094197, -0.049343, 0.046763, 0.066670, 0.157926, -0.210389, 0.078025, -0.076195, -0.105526, -0.300117, 0.099245, -0.274875, -0.090257, -0.364809, 0.202680, -0.031858, -0.029992, -0.126206, -0.066265, 0.234405, 0.105479, 0.285393, 0.106064, -0.119145, 0.124886, -0.022815, -0.220877, -0.070640, -0.092588, 0.025352, 0.083071, -0.017482, 0.075376, -0.026177, -0.099548, 0.301499, 0.058137, -0.133121, -0.040068, 0.173953, -0.028496, -0.268938, 0.140008, 0.210069, 0.032155, 0.045195, 0.085704, 0.099499, -0.075396, },
    {-0.243323, 0.155802, 0.012858, -0.162091, 0.067562, -0.253192, -0.026745, -0.079724, -0.350470, -0.321180, 0.219075, -0.171653, -0.172153, -0.095649, -0.151887, -0.163995, -0.189500, -0.170804, 0.230941, -0.141368, -0.047929, 0.044024, 0.090257, -0.168207, -0.503316, -0.167238, 0.140744, -0.126695, 0.022237, 0.075615, 0.068813, -0.133235, 0.003275, -0.093259, 0.083823, -0.049016, -0.125330, -0.116015, -0.042431, -0.079674, -0.270261, -0.436816, -0.211783, 0.112967, 0.007256, 0.028146, -0.010055, -0.093214, -0.199612, -0.139793, -0.111416, 0.205403, -0.061837, -0.035044, -0.274392, 0.087907, -0.355775, 0.153046, 0.125000, 0.079749, -0.157744, -0.031469, 0.079830, 0.038621, },
    {0.038008, -0.196647, -0.091299, -0.172997, 0.186915, -0.169719, 0.024889, 0.005978, -0.002923, -0.079595, 0.232326, -0.364469, 0.053243, -0.163153, -0.004693, 0.024134, 0.221359, 0.052645, -0.080933, 0.078324, 0.166696, -0.257391, 0.071266, 0.031908, 0.097605, -0.285747, 0.105410, -0.097615, 0.160301, -0.125577, 0.143453, 0.016878, -0.057817, -0.129354, 0.124289, -0.078054, -0.045378, -0.053991, 0.046431, -0.036520, -0.274018, -0.136763, 0.010678, 0.236632, -0.244794, 0.056622, -0.028069, -0.084860, 0.235273, -0.086459, -0.064478, -0.157195, -0.034295, -0.078014, -0.130336, -0.030546, 0.059406, -0.146271, -0.219052, -0.044714, 0.312744, 0.044949, 0.068721, -0.033776, },
    {0.018924, 0.091034, 0.131374, -0.095722, -0.002356, 0.258185, 0.288337, 0.026615, -0.031603, -0.093856, -0.223405, -0.008020, -0.111476, -0.074461, -0.017196, -0.017928, -0.185460, -0.101298, 0.141093, 0.061785, -0.224286, 0.104232, 0.166752, -0.030609, -0.157156, -0.137374, -0.109701, -0.035590, -0.140778, -0.042609, -0.038012, 0.093137, -0.028849, 0.203414, -0.280750, 0.287585, 0.159351, 0.348641, -0.069317, 0.112760, 0.090499, -0.112192, -0.348094, -0.174480, -0.028137, -0.118939, -0.068512, -0.055914, -0.281626, -0.147690, 0.015684, -0.119707, -0.004997, -0.075181, -0.228868, 0.064623, 0.013403, -0.053319, 0.369844, 0.018085, -0.124756, -0.013728, -0.034964, 0.061136, },
    {-0.237406, 0.132414, -0.170866, -0.041817, -0.271558, -0.141628, -0.206038, -0.136829, -0.237861, -0.176067, 0.017738, -0.093198, -0.254027, 0.151002, 0.069064, 0.331045, 0.196858, -0.061084, 0.116027, 0.083499, -0.213575, -0.107631, -0.151593, -0.105904, -0.027245, 0.002539, -0.082517, 0.067600, -0.454684, 0.022028, -0.050236, -0.080980, -0.096204, -0.024723, 0.211225, -0.136294, 0.065297, -0.152919, 0.052724, -0.038508, 0.065313, -0.101815, 0.307653, -0.140098, 0.020807, 0.068723, -0.113387, 0.001191, 0.244959, -0.005062, 0.037879, 0.083190, -0.002786, 0.053383, -0.128188, -0.201773, -0.303547, 0.143570, 0.210327, 0.075215, -0.075599, 0.048927, -0.025642, 0.141500, },
    {0.204814, -0.111141, -0.108652, 0.006243, -0.177318, -0.298766, -0.286955, -0.088829, 0.003792, -0.224411, 0.195306, 0.041262, 0.020180, 0.123929, 0.126956, -0.133368, 0.048067, 0.013637, -0.050069, -0.077855, -0.125210, -0.058068, -0.021647, -0.108672, -0.129227, 0.070363, -0.240767, 0.072098, -0.063677, 0.273527, -0.030656, -0.126722, -0.015443, -0.234142, 0.113701, 0.104919, -0.192492, -0.046233, 0.041023, 0.049202, -0.089892, -0.297720, 0.230521, -0.019004, -0.212722, 0.092195, -0.039878, -0.102572, -0.060761, -0.024585, 0.004300, -0.052291, 0.088749, -0.001410, 0.070993, -0.262649, -0.184180, 0.012908, -0.084165, -0.014248, 0.034904, -0.032720, 0.058385, 0.078432, },
    {-0.131110, -0.153228, 0.060849, 0.203592, 0.037451, 0.231340, -0.202027, -0.018544, -0.030246, 0.259239, 0.046960, 0.106474, -0.045287, 0.024089, 0.213872, 0.049382, 0.008158, -0.063813, 0.058619, 0.079399, -0.036947, -0.125953, -0.189104, -0.049411, 0.147816, 0.355728, 0.034661, 0.050116, -0.022873, 0.077360, -0.109207, -0.243945, 0.268899, 0.121560, -0.029224, -0.048150, 0.251935, -0.122848, 0.005672, -0.079830, 0.131112, -0.031819, -0.039256, 0.010859, 0.265570, -0.111192, -0.059845, 0.104692, -0.104448, -0.002979, -0.012414, 0.230357, 0.061940, 0.028486, 0.093410, -0.312136, -0.127827, 0.209275, 0.125721, -0.016611, 0.158026, 0.127791, -0.019899, 0.056141, },
    {-0.165105, -0.181921, -0.085446, 0.062641, 0.148253, -0.190166, -0.353253, -0.251791, 0.052802, -0.212044, -0.124592, -0.176423, -0.037497, -0.048451, -0.223812, -0.010613, -0.195304, 0.038591, -0.011903, -0.082999, -0.119285, -0.110862, -0.063967, -0.193282, 0.100081, 0.156386, 0.064241, 0.029158, -0.069652, -0.247404, 0.069194, 0.187847, 0.141930, -0.271359, -0.098232, -0.080001, -0.335988, -0.177480, -0.001673, -0.107775, -0.217320, 0.024771, 0.045035, 0.136603, -0.208208, -0.105480, -0.082620, 0.151973, -0.146599, -0.090099, -0.387892, -0.139653, 0.204936, -0.057972, -0.222218, -0.197993, -0.255974, -0.155437, -0.094789, -0.158643, -0.091153, -0.009310, -0.041225, -0.402786, },
    {-0.097446, -0.040790, 0.169618, 0.002974, 0.055022, 0.428369, 0.065670, 0.130757, 0.132004, -0.054133, 0.052645, -0.043567, -0.267339, 0.148357, 0.097273, 0.116971, 0.154126, -0.025076, -0.052418, 0.044557, -0.074801, -0.138407, 0.036816, -0.113248, -0.216455, 0.061131, 0.183714, -0.020040, -0.024410, -0.172811, 0.100953, -0.019493, -0.002617, 0.260528, 0.189731, 0.010710, 0.242696, -0.013600, 0.127228, 0.007878, 0.153825, 0.143319, 0.234201, 0.090800, -0.192771, 0.004291, 0.038716, -0.062593, 0.029969, 0.049638, 0.094663, 0.036372, 0.270172, 0.056945, -0.027863, -0.075305, -0.227544, 0.123265, -0.120372, 0.036942, -0.327830, 0.027347, 0.097313, -0.248237, },
    {-0.100513, -0.149122, -0.250447, -0.037443, -0.045363, -0.173153, -0.357490, -0.205966, 0.059288, 0.190777, 0.171514, 0.025626, 0.010810, 0.148818, 0.028500, 0.163838, 0.199719, -0.129804, -0.167995, -0.015569, 0.011304, -0.070711, -0.297206, -0.081672, 0.021969, -0.200848, 0.028245, 0.151883, 0.016095, 0.103762, 0.130164, 0.030803, -0.067070, -0.131305, 0.271269, -0.162432, 0.013623, -0.056149, -0.107923, -0.023676, -0.053546, -0.018119, 0.291598, -0.125120, -0.242677, -0.016878, 0.076314, -0.154331, 0.109263, 0.050383, 0.133446, 0.048805, -0.173452, -0.097929, -0.004850, -0.199730, -0.194608, 0.020568, -0.053375, 0.092079, 0.268902, 0.034418, -0.073659, -0.072786, }
};

const fixed_pt l2_bias[HIDDEN_SIZE2] = {0.172139, 0.096827, -0.046916, 0.115042, -0.027480, 0.003647, -0.065803, 0.231918, 0.179552, -0.067907, -0.096844, -0.016996, -0.028107, 0.025683, 0.069227, 0.134543, -0.219112, 0.109108, -0.163740, -0.011492, -0.035470, 0.345556, -0.050908, 0.037097, 0.039319, 0.030834, 0.027196, 0.077999, -0.106043, 0.028718, 0.067060, 0.103946, -0.013726, 0.026809, -0.061553, -0.200829, 0.193424, -0.064448, -0.049253, -0.049446, 0.253521, -0.068228, -0.024100, 0.049485, 0.127481, -0.140372, 0.182609, 0.205075, -0.165431, 0.078569, 0.108729, 0.113717, 0.118640, 0.013970, -0.005059, 0.024449, 0.087327, 0.134164, -0.170869, -0.115033, 0.131281, 0.174259, -0.048875, -0.235344, };

const fixed_pt l3_weights[NUM_CLASSES][HIDDEN_SIZE2] = {
    {0.098730, -0.164617, 0.097533, 0.120522, -0.194588, 0.124118, -0.291492, -0.059303, -0.084206, -0.137149, -0.056087, -0.193017, -0.000462, 0.106919, 0.005110, -0.015662, 0.067907, -0.027393, 0.198106, 0.138372, 0.035723, -0.340245, 0.027251, 0.068222, -0.078304, -0.144963, -0.242590, -0.247206, -0.135790, 0.030761, -0.303442, 0.143176, 0.063970, -0.049312, 0.068454, 0.017349, 0.007682, -0.167283, -0.083344, 0.100971, -0.203856, 0.078900, -0.044818, -0.001966, -0.105257, 0.051434, 0.110481, -0.536915, -0.028021, -0.113881, 0.105124, 0.087907, -0.068858, 0.044319, 0.152876, -0.181495, -0.068686, -0.129120, 0.135764, 0.085452, 0.132134, -0.096706, 0.030319, 0.121689, },
    {0.089723, -0.238927, 0.055051, 0.090358, -0.216604, 0.187345, -0.167027, -0.371548, 0.130871, 0.121228, 0.052174, -0.187240, 0.179832, 0.062428, 0.093657, -0.007845, -0.204822, 0.004000, -0.026792, 0.109295, -0.057560, -0.040613, -0.103772, 0.107846, 0.114711, 0.212952, 0.097964, 0.047636, -0.101281, 0.086569, 0.060246, -0.187526, 0.166609, 0.105866, 0.107509, -0.000677, 0.098119, 0.143739, -0.196822, -0.066499, -0.150655, -0.106374, -0.094676, -0.139235, -0.170566, 0.125097, 0.103268, -0.194472, -0.122806, 0.185693, 0.078793, 0.057506, -0.037618, -0.072148, -0.138339, 0.216799, 0.003940, -0.162780, -0.139004, -0.148247, 0.003830, 0.361998, 0.104979, -0.049241, },
    {0.134422, -0.373583, -0.058521, 0.043007, -0.292165, -0.061433, 0.160121, -0.082642, -0.289979, -0.107812, 0.034707, -0.213848, -0.101195, -0.041667, -0.027076, -0.291781, -0.063834, 0.177088, -0.008319, -0.413976, -0.030223, -0.115270, 0.127972, -0.201997, 0.016026, -0.058265, -0.100684, -0.118909, 0.036277, 0.116206, -0.318321, 0.126205, 0.116476, 0.049381, -0.025974, -0.101431, -0.059018, 0.094235, -0.140947, -0.071580, -0.309234, -0.225416, 0.094765, 0.105416, -0.089660, -0.012259, 0.032243, -0.198687, -0.070029, 0.010742, -0.152909, -0.464429, 0.228045, -0.060937, 0.151686, -0.124160, 0.096527, -0.402238, 0.088490, 0.071087, -0.009596, -0.011563, 0.129333, 0.221856, },
    {0.129699, -0.313036, -0.118989, 0.117354, -0.207739, -0.108521, -0.266609, 0.116278, 0.034224, -0.137864, -0.274950, -0.391355, -0.229821, 0.151816, -0.416756, -0.126284, -0.072900, -0.233973, -0.149602, -0.236216, 0.116080, 0.041024, 0.109119, -0.070340, 0.147260, 0.172648, -0.456742, -0.226941, -0.316527, 0.071495, -0.216789, 0.120278, -0.037614, -0.303318, -0.083378, -0.074699, 0.283192, -0.005295, -0.098959, -0.328348, 0.131789, -0.359814, 0.186974, -0.297172, -0.201790, 0.086477, 0.198652, -0.160728, -0.028942, -0.114011, -0.240463, 0.040851, 0.103804, -0.058358, 0.140718, -0.112415, -0.236682, 0.168465, -0.230541, -0.148271, -0.197879, -0.410585, -0.052263, -0.134688, },
    {0.103853, -0.080229, 0.010900, -0.345439, 0.237599, -0.110182, 0.162896, -0.213366, -0.120889, 0.218258, 0.107799, 0.061837, -0.242775, 0.003100, -0.580049, -0.320329, -0.004961, -0.126206, -0.024094, -0.242671, 0.074001, -0.226284, -0.296817, 0.023633, -0.133833, 0.134329, 0.088736, -0.231716, -0.067365, 0.011321, -0.248873, -0.287954, -0.079259, -0.325656, -0.179457, -0.034761, 0.072981, -0.148173, 0.091958, 0.108065, 0.077572, 0.160474, -0.161701, -0.029755, -0.196208, -0.089486, 0.082121, -0.041997, 0.073134, -0.175484, -0.123465, -0.255173, -0.161896, 0.172314, 0.109593, 0.162975, -0.266406, -0.010705, 0.188667, 0.105384, 0.079583, -0.261765, -0.311116, 0.071406, },
    {-0.142547, 0.121856, -0.060479, 0.055038, -0.058056, -0.005088, -0.073183, 0.028587, 0.023595, 0.008660, -0.001585, 0.114973, -0.149890, -0.101269, 0.056536, 0.157972, -0.161404, 0.102654, -0.015647, -0.210871, 0.058137, 0.029636, -0.022629, -0.026261, 0.031678, 0.111049, 0.024321, 0.111025, 0.138088, -0.052980, 0.190692, -0.221532, -0.007471, 0.159388, -0.195912, -0.091843, 0.118628, -0.243276, -0.019882, 0.089568, 0.114280, -0.008756, -0.024085, 0.105498, 0.195536, -0.020547, -0.159360, -0.108434, -0.033601, -0.067326, -0.260144, 0.094697, -0.075802, 0.161639, -0.117504, -0.030470, -0.193500, 0.119646, -0.223353, -0.193975, 0.104587, -0.097381, 0.023930, -0.254368, },
    {-0.399688, 0.220609, -0.002218, 0.019767, -0.046559, -0.222237, -0.241314, -0.117975, -0.074742, -0.199618, -0.147354, -0.157882, 0.052455, 0.150366, -0.355903, 0.110970, -0.075616, -0.264508, -0.173900, -0.007638, -0.317852, 0.011995, 0.076212, -0.021908, 0.083787, -0.334044, 0.088480, 0.114116, 0.220252, -0.004187, 0.130982, -0.490603, -0.099227, 0.007343, -0.149770, -0.065124, -0.253497, -0.115289, -0.024437, -0.220051, -0.164885, -0.160690, 0.118426, 0.123085, -0.131995, 0.029607, -0.226730, -0.126374, -0.084208, -0.133420, -0.239977, 0.108420, 0.059790, -0.227312, -0.239162, -0.276203, 0.096120, -0.099616, -0.148757, -0.149017, -0.512554, 0.018829, 0.081511, -0.207462, },
